2708 128
654 0.0026915856 0.22488415 0.07212624 0.1956621 0.13800932 0.1755122 -0.21485545 -0.18237025 0.33242962 0.11797783 -0.391108 -0.0109202815 -0.23197588 0.42787468 -0.058534134 0.9662919 -0.31173748 -0.15996017 -1.0982631 -0.58009756 -0.36020824 0.57435095 -0.6104925 0.20701435 -0.27695754 -0.093690276 0.535752 -0.34271136 0.20199326 0.19946633 -0.19092283 -0.14437464 -0.20516996 0.6682818 -0.14492257 -0.61294466 0.62606144 0.2111137 0.09302307 0.15873684 -0.05217993 0.14255154 0.170688 0.36605114 -0.17369404 0.16438608 -0.29894823 0.2105869 0.4999601 -0.302899 -0.33984578 -0.4895216 -0.22779141 -0.027210765 0.19726811 -0.2005114 0.05067022 -0.03567789 0.3484008 0.31818157 -0.34633783 -0.84494066 0.49741614 0.34134346 0.48607302 0.43234918 -0.17941523 0.044745233 0.21680444 -0.46505123 0.3001652 0.11703133 0.23284027 0.2933949 -0.27716285 -0.028948404 0.013074857 -1.1582805 -0.160126 0.22894411 0.56149143 -0.1636597 0.15158081 -0.2995318 -0.19245324 -0.4940273 0.109278426 0.264257 1.3819549 -0.4268676 0.04918481 0.4440613 0.5553491 0.0659727 0.101590194 -0.44609493 -0.30503556 -0.2502169 -0.2804571 -0.15716216 -0.020276392 0.123995826 -0.2240539 -0.39829338 -0.027950102 -0.353134 0.08972663 0.38039336 -0.11141796 -0.27975485 -0.55301154 -0.3082871 0.41414535 0.63942796 -0.15460925 -0.1851334 -0.14821167 -0.23982103 -0.09813807 -0.9552075 0.14947271 0.32406124 -0.10253543 0.77774805 0.38515916 -0.33823797 0.5369814 -0.05213342
1454 0.06269904 -0.33681038 0.46649918 -0.25321224 -0.7453102 0.29651114 -0.16289833 -0.14541739 0.40316465 -0.24354562 0.14257507 0.269577 0.002927649 0.5777314 0.58345747 0.6012186 -0.37108076 -0.009695178 -0.5365279 0.7708177 0.27490202 0.2472717 -0.20049351 -0.09225171 -0.012305217 -0.39161292 0.113676265 0.045974538 0.01624869 0.0060487064 -0.0032361515 0.40128592 -0.36695278 0.3993334 -0.19696295 -0.24639137 0.12005228 0.33563024 -0.081884325 0.46015996 -0.4260512 -0.18354657 -0.16763291 0.3345331 0.025628194 0.16703717 -0.118589185 -0.44858015 -0.08257054 -0.5406601 -0.491864 -0.2128924 -0.49380794 0.1868874 0.066723764 -0.120443955 0.033305883 -0.40499184 -0.028830945 0.4401385 -0.058490932 -0.1417016 0.31265208 0.4865083 0.458919 0.59043765 -0.33410984 -0.33595106 0.09276931 -0.6182528 0.10701968 0.09884607 0.2538276 0.28198215 0.09238634 -0.49600968 -0.36289856 -0.81017566 -0.3510636 0.03413998 0.10650517 0.17916796 0.11302621 -0.51027745 -0.066976234 -0.1777965 -0.10798225 -0.023552367 1.1170856 0.053026382 -0.07032196 0.20566693 0.0965646 -0.24439462 -0.1823181 -0.06515051 -0.11325858 -0.18879409 -0.65850645 -0.27342144 -0.17596535 -0.032992207 0.7761195 0.1498871 0.3313677 0.20056511 0.13876462 0.1269522 0.20918235 0.12447514 0.07287203 0.55219245 -0.01914912 0.5863061 -0.045195 -0.33831593 0.056063976 -0.33091974 -0.013501653 -0.15775703 -0.12118947 0.37075326 -0.34414735 0.15305549 0.054564174 -0.18950173 -0.27332523 0.0072298828
3 -0.30435163 1.3715539 0.756038 -0.08328863 0.0014417229 0.11312283 1.4311857 -0.1220827 -0.33828145 -1.3958771 0.017069632 -0.33773747 0.07927269 1.3338847 -0.00047829712 0.08530945 -1.1594851 0.35835278 -0.6719614 1.2252976 -0.033328738 0.21383372 -0.70875984 0.0030067686 0.0025474373 -0.5017976 -0.40001774 -0.81126875 -0.14067341 0.15077399 0.015216863 -0.12124464 -0.7199171 1.398631 0.18262078 -0.36932203 -0.09100839 0.5293604 -0.03089006 0.5309244 0.43586263 0.24191931 -0.014546608 0.9951676 -0.4354873 0.04097153 -0.16358468 -0.1768452 0.012592448 0.29829115 -1.815025 1.4001564 -0.66484976 -0.0055365823 -0.3145917 0.5326407 0.181458 0.018202873 -0.25864065 -0.022983473 0.19553164 -0.042232983 0.11496647 1.6021012 -0.019060778 0.49203148 -0.040569745 0.62995917 -0.016959967 -0.61012095 0.13475826 0.054692555 0.6685081 0.2817895 0.0052160826 -0.15336546 -0.25312498 -1.1975302 -0.33844572 0.022967493 0.0907268 -0.7251515 0.5071537 -0.6087331 -0.21913484 -0.36577812 -0.14956275 -0.158427 0.25260523 -1.4280262 0.027131367 -0.21670781 0.59233 0.5452663 0.22540377 -0.7146227 1.2393266 1.1885148 0.46483314 -1.4035212 -0.035802122 0.53355736 -0.25488636 -0.44629896 -0.13097265 0.12535481 -0.1497446 0.05188138 0.4748313 0.056316506 0.12450406 0.570219 1.4351679 -0.25222388 -0.07445092 -1.4292382 -1.2189604 0.20901588 -0.058471955 -0.31683853 0.80422926 0.19029084 0.012216154 0.97149664 0.13611114 -0.029702093 0.15123366 -0.28604373
2544 -0.017740991 -0.15448552 1.1393547 1.0174733 -0.32228768 -0.4347533 1.118112 0.24315846 0.08698613 0.029048512 -0.18053755 0.26323333 0.2688213 0.1434105 -0.21731226 -0.063881814 -0.58423746 -0.011211881 -0.5212883 1.8823609 2.2785718 0.17383225 0.17209741 -1.3973796 0.09802786 0.16146359 -0.45275113 -0.38603103 0.47961885 0.050752677 -0.05332585 -0.8663256 -0.2619546 1.5778201 1.8451592 0.24604993 -0.52233803 2.0660236 -0.17911415 0.050536398 -0.65344715 0.055988256 -0.5425966 0.3112715 -0.023016164 0.17082715 -0.100133136 0.29043943 -0.26721504 0.064607754 0.23429027 -0.67213875 -0.03644279 -0.55955523 -0.102479346 -0.18841983 -0.21025138 0.15471174 1.0210525 0.24728927 -0.56094164 -0.286029 0.19479084 -0.054062195 -1.0741783 0.4577419 -1.3328371 -0.27105683 0.16010836 -1.0437928 0.03254255 -0.12028127 -0.06550843 1.0104262 -0.4823658 -0.0050528385 0.16994974 -0.5913799 -0.23592998 -0.5722266 0.888231 0.38174525 0.54115105 -0.72739667 0.40555573 0.12690577 -0.41858542 0.66988236 -0.08067014 -0.6190576 0.61814123 0.19841611 -0.18197952 -0.09331942 -1.2384024 -0.6102697 -0.19209336 -0.11364729 -0.041306064 -0.58719665 0.09353997 -0.1678847 0.20333402 -0.42932695 -0.08186107 -0.034634147 -0.11908626 -0.0832072 -0.1611379 1.06827 0.23611553 0.06548658 0.09485655 0.21768935 -0.6663044 -0.08181083 -1.1270151 0.91602874 0.113744445 0.4852872 1.0537636 -1.6589566 0.5673176 0.6753489 -0.3503137 -0.6674657 -0.2830605 0.0050853
7 0.1915428 -0.5346751 -0.052273788 -0.13799639 0.023606215 -0.02925635 -0.20164587 -0.030084468 -0.19934022 0.46760347 -0.29409593 0.067076564 -0.39126316 2.5384917 -0.19866765 1.7313889 -1.152163 0.09440555 -1.0039458 -0.4513865 0.2203212 0.2823583 -0.42575496 0.005161803 -0.3352143 0.062439673 1.5753683 0.058028013 0.03648297 0.069669984 1.4253572 0.35829738 -0.2999224 -0.62893546 1.7546242 -0.06771328 0.5521838 0.11345242 -0.10410175 -0.14693809 0.041396555 -0.016910763 -0.05760119 -0.1313215 0.22361761 0.9430692 0.26572508 0.033153825 0.46530575 1.6824791 0.047294565 1.5627425 -0.35838208 -0.2257912 -0.04822791 0.8249516 -0.34490404 0.2873746 1.3713156 0.26045403 -0.3197527 -0.064362295 0.43693915 0.22476587 -1.1943347 0.34739512 -1.0096473 -0.17216875 -0.89977217 0.28519285 0.034304827 0.24305415 -0.04662089 1.1494555 -1.6434388 -2.098479 -0.27044186 -0.43084344 -0.36857215 -0.00915326 -0.23399699 0.04439072 -0.22398975 -0.12986402 -1.4404181 -1.2695471 0.06106574 0.036825582 0.12206699 -0.11318734 1.5825353 0.29435283 0.8362789 -0.06384648 -0.21332432 0.04213957 -0.7625067 -0.004196542 0.12845539 -0.2016157 -0.27145612 0.0394083 -0.06929908 -0.021139093 0.21529093 0.87981606 0.16456333 0.025425334 0.6056007 0.13882533 0.4147617 0.03365885 1.2733209 0.6939303 0.31760135 -0.14196469 0.15063293 1.7575529 -0.04450327 0.012834931 -0.13325815 0.03171507 -0.7125513 0.606307 0.51471126 0.061159626 -0.14899871 0.02436503
208 0.09298775 -0.40866825 1.0049227 -0.13965194 -0.1899958 -0.34848857 0.17214943 0.0036852243 0.35875422 0.046207797 0.0036341543 0.0073258244 -0.4362451 0.117014915 -0.4576588 0.60071486 -0.14580669 1.1743248 -0.5777156 1.0597143 -0.13403971 1.7585577 0.051888797 0.09596611 -0.070707984 0.2478131 -0.04637186 -0.6047694 0.25269702 0.40269753 0.023994705 0.45718196 0.11870064 -0.12503062 0.74843407 -0.11291633 -0.5371506 0.42910486 -0.12159732 0.022313632 -0.065967634 0.0057216063 0.16584682 -0.22150284 0.36608908 0.10372602 0.10122288 -0.10087223 -0.16656013 0.35006195 -0.79970884 -0.05456469 -0.048434887 0.030916106 -0.08306336 1.7387967 0.15233313 0.10959901 -0.12444237 0.04564605 0.06039485 -0.14266208 0.38961574 0.4662128 -0.353158 1.5895545 -0.18666556 0.1052288 -0.05882452 -0.39254102 -0.31662592 0.31885678 -0.109833024 -0.05989055 0.3192538 0.22538202 -0.0131114 0.12431693 -0.52230895 -0.20184535 -0.07765634 0.12602219 -0.02559033 0.075755 -0.290984 0.033977028 0.75676006 -0.23311917 0.3462194 -1.7950071 0.027577134 -0.21023749 -0.07499753 0.2951956 0.360837 0.101764545 -0.36116573 0.16899806 0.26430935 -1.209651 -0.19000503 -0.47584087 -0.13032034 -0.25784037 -0.06423533 -0.06882467 -0.092733614 0.08168901 0.21767218 0.92375845 0.52551776 0.45791999 1.3338009 -0.05027307 -0.5169584 0.090052545 -0.0041922713 0.32119435 0.71309495 0.15824255 0.0066144024 0.21706559 -1.2535878 -0.13148393 0.065649144 0.3028306 0.015489997 0.59071577
2545 -0.05305633 -0.30076972 0.39372373 0.3448943 -0.27627242 0.0029509666 0.07545547 0.30661175 0.70795614 0.06518747 -0.20555554 0.24611978 -0.13879645 0.7616283 -0.9720637 0.12514159 -0.29245958 0.5105814 -0.8166898 -0.21721067 0.32432595 0.24801134 0.04736383 -0.022207795 0.9071841 -0.16694611 0.70740527 0.029990548 -0.10146657 0.23241661 -0.1295564 0.19889344 -0.4121377 -0.119623885 0.27478477 0.02809372 0.33259258 0.09598747 0.32881266 -0.109235086 0.34682083 -0.24968612 -0.20379631 -0.1956812 0.37780812 0.16045542 0.2579339 0.6728923 -0.24679519 0.60815483 -0.11652053 -0.08800991 0.31965134 -0.0020687054 0.63299716 -0.407657 0.9166488 -1.0865753 0.3741666 0.56587243 0.21897191 -0.39325166 -0.1473425 0.37714335 -0.15242873 0.5709673 0.04491496 -0.02507364 0.15290545 -0.4361702 -0.31944507 0.27081394 -0.08685714 0.60908103 -0.1359218 -0.068993 0.6158427 -0.34545705 -0.57470804 -0.13018039 -0.55475205 -1.1127776 -0.38169998 -0.026281085 0.46223632 -0.27493295 0.29699212 -0.4037528 0.019469986 -0.53974754 -0.52853656 0.01924206 0.27927935 0.20881237 -0.45694914 0.44622704 0.023890847 1.0371511 0.41914842 0.40508577 0.017389402 -0.11118294 0.41774252 -0.11414625 0.13147211 -0.26119876 0.4983712 -0.09549572 -0.31464794 -0.16992654 0.4441988 0.25236273 1.2963172 0.46220413 -0.016067114 -0.116950646 -0.8571682 0.24113102 0.6308797 0.31565493 0.21845418 0.12718028 -0.27218828 0.06289023 -0.6945145 -0.091801874 -0.03757958 -0.12612002
19 0.09476738 -0.15502311 -0.038926687 0.041700188 -0.4588046 0.034475725 1.0088239 -0.43606913 0.26069942 0.41780522 0.014484672 -0.030991528 -0.23815879 0.51761144 -0.578894 0.38365108 -0.12126889 -0.12821159 -0.22378069 -0.0206707 -0.007891816 -0.04790315 -0.06904947 -0.080257386 -0.3160555 0.113351814 -0.53804034 -0.18933204 -0.20369521 -0.27043912 -0.28877932 0.051052306 -0.3092342 0.37632734 0.22883773 0.24524316 -0.05957825 0.7213883 0.15255176 -0.27006805 -0.15893692 -0.044880953 0.17259856 0.66317904 -0.2499135 -0.14230123 -0.34374857 0.1973975 0.18461718 0.033419125 -0.44343445 -0.06318401 -0.23288798 0.32830036 -0.09908538 0.19482261 0.055245098 -0.4741986 0.12571186 0.79881364 -0.0018250658 0.011480882 0.25237656 0.3320869 0.096862756 -0.030202838 0.15753669 0.44842538 0.026473442 0.007178389 -0.21826345 -0.17052148 -0.091047645 -0.16769484 0.03775798 0.42407355 -0.29384735 -0.6014783 -0.045475088 -0.29472452 0.075247586 -0.11826919 -0.048138015 0.030332984 0.12818368 -0.045215983 -0.049387366 0.018854713 0.59585345 -0.91305196 -0.029233724 -0.29207855 0.61587983 0.1008965 0.31494257 0.14725883 0.40449062 -0.16457306 0.109083556 0.25650796 -0.07108921 -0.08415654 0.090664424 0.08657805 -1.2669165 0.914571 -0.021399612 -0.049201462 -0.3132229 -0.0021434862 -0.20813099 -0.07732689 0.0712562 0.046075143 -0.16239527 0.36274758 0.058740426 0.6581062 0.008924674 0.061909184 0.061702892 -0.13003871 0.22300872 1.3478255 -0.8618244 0.036303822 -0.42075172 -0.22451735
2374 0.2050979 -0.38327426 0.26996267 0.34220275 0.35459188 -0.2354621 0.2907014 -0.27783278 -0.0020456102 0.04923911 0.4939886 0.21042578 0.18857951 0.10276007 0.58124864 0.15336981 0.38649365 -0.0051180106 -0.006083812 0.45111573 1.230998 0.7248452 0.2986587 0.23070586 0.17438366 -0.14232814 -0.04022661 -0.25646332 -0.14164104 0.4836002 -0.45144212 0.5213186 -0.9722707 1.022196 0.008153398 -0.3236358 0.049175434 0.21300572 0.009494126 0.28218538 -0.21206303 0.369463 0.060718596 0.63652694 0.20141158 -0.548364 -0.2487987 0.03648372 -0.04967365 0.13456129 -0.20450293 0.17009823 -0.12317067 -0.12332144 -0.041756608 0.12212888 -0.020127896 -0.5328918 0.033417113 -0.108511016 0.0870486 -0.1745325 -0.042716283 0.52296877 0.1826949 0.34280998 -0.6495545 -0.48326543 0.258527 0.16891673 0.34082028 0.25143248 0.05559424 0.35902804 -0.30584976 0.39356706 -0.107174546 -0.9857502 -0.111263 -0.14555807 0.08001178 0.049422037 0.06793552 -0.10952601 0.083758846 -1.0817709 -0.20247924 -0.03277532 -0.3951834 -0.22556733 -0.3210111 -0.08774734 0.21552184 0.31800172 0.037722267 -0.13760489 -0.04203978 0.23618416 -0.2517951 -0.11742122 0.017807653 0.34868485 0.35833994 0.16401176 -0.09238623 0.33741868 0.17034908 0.45723233 -0.81036854 0.27505454 0.14302053 0.088713005 0.75609946 -0.13316934 0.24895386 -0.3389276 -0.026697544 0.074477986 0.110819705 -0.1333314 -0.28615957 0.17076351 0.022257369 0.35704225 -0.72197795 -0.07321892 -0.25610113 -0.045010194
23 -0.002515015 -0.19935171 0.039996672 0.07558779 0.102510154 -0.095614366 0.037974514 -0.11753614 -0.076954685 -0.14366858 0.08327869 -0.14945906 0.98678464 -0.0028798752 -0.48412564 0.20393547 -0.06684701 0.6253519 -0.04113258 0.08236271 -0.017508402 0.9612808 0.059516333 0.15819147 0.18108739 0.030606098 0.053255375 -0.037655093 0.2630458 0.069092326 -0.1614155 -0.046711825 -0.20852508 0.14043579 -0.14826292 -0.14831986 0.005720701 0.6260002 0.06559139 -0.038635407 -0.12766333 -0.19985868 -1.4996489 -0.01158707 0.03569652 -0.19478418 -0.24760844 -0.03605328 0.04734538 0.16184528 -0.25468615 -0.03415747 0.18254168 0.11084589 -0.03356435 0.2101317 -0.14150475 0.17190403 0.22197574 0.11578662 -0.00344506 0.048551172 0.060523935 -0.34969103 0.13445538 1.1264185 -0.007431343 0.5276955 0.08226592 -0.76439977 0.06856914 -0.23525992 -0.15021929 0.23991601 0.08237575 -0.7070467 -0.36078176 -1.5133053 -0.9024963 0.13262591 0.7222865 -0.21059228 -0.058801588 -0.005609831 -0.048847947 -1.1473432 0.020854192 -0.1982595 0.457718 0.009628464 0.37417626 -0.07349108 0.10837794 -0.22350699 0.57365274 0.050924227 0.37742206 -0.19000319 0.007886942 -0.29015493 -0.10925465 0.02603645 0.12203772 -0.35199407 -0.3057973 0.39098534 -0.2281218 -0.006938285 -0.10349914 -0.008773941 0.034799393 -0.009487027 0.8856183 -0.19167046 0.08520739 0.021025036 0.28916046 0.55842024 0.15041861 0.13276392 -0.2979777 -0.88087714 -0.088544115 1.205121 -0.4030615 -0.14021279 -0.13824046 -0.2573499
28 -0.3581969 0.0058853184 -0.13167231 0.3571576 -0.149618 -0.06599448 -0.032299463 0.013298186 0.07121583 -0.02437879 -0.27796873 0.39825237 0.152742 0.5564472 -0.3341758 -0.40215763 -0.15559159 0.25709033 0.13342965 0.16977243 0.60209304 0.29289263 -0.042801738 -0.19494194 0.0042234687 -0.18694928 -0.19829437 -0.7426633 -0.061378222 -0.40472734 -0.016510911 -0.6905971 -0.5726536 -0.73229563 0.49354482 -0.19646995 0.26051748 0.50012356 0.7723704 0.13981353 0.033575065 -0.41463742 -0.40940863 0.043872766 0.44285753 0.017578745 -0.1804029 0.33669436 0.3241317 -0.12627561 0.7292288 -0.5860493 0.13659246 -0.37244463 0.52264136 0.14658722 1.7932804 -0.20291086 0.49382222 0.3345672 0.25782824 -0.4573388 0.029815344 0.33254826 0.3483487 0.5589739 0.10971522 -0.07567234 0.3105986 -0.070146635 0.2690387 0.5590104 -0.014846615 0.08631828 -0.14675039 -0.9284657 -0.11075465 0.18841024 0.06593248 0.29561633 0.045396216 0.3498439 -0.41412437 0.2721825 0.01950203 -0.30469695 -0.07723266 -0.25288674 0.18373106 0.11311041 0.29696363 -0.43891537 0.12512079 -0.11984685 0.014606349 -0.25829357 0.007912198 -0.26218286 -0.04593368 0.3279279 -0.044027418 -0.16315411 0.1320749 0.22979872 -0.5716529 0.078949265 -0.4600825 0.09423636 -0.17258547 0.40679836 -0.16106541 -0.024733815 0.05402634 1.0353687 -0.68613553 0.26859033 0.15035161 -0.09101604 -0.18758747 -0.20034483 0.4952107 -0.53585577 0.022569144 0.17277993 -0.31720424 0.26179898 0.2065175 -0.12132352
31 0.18528926 -0.033680346 -0.387747 -0.0032280518 0.41095948 -0.2784557 0.11707461 0.14268361 0.06552547 0.13104299 0.14071903 0.09092581 0.11846462 0.14972359 -0.30892557 0.048243046 -0.10603081 -0.0337855 0.03031063 1.6536529 0.06660196 0.05283268 -0.25694013 -0.0354241 0.115487546 -0.06429735 0.12209264 -1.6392093 0.092241295 0.45457634 0.12212214 -0.049463715 0.015330308 0.01858776 0.75772816 1.4913374 -0.30915418 0.74517137 0.044252004 -0.036957953 0.80497724 -0.59460837 -0.050169 0.80522615 -0.14370024 -0.19095199 -0.05723149 0.7589598 0.11107633 -0.0058595147 -1.9012182 1.3744545 -0.08728841 0.010989074 0.29270333 1.5336115 0.7563115 -0.37327263 0.2534514 0.94749165 -0.5560352 -0.2305806 1.3141944 1.8110442 0.2640842 0.0606479 -0.27919963 0.07969427 -0.5042272 -0.06375283 -0.14934167 1.08204 -0.03211164 -0.16296303 0.009151588 -0.32989278 -0.04716529 0.123888664 -0.37428686 0.7112032 0.06631896 0.009555567 -0.7755119 -0.068449594 0.4550178 -0.09931175 -0.26432213 -1.030541 -0.07188418 -2.1205535 0.06551421 -0.09850504 0.46992588 0.040664684 0.0017011438 0.9920135 -0.10382443 -0.38080674 -0.123734765 -0.13406871 0.045485877 -0.40772474 0.2456886 0.38915646 -0.13470787 0.13706897 0.30410638 -0.07644748 0.26245797 1.7001526 -0.22575542 0.5030216 0.23295501 0.004482022 -0.0023624147 0.09386179 -0.1353657 0.08027915 0.2830035 -0.056505874 -0.21798378 0.3705388 0.10855466 0.33478484 -0.0097281765 -0.82869047 0.16331899 -0.14178939
1594 -0.43789932 -0.3490131 -0.5837435 -0.42348063 -0.0077767256 -0.0796295 0.37863863 -0.31829554 1.3149173 -0.26728135 -0.12860356 -0.02307273 0.81672853 -0.31557852 -1.5874196 -0.16062123 -0.13038689 -0.4993188 -0.99120915 -0.21665879 0.82033366 1.0398844 -0.8497648 0.2646854 0.3728566 0.12671116 0.21070735 -0.14530729 -1.3646994 0.65361834 0.84500253 0.022883212 0.5728109 -0.23648278 0.21701881 -0.16842392 0.008341616 0.2521354 1.3612711 0.012557302 0.33767548 0.024991948 -0.6616429 0.68692297 0.00965734 0.28143972 0.15392254 0.4145282 -0.21288888 0.31338114 -1.4195294 -0.17938942 -0.56871784 -0.6350288 0.6567943 -0.08216077 -0.10015586 -0.99337107 -0.29283142 1.8693569 -0.43074614 -0.636802 -0.15721051 0.07537153 -1.1723393 0.07159311 0.24865767 0.77779585 1.014993 -0.09631134 0.50643134 -0.44898358 1.0751946 -0.23002863 -0.57609516 -0.77528626 -0.07539597 -0.11794522 -0.16155443 0.7460878 -0.5851393 -1.5554656 -0.17468852 -0.9182052 0.22778995 -1.1093842 0.011140733 0.37214074 0.45379624 -0.10060412 1.0179523 0.25250763 1.6339393 -0.109231 -0.43538776 0.50079024 -0.3927582 -0.0019203603 -0.7621016 -1.5169059 -0.28704697 0.40190193 -0.32953542 -0.57489336 -1.336214 0.051992044 0.5088482 1.1701072 0.4939643 1.3749192 -0.34994242 0.24451987 -0.2979454 0.32931602 -0.6008314 0.069264926 -0.32928136 0.4527893 1.7150885 -0.76138777 0.38265407 -0.7848256 0.17025536 0.15208393 -0.8877118 0.6482636 0.0660349 0.14873332
34 -0.08072974 -0.26822975 0.446891 0.1488729 0.06371782 0.0068593193 0.14184426 -0.2630138 0.0888435 -0.048390824 0.7357128 -0.060024124 -0.14107653 0.0708458 -0.3215464 0.004563012 -0.11198203 -0.03570223 -0.21746135 0.03521829 0.6624022 0.13852268 -0.052214105 -0.348541 0.21655287 -0.31207156 -0.5093232 -0.32680103 -0.3946373 0.12024495 0.08273855 0.0020305323 -0.5443118 0.19087781 -0.5713084 -0.23186603 -0.18455338 0.48442355 0.07372869 -0.34699908 0.024692446 0.056940667 0.22588609 0.064957984 0.22739959 0.2391803 0.00067097554 0.8063303 0.31994808 -0.32935128 0.3110897 -0.018557962 0.23923972 -0.09178185 0.18358923 0.089254476 -0.108114004 -0.6900053 0.31037915 -0.21774301 -0.1838971 -0.12683648 0.42998376 0.071622305 -0.20277223 -0.1071581 -0.23777111 -0.0757424 0.20278648 -0.21920887 0.7637175 -0.113227434 -0.08656955 -0.34576535 0.1701733 0.14078426 -0.19721735 -0.5565042 0.28868565 0.04371168 0.25463748 -0.06771352 -0.26199937 -0.7194712 -0.16729891 0.059218053 0.28516692 -0.03576585 0.0072316388 -0.27963865 -0.2717566 0.23668756 -0.040771488 0.12391183 0.26265025 -0.297405 0.027192663 0.32929358 -0.16999805 0.06341363 0.00013109177 0.013577008 -0.033390414 -0.04770104 -0.54782724 0.32867545 0.21509433 0.1761183 0.28385738 0.90876925 -0.1673548 0.39964736 0.1142215 0.56912065 0.3390065 -0.59981674 -0.2515946 -0.3783335 0.061700843 -0.054547008 -0.36182025 0.14977862 -0.21131027 0.6402563 -0.29549816 0.113105364 0.030708048 -0.1474393
1364 0.09526631 -0.05312663 0.23966473 0.14790644 0.23628715 0.05646783 -0.6090205 0.01912344 0.16152741 0.023903191 -0.16099857 -0.019142726 -0.07731887 0.63432014 -0.7529737 0.33186096 -0.3745503 0.47379676 0.011152268 -0.027081251 0.07287558 -0.045301665 0.4295045 -0.5244666 0.27159694 0.18494746 0.4066747 0.043269455 0.24824378 0.26478535 0.6479352 -0.20134413 -0.7428313 0.35339454 -0.3234329 -0.14943133 -0.503434 0.6609239 0.270957 -0.13451613 0.015385777 0.14665066 -0.2800552 1.1373717 0.019992227 0.09875994 -0.18517643 -0.32957894 -0.2515803 0.21452849 0.19541074 -0.5694201 -0.23151512 0.080723986 0.033756156 0.089796916 -0.1397184 0.13257164 -0.2412532 1.2303883 -0.065688804 -0.3079271 -0.07034013 -0.1061387 -0.33575007 0.7546179 -0.35629806 -0.051006544 -0.1962364 0.16912213 -0.018953893 0.15241899 -0.09127153 0.27346295 -0.22204287 -0.20039989 -0.09064644 -1.0640104 -0.112443775 0.58638674 -0.13671014 0.27712622 0.10689314 -0.030989578 0.017344922 -0.845499 0.054778855 -0.05433934 -0.42238173 -0.6929975 -0.036314532 -0.002708591 0.33225366 -0.0037794253 0.084350035 -0.15858841 -0.19308709 0.030950215 0.10658983 -0.61177355 -0.4179765 0.0605083 -0.591623 -0.08119278 -1.31717 0.38629282 -0.061396323 0.030570218 0.10671566 0.06072201 -0.10427632 0.10826885 -0.10722892 0.7427192 -0.4290267 0.11048945 0.21152666 -0.16813588 -0.13554125 0.109980755 0.10567753 -0.13784938 -0.24723448 -0.32390887 -1.4030011 0.009645901 -0.0155056 -0.116830036
1582 0.016467948 -0.091588385 0.16213526 0.018789036 -0.21081638 0.054680575 0.7579608 -0.05670766 -0.11651207 -0.4533711 -0.27302453 -0.04658199 -0.40448397 -0.086656526 -0.59913397 0.4362263 -0.7607496 0.18163 -0.7619015 0.46764538 1.3589058 0.033937547 0.025284825 -0.1664005 0.1776236 0.0003136587 0.17968857 0.0962433 -1.5133437 -0.020900726 -0.86118114 -0.17304656 -0.71175337 -0.014189534 2.3911433 -0.09475937 -0.28417316 2.0246096 -0.09808498 0.022372765 -0.007859689 0.42051548 -0.032190725 0.26237908 -0.12829967 0.07211261 0.16113739 -0.039725117 -0.56604266 0.22681454 -0.9386611 0.39874917 -0.655031 0.084883034 1.2196739 0.02316373 0.3420372 0.008393236 -0.011974219 0.42735812 -0.19815846 -0.60630167 -0.20303167 0.18903543 -0.05359145 0.082579985 0.32562247 0.20651609 -0.06117683 -0.31044495 0.031418175 -0.35323906 0.40794972 -0.3070362 -0.7891038 0.28642645 0.49359873 -1.8913758 -1.4424384 -0.04991382 0.091491595 -0.24868938 0.04304124 -0.5393083 0.00048097514 0.113251515 -0.3168353 0.258151 0.28204548 -0.38349864 -0.6191284 0.059102353 -0.044788774 0.059181564 -0.0014641635 0.6262419 0.11093348 0.17034017 0.0250812 -0.5021993 -0.030452304 -0.013759882 -0.006490747 -0.06984609 -1.4750628 -0.22617212 0.32708377 -0.007584935 -0.03958709 -0.21775633 0.087931246 -0.056703974 -0.29642463 -0.38006312 0.11197661 -0.2812237 -0.22839636 0.6799078 -0.16150309 -0.47928536 1.1486474 0.0072214776 -0.101348065 0.20811778 0.49416623 -0.21594246 -0.21248405 0.018154236
163 -0.079258 0.026965277 -0.15075845 0.1201469 0.27785462 -0.18966287 -0.11282622 0.029821074 0.37541467 0.28919232 0.19590972 -0.04004778 -0.019074153 -0.018840503 -1.0493026 -0.14541525 -0.32845777 0.06541518 0.13028938 0.3617679 -0.15787415 0.085480414 -0.05296804 0.23246482 -0.44708216 0.35877505 -0.2693242 0.08648338 -0.06596349 0.24698451 -0.026849898 -0.15301959 0.135147 0.19360529 0.6550785 -0.29114264 -0.11334279 -0.0028104156 -0.18221773 -0.51345485 0.67478526 -0.14397678 0.6740544 -0.40199685 0.09047705 -0.18562017 0.0946738 -0.05015807 0.11982817 0.60150516 -0.8617051 0.2593762 -0.30405173 -0.07762661 -0.014631106 0.0005689536 -0.12011731 0.03642461 0.45959583 0.6778123 -0.07913689 0.18001804 -0.06635115 -0.29598475 0.23511147 0.33485717 0.6036289 0.21796848 0.14769869 -0.8121109 0.9700164 0.5237408 0.10157014 0.041695815 0.09718514 -0.6795421 -0.19398844 -1.2316076 -0.35994264 0.034924097 -0.0501377 -0.25130174 0.95229906 0.11518784 -0.068988405 -0.875957 -0.25607616 -0.3120903 0.6285474 -1.3881257 0.03504645 0.20824812 0.10205841 0.074648075 -0.57398164 0.19320035 0.0024805826 -0.19430372 -0.20715834 0.01773241 -0.20596853 0.20927314 0.9339638 0.046418313 -0.025506502 1.0306907 -0.06054693 0.3389019 -0.39733428 0.98795426 -0.12164919 -0.093691155 1.5012418 0.16005908 0.14205205 0.07076064 -0.15116024 -0.40941453 -0.16624463 -0.47238714 -0.14178135 -0.04350126 0.22654776 0.3485871 -1.4123013 0.24318595 -0.081781514 0.25815734
50 0.07686113 -0.48013142 0.055989914 -0.09612752 0.06166058 0.22379878 0.36797124 0.029884411 -0.2380748 0.19117871 0.15356344 0.18091266 -0.21940033 -0.0069917925 0.15184298 -0.06264927 -0.15118746 0.24114288 -0.028527327 0.49352244 0.044625353 0.10556987 -0.50040686 -0.16647737 0.90777457 0.11361681 0.10472551 -0.14768818 0.013238971 0.015752379 -0.08063346 0.056892123 -0.11684823 -0.059083514 -0.31607038 0.28616878 0.19083583 -0.10769997 -0.07009532 -0.20664856 0.18559125 -0.038951248 0.2295889 -0.17477009 -0.018654285 -0.01795438 0.12159225 -0.04506382 -0.24056734 0.06129027 0.07826693 0.09297726 -0.13820711 0.085045904 -0.003317084 0.28626496 -0.18897748 -0.44685835 0.08572027 0.34471986 -0.0830678 -0.44184998 -0.23336154 -0.06316769 -0.36008677 0.15761276 -0.7579103 -0.15991418 -0.19235963 0.016544012 0.44288415 -0.12203705 -0.031765684 -0.022827115 0.06969037 0.23950614 -0.15475659 -1.049183 -0.33784252 0.065314695 0.34133756 0.2707991 -0.35931107 -0.028824717 -0.39798683 -0.2026089 0.24561594 -0.008393393 0.8698523 -0.8638387 0.38350967 -0.4818071 0.3158279 -0.21202345 0.06327047 -0.014360998 -0.1705861 -0.23755915 -0.35416323 -0.18952005 -0.07525024 0.3530299 0.18933794 -0.2475025 0.035408616 -0.25234595 0.2896859 0.13775633 -0.40959543 0.18925723 -0.15257779 -0.2895978 -0.28180778 0.029214786 -0.25603625 0.086307205 0.11184935 0.09195046 0.26368394 -0.05421056 1.0547767 -0.010706093 -0.040513147 0.5927304 -0.959965 -0.2611797 -0.29985783 0.12625065
57 0.012624203 -0.06780729 0.0075475927 0.13745877 0.15165988 -0.09821272 0.21161689 0.120342 0.11034459 -0.12602629 0.04005574 -0.20024402 0.540212 0.060457055 -0.12026369 0.21513905 -0.49460462 -0.2035681 0.0857838 -0.2250109 0.77151287 -0.41238937 -0.12205929 -0.21071365 0.3021231 0.06425463 0.10205609 0.21958217 0.023718553 -0.24915978 -0.14186987 -1.0448754 -0.051467314 0.24391711 0.54961246 -0.036135945 0.18971586 -0.35142046 0.083383575 -0.17460269 0.34813038 -0.28298056 0.12173158 0.1477402 -0.44482428 -0.09801489 -0.30594283 -0.013595101 -0.40341142 1.0731785 -0.34583226 -0.4889994 -0.18440066 -0.27182496 -0.23608196 0.1822324 0.465407 -0.44015417 0.12742205 0.27060512 -0.08436308 -0.00719045 -0.27185887 0.60366166 0.3863338 0.5404657 0.045583997 0.31073576 -0.105565526 -0.12038471 -0.04428876 -0.44867098 0.2036884 -0.07930191 0.32140243 -0.42398116 -0.4089065 -0.5061836 -0.024283392 0.13094047 -0.57479775 -0.122878365 -0.059118908 -0.1758169 -0.77918607 0.00070762367 0.16635166 0.18824354 0.6661004 -7.4726646e-05 0.46346298 -0.25046828 0.16742362 0.09691805 -0.4606931 -0.068241626 -0.017531559 -0.12485198 0.28806412 -0.19907011 -0.15418498 0.14945126 0.33082765 -0.093963705 -1.2652881 0.19652227 -0.21617883 0.40332314 -0.17769232 -0.40740767 0.53879714 0.4535483 0.05459144 0.3050936 -0.35940924 0.051420644 -0.13523844 -0.0757801 0.1754996 0.010681102 -0.29531017 -0.3709762 0.08476016 -0.21139884 0.41795906 -0.30155522 -0.20630102 -0.1461401
58 0.13576378 0.14001344 -0.011305715 0.38471454 0.07040544 -0.011834267 0.22261977 0.22172484 0.63050646 0.36731046 0.098156564 0.7801927 0.4012443 0.03665207 0.14574535 0.68104774 0.03387169 0.8171348 0.41629922 0.015513688 0.0066228374 0.3028967 0.15109827 -0.36780292 -0.05948607 0.36876893 -0.031011067 0.09211152 0.1919575 -0.13238092 0.077347666 0.009029756 -0.08871984 -0.4092762 -0.086463675 0.401905 -0.014623102 -0.29738474 0.34326237 0.04930011 0.21151716 0.27064502 -0.108366415 -0.06350131 -0.11587266 -0.28556556 0.20939118 0.06859205 0.136429 0.3013249 -0.04686971 -0.157323 -0.107204385 0.16259965 0.14806712 0.60251606 0.55037045 -0.8715605 0.44359782 -0.40605912 -0.66726243 -0.8885863 -0.16527762 0.21154983 -0.249449 0.3301121 -0.5036494 -0.30708265 0.42880762 0.12711178 0.16697668 0.325576 0.060875878 0.04866272 0.43692395 -0.05166629 -0.26192972 -0.6449277 -0.25352734 -0.009131519 -0.768993 0.08461858 0.16462548 0.09345721 0.11222769 0.50640315 -0.16364948 -0.11078414 0.023222046 -0.41949508 0.06641704 0.20953846 -0.13101652 -0.117002726 -0.21055809 -0.1433097 -0.15955523 -0.13354146 -0.54878664 0.17169991 0.024580024 -0.24451382 0.26713115 -0.3144898 -0.743143 0.36188173 -0.42431158 -0.034769595 0.25943875 0.6752557 0.19647685 -0.082002856 0.36096936 1.2535741 0.35769492 0.5315978 -0.22449069 -0.046594992 0.63053924 0.3071597 0.3538087 -0.42776862 -0.13666056 0.5562183 -0.2226713 0.016854323 0.078984 0.29621947
62 -0.13595934 -0.2170648 -0.43051928 0.2177902 0.06372362 0.13894148 -0.08818868 -0.48679128 1.0313873 0.637959 0.2638455 -0.23661825 0.4125658 0.7065033 -0.18660703 -0.058552835 -0.07981418 0.08124431 -0.0035310448 0.51571697 1.295019 0.06389453 0.29389974 0.42613834 -0.13766697 0.044656973 0.1879183 -0.16168615 -0.10288944 0.24643663 0.5525614 -0.15925209 -0.19279009 0.015848426 -0.08814025 0.41543785 0.53691983 0.07517865 0.35370824 -0.012172796 0.06846134 -0.49852058 -0.0042344136 0.006720032 -0.4398413 0.045498136 -0.04381816 0.48910826 -0.060605846 0.17010805 -0.28144062 -0.17629786 -0.12513007 0.15694737 -0.26112816 0.7188759 -0.3297439 -1.1405176 -0.2386084 -0.043511383 -0.57067543 0.23376587 0.09833442 -0.29247418 -0.24122503 0.32446197 0.13480051 -0.62671113 -0.22338602 -0.3096623 0.28098896 0.22049174 -0.3214081 0.10973619 0.04775691 0.5307112 0.3423655 -0.4451062 0.2870974 0.06801639 0.31462702 -0.44875908 -0.02098078 -0.32245132 0.22588864 0.28128797 0.1143107 -0.4673372 0.93471116 -1.1099337 -0.0024880646 0.36659375 0.84289414 0.26796702 -0.08237669 0.17671907 -0.20733295 -0.018452898 -0.00545015 0.23618577 -0.06319402 0.18658195 0.18651731 -0.19404064 -0.37238967 0.16331893 -0.08835094 -0.0020439038 0.22019243 0.48688892 0.049798205 0.23026796 0.07132416 -0.20431118 -0.45697373 0.17581989 -0.015010859 0.16460584 -0.025830265 -0.12636638 0.34443286 0.21889856 0.12717068 -0.17350985 -0.116254985 -0.08534823 0.039912738 0.13175443
63 -0.30622694 0.008001435 -0.2154513 0.054245487 0.16708411 0.39211798 0.9118917 -0.61425203 -0.014840517 -0.071176216 0.13707252 0.6228128 0.7890621 0.9329497 0.067609176 0.027877664 -0.33387572 -0.022194786 -0.051901594 0.20611987 1.3420535 0.13532534 -0.109400615 -0.5747137 1.2436062 -0.13312048 0.11027244 -0.11750174 -0.018840643 0.14612612 -0.058326576 -0.36520326 -0.5418686 0.08397049 0.32012013 -0.12922066 0.15509947 -0.125055 -0.1669846 0.08720163 0.27466947 -0.35859382 -0.20489256 0.042774104 0.16665953 0.048114683 -0.045933023 0.32596084 0.09159354 0.70077175 -0.99961686 1.1865089 -0.012123407 -0.079231516 0.78927904 -0.013339385 -0.14423262 -0.066718906 -0.09775481 -0.5668976 0.1106442 -0.29761007 0.6636638 0.2937262 0.09349809 0.76987714 0.15404692 -0.04946174 0.004974682 0.23399854 0.12630391 0.3958906 0.0958654 0.13833411 -0.1976844 0.52362067 0.27503583 -0.44801167 -0.707178 0.23718958 -0.10240804 -0.25530064 -0.36704826 0.12453658 0.08156214 -0.6060885 0.15277813 -0.40121397 1.1270678 -0.94827783 0.2757281 0.14851639 -0.11973549 -0.37572336 -0.18273611 0.030077664 -0.050035827 0.049115885 0.4172976 -0.8432545 -0.050090313 0.05965776 0.22567843 -0.19155172 -0.15954901 -0.027065525 0.052162405 0.16269578 -0.02952633 0.5743448 -0.061788432 0.060494024 0.40803787 1.1375087 -0.09409944 0.54505557 0.028724384 0.5851402 -0.3028859 0.19573766 0.041259304 -0.048720036 -0.3453039 0.16153856 -0.24084902 -0.58880097 0.24471399 -0.67227525
66 -0.18710573 -0.7642377 -0.42725495 -0.29355082 0.41871005 0.5006965 0.273337 0.7025529 -0.094137184 0.065277174 -0.061301555 -0.021964885 0.53141123 0.07743098 0.10719674 -0.074006945 0.3309749 -0.32317352 -0.49009612 0.5908176 0.3878732 0.15103622 -0.5662767 -0.0025009005 0.89350766 0.37446657 0.29544595 -0.36259198 -0.14260392 -0.46672624 -0.08068617 0.049114622 0.26413992 -0.0049224366 1.7116932 0.39968446 0.11089059 0.38253734 -0.046603285 -0.34626296 0.42942682 -0.2427968 -0.106879756 0.07838299 0.31215897 -0.29290366 -0.16239437 0.015005342 0.0010357653 0.27531004 -0.30050516 -0.01866167 0.46977353 -0.8514224 -0.47383118 -0.12104457 -0.068617575 0.034346625 -0.5314269 0.7911139 -1.231716 0.016856462 1.9427751 -0.060274363 -0.09505488 0.07574279 0.51577234 0.069805965 -0.45355213 -0.94544774 0.13484402 -0.005545671 0.88025135 -0.33028448 -0.4527233 -0.24076946 -0.01713702 -1.1301178 -0.60231024 1.1084802 0.2704215 -0.81723434 -0.39890385 -0.07174677 0.1128418 0.04183621 -0.4768868 -0.22419055 0.11014723 -0.42958304 0.014334129 0.3040851 0.91776216 -0.7936855 0.1046399 0.10956378 -0.31588653 1.2576427 0.16861615 -0.012622643 -0.5094518 -0.30571452 -0.35949665 0.050052255 -0.76298624 -0.20093654 -0.48966447 1.3287042 -0.036757935 0.2662943 0.25665388 0.111154266 1.787942 0.81016964 -0.68488914 -0.05797207 -0.18804152 0.049446337 0.116760805 -0.22031839 0.7130542 -0.010859789 0.37876007 0.8514646 -1.5357146 -0.7090491 0.010028008 0.8390131
2631 -0.060191024 -0.6667342 0.46040228 1.4972178 0.0013452026 0.5550219 0.008577492 0.16072758 0.24666612 -0.7526632 -0.59431505 0.036261044 0.5791755 0.28109816 -0.3987128 -0.1144137 -0.23684308 0.6096995 -1.190395 -0.37975094 0.27502126 1.0672095 -1.4016325 -0.09868604 -0.5023887 -0.75656885 0.18910858 0.058550823 0.20435621 -0.063306145 0.18432894 0.15742005 -0.6702489 -0.034215566 -0.23240878 -0.4893365 -0.18507886 0.44169992 -0.0933394 0.41411635 1.2954996 -1.2430233 -0.083443075 0.22522932 0.33149976 -0.39864293 0.036218535 -0.09514127 0.04488108 0.7111133 -2.4435053 0.25832868 -0.19932167 -0.15939963 -0.54095423 0.88561445 0.10367188 -0.4936732 -0.21329597 -0.18276085 0.069524 -0.32480693 -0.07393844 0.9525915 -0.4654973 0.20070209 0.20063674 0.8600333 0.18398422 0.2271862 0.12046399 0.082901955 -0.53869885 -0.49945956 -0.065349184 0.039831735 -1.3490518 -1.4631401 -0.41893226 -0.15412092 -0.6205087 -1.3329076 0.19067486 0.17930143 -0.8692377 0.37049723 -0.0767077 0.079166904 1.1282794 -2.009959 -0.40627474 -0.06467504 0.120374754 -0.05895038 -0.17961505 0.2087329 -0.46370077 -0.11267711 -0.12420393 0.1909287 -1.5570059 0.16274355 -0.29892334 0.522758 -0.86768264 0.028584944 0.16251348 1.6282662 0.36919358 0.41533282 -0.6709175 0.5635806 -0.07626452 1.4219577 -0.01787371 -1.6386414 0.0018909837 0.54078835 0.18801858 0.15066989 0.2525649 -0.14106682 -0.44704485 0.13190615 -0.39429414 -1.2211109 -0.73964185 -1.1574563
2628 -0.2092143 0.018837912 -0.080569796 0.13895454 0.45821634 -0.2118835 -0.10338459 0.088196285 1.0220677 0.022371449 0.30012184 -0.07680111 0.13115287 -0.28773943 0.07932642 0.043701854 -0.04598158 0.4700544 -0.40548924 -0.8593638 -0.140341 0.022473406 -0.19521257 0.21354479 1.0637507 0.06698299 -0.49911094 -0.11810297 0.06999659 -0.13516442 0.42638665 -0.20103015 -0.08233683 0.7152621 0.28233016 0.41709048 0.3739067 0.052321427 -0.23564853 0.16074687 0.04819481 -0.18446428 -0.13958597 0.02990739 -0.28194758 0.34658453 0.026366344 0.1081522 0.30945 -0.5285599 -0.4834289 0.7317621 -0.98772043 -0.05458849 -0.28068066 1.1021175 -0.13956684 0.41366094 0.07458715 0.32402852 -0.16723473 -0.34097314 0.40381616 -0.21826999 -1.0189447 -0.011194772 -0.9206704 0.7200972 -0.10385671 0.23028488 0.28991553 -0.23981588 0.31179634 -0.107841566 0.15882584 -0.27750263 -0.46598524 -1.5820248 -0.065367885 0.17164873 -0.40532586 -0.11816491 0.22687797 -0.007388911 -0.86831164 -0.81001055 -0.34726116 -0.41322115 0.45227313 -1.4559782 -0.21167167 -0.18836118 0.73729146 0.0015526987 -0.13103358 0.17224371 -0.20371549 0.63167775 -0.15907785 -0.33000308 0.36968696 -0.122392796 0.5323067 -0.01682511 -0.07608579 0.17070502 0.5299924 -0.3587652 -0.09125572 -0.3864269 0.2658114 -0.16696188 0.52018964 0.27023527 -0.15976155 -0.09460069 0.062242635 0.5818512 0.20713419 -1.284604 0.08969969 0.17428835 -0.0068043238 0.3522627 -1.2130797 0.07085578 0.010828465 -0.17534369
1418 -0.080910236 -0.25717404 0.35176486 0.046828337 -0.03268981 -0.26353973 -0.22403598 0.022949394 -0.56285167 -0.38596416 0.2551629 -0.093133464 0.6540527 -0.20860757 0.02016266 0.036046017 -1.253764 0.37064177 -0.26839864 0.38639325 0.6892803 0.23369335 -0.9376313 -0.56627756 0.41342458 -1.0023804 -0.30748105 0.040764872 0.029346839 -0.041968357 -0.50137144 -0.9872948 -0.012958006 0.46538135 -0.40181786 0.26897582 0.023597287 0.9539183 -0.05929937 -0.1114538 -0.26666948 -0.19912225 -0.25198582 -0.0680746 -0.06959668 -0.2714268 0.23294678 0.09487412 -0.5749408 0.12657462 -0.7157582 0.22347654 0.002241 0.25274527 0.3100499 0.29691643 0.1335075 -0.4634675 0.780245 0.5369002 0.17337953 -0.25325757 0.10267272 0.27262875 0.6782499 0.46042418 0.08395981 0.07971175 -0.34233665 0.6686 0.056922227 -0.36318067 -0.3261789 -0.29018757 -0.8178505 -0.018944576 -0.48453444 -0.0824593 -0.87315357 -0.3783524 -0.27841377 -0.7585111 -0.08241805 0.6726608 -0.4920497 -0.01011648 -0.81335074 -0.165308 0.896158 -0.061684817 0.51802737 -0.0105350455 -0.034658883 -0.5433255 -0.4616309 -0.17836654 -0.13598742 0.29231027 -0.33941752 -0.17442134 0.020943703 0.103889726 -0.033629876 0.2542482 0.80965805 -0.18756065 0.22248742 -0.02094408 -0.3535545 -0.26829812 0.1904632 0.14799474 0.70808333 0.28286347 -0.3189418 -0.18870506 -0.31636733 0.20560741 0.20634872 -0.128027 0.14717813 0.20252933 0.123628736 0.43143165 -0.28150004 -0.51024866 -0.33234453 -0.07959993
2487 0.14989246 0.14609522 0.2979518 -0.03462692 -0.06606769 -0.07328666 -0.12529871 0.035236195 0.052702885 -0.44188052 0.41453812 -0.15414539 0.19592902 -0.15798703 -0.86638427 -0.016635513 -0.8920146 0.11801013 0.3452802 0.009968305 0.029151574 -0.20809048 -0.48765123 0.11550302 0.21094832 -0.3072483 -0.040039722 0.41130942 0.067626916 -0.08663772 -0.08670633 -0.15296945 -0.524239 0.21609168 -0.07354031 -0.19095209 -0.40560073 1.5343059 -0.26639324 -0.41445175 -0.31313157 0.43081713 -0.38681766 -0.1246408 0.16553602 0.7206769 -0.19701578 0.25703213 -0.19735497 0.32707494 -0.5022015 0.1207095 -0.19638687 -0.1488432 0.52103496 0.82735664 -0.13184267 -0.8622512 0.21152443 0.29781246 -0.5465993 -0.4825828 0.18056418 0.9960377 -1.4932421 0.08713831 -0.31149328 0.47368196 0.20518753 -0.33699638 0.2624867 0.14112578 0.20235148 0.18106337 -0.3457826 -0.19228157 0.096009314 0.006613119 -1.4008038 -0.4437846 0.100071 -0.07653302 -0.015717387 0.3189591 -0.16427636 0.14089422 -0.12086678 -0.068227865 0.23329552 -0.21845004 0.035121452 -0.5128533 -0.03398068 -0.22641385 0.01236323 0.23990192 -0.18212573 -0.51616955 -0.17693472 -0.04105495 -0.26474687 0.14104858 0.27124956 0.4701208 -0.015017916 -0.16845089 -0.16914637 -0.27606463 0.12404586 0.27673283 -0.40586418 0.03244159 0.7667927 -0.16628546 -0.00088479614 -0.5876969 0.29399243 0.8078464 0.20103085 -0.06653074 0.931385 0.36633387 0.041167803 -0.16369727 -0.02163501 -0.119288824 -0.21814904 0.32355997
2488 0.12638272 -0.5246225 -0.40927878 0.0122137545 -0.4065373 0.12437103 0.11775586 0.30217844 0.14028302 -0.22934818 0.20985875 0.6804677 0.48384643 -0.056837928 -0.8370421 0.13027109 -0.2124195 -0.013538569 0.30175784 -0.38995415 -0.22011484 0.062790245 -0.38549572 -0.043551784 0.09942535 -0.6934024 0.45328802 -0.06613696 0.19640687 -0.046429843 -0.11158571 0.037968818 -0.53714895 0.15105069 0.37902698 -0.17186977 0.1162715 1.5109687 -0.081399634 0.28595164 -0.021087777 0.4082192 -0.07708174 0.3228065 0.023171408 0.023616625 -0.398483 0.163022 0.1604571 -0.014340345 -0.07220355 0.68883824 0.045641642 -0.1973396 0.14853817 0.46586478 -0.1137132 -0.7086356 -0.15750116 -0.5528759 -0.7181702 -0.7617988 0.46496704 0.14198087 -1.2023413 -0.03545523 -0.30276054 0.1553169 0.07164096 0.070065014 -0.18889084 -0.28194815 0.10938376 -0.23007523 -0.16841784 -0.56791836 0.12179396 0.25240195 -1.7262623 -0.09850145 0.04306096 -0.2614147 0.021404933 0.07039217 -0.07062723 0.14701548 -0.09536843 -0.250811 0.5559976 -0.11000724 0.33172515 -0.10442915 0.3665665 -0.09014251 0.24189751 0.22601846 -0.34058842 -0.046528265 -0.47723657 -0.14228506 -0.06014786 0.06007254 0.96781695 0.17365438 0.23181944 0.06550663 -0.22684585 -0.26643047 -0.3445767 0.31828755 -0.20650998 0.45561638 0.9018652 -0.4135157 -0.12677608 -0.44962293 0.06959919 0.7181787 0.19193651 0.18375224 0.9557134 -0.13367535 -0.21851246 -0.14835662 0.11317771 0.12531841 -0.43321386 0.10092722
550 0.47037998 0.12410994 -0.35167378 -0.17174818 -0.48627368 -0.2772502 -0.0060438574 -0.7682134 0.51389796 -0.15811619 -0.273602 -0.094061315 0.06323071 0.16815975 -0.75677174 -0.1270201 -0.47373676 -0.22386788 0.13668287 -0.3460712 -0.6542713 0.012318531 -0.8886729 0.122133814 -0.12153494 -0.015427621 -0.2963547 -0.14522316 -0.018071475 0.090913616 0.22469127 -0.073364235 0.24422762 -0.014737681 -0.047977775 0.31197757 -0.019760543 0.041035186 0.5128713 -0.070197694 1.3116782 0.32360604 0.44533733 -0.03075599 -0.18999606 0.1541926 -0.07946488 0.36669934 0.46642715 -0.32670107 0.07433445 0.46826124 -0.28790745 -0.22718748 0.2622142 0.0168251 1.2150853 -0.7117735 0.28636885 0.33299792 -0.21656941 -0.1301511 -0.3995046 0.8353401 -0.01581508 0.31913763 0.34452322 0.30473903 -0.2542505 -0.6378144 0.04415944 0.5642939 0.04712156 -0.036786973 -0.23304313 0.21514894 0.0073415358 -1.1314437 0.019792795 -0.18096593 -0.039056703 0.31080282 0.1609362 -0.0038759122 -0.30097932 -0.18932033 0.07446729 -0.15953435 0.17491408 -0.69389814 -0.7065962 -0.74713814 0.043383513 0.43758547 0.75216025 0.8283701 -0.069355965 0.21543637 0.33607638 -0.04690409 0.1761808 -0.13629834 -0.36206636 -0.06887068 -0.98257697 0.18423912 -0.21002899 0.35094038 0.20661512 -0.018520588 -0.5201952 0.16176672 0.48117173 -0.05575205 -0.57448685 -0.37068453 0.2168413 -0.032051675 -0.14627637 -0.3674609 1.0212177 -0.27423868 -0.4139539 0.2735173 -0.3758634 -0.12058372 0.28434446 0.051325154
1649 0.08783089 -0.2738805 0.07134161 -0.22427744 -0.2670426 0.08665403 0.048993777 -0.26389185 0.29277688 -0.35078877 -0.34098434 0.09902205 0.21828769 -0.6584145 -0.44643006 0.3904257 -1.2989051 0.25206482 0.35319355 -0.04728742 0.31178704 0.15161991 0.47722653 0.28650287 -0.059497092 -0.049822703 0.5361969 -0.756193 -0.30537593 -0.38102487 0.7799999 0.2619932 -0.06952132 0.2960633 -0.12576886 0.17727394 0.22273238 1.0460258 -0.00054603384 0.018315222 1.1960237 0.12462822 -0.21963 0.010583188 -0.12596615 -0.47546747 0.21941335 -0.00096252444 0.052969426 0.65001506 -0.03778576 0.6890074 0.08298644 0.007690932 0.20854238 -0.06952789 -0.077037334 -0.31847373 0.23241366 0.07130939 -0.22257754 -1.1578853 0.16934025 0.13187058 -0.49432218 -0.18709083 -0.28537306 -0.13435528 -0.10044318 -0.0634125 -0.0006030352 0.29641762 0.14904489 0.13529308 0.1927621 0.07564312 0.295689 -0.16209948 -1.0707324 0.03569547 -0.26523197 -0.18409358 0.074032485 -0.050783597 0.22006972 -0.020462565 0.22762142 -0.063898236 0.6856708 -0.5979243 0.1862852 -0.0107781645 -0.38993907 0.27962443 0.2612684 0.3062293 0.4372734 -0.3102534 0.105468795 -0.16551134 -0.47037068 -0.044734895 0.11391432 -0.043442555 -0.31132686 0.3969454 0.23279737 0.05302044 -0.5090856 -0.31705105 -0.33956516 -0.08851638 0.18698381 0.20133057 -0.039582305 0.079272985 0.41679403 -0.0012075326 0.5926005 0.45300624 0.49950385 0.5885241 0.2343443 0.12386754 0.09316181 -0.44449076 0.06282854 -0.036375985
96 0.07453858 -0.07783998 0.12143651 -0.25353417 -0.42610118 -0.114625834 0.37556925 -0.0359412 -0.07928067 0.063501835 -0.38707826 0.23180504 0.3240187 -0.034836248 0.08713126 0.14243378 -0.059178583 -0.24035423 -0.89021677 0.11002394 0.26956475 0.36160597 -0.22260576 0.3088217 -0.18151763 -0.80331504 0.14205185 -0.7538771 0.2868531 0.20446391 -0.35357335 0.033267893 -0.09417313 -0.42144382 -0.045783486 0.2613967 0.38517058 -0.4944389 -0.5265287 0.46898237 0.36509237 0.52111304 -0.014492749 -0.1456656 -0.047001205 -0.56358445 0.4648775 0.08437597 0.23742928 -0.48304668 -0.14753039 0.15428345 0.0557366 0.24214627 0.2462321 0.2342051 -0.05416547 -0.12114188 0.5474242 0.120530486 0.2887406 -0.1394515 0.07868242 0.39116156 -0.49934274 0.3275572 -0.16772527 0.35460424 -0.22351183 -0.52199215 -0.27579606 1.5802789 0.36137116 -0.29808095 0.030264104 -0.2534704 -0.074522786 -0.041438375 -0.52346027 -0.5330708 -0.2381143 -0.9826609 0.2751912 0.058584467 -0.3634886 0.25344965 -0.043041382 0.27000356 0.43493816 -0.29603422 0.8878529 -0.0068178605 0.28553084 0.1879887 -0.24300742 0.082822055 -0.104822196 0.15745169 0.18469298 -0.1620914 0.04035922 0.11399321 -0.27007842 0.27212295 0.39122093 1.2246481 -0.1686637 0.51084524 0.1822505 -0.042972572 -0.55693966 -0.2367083 -0.15222494 0.23503804 -0.33589748 0.22851388 -0.27746502 -0.10933352 0.10937906 0.110995896 -0.0008876156 -0.1494348 -0.024405053 0.19205481 -0.44150168 0.25426185 0.12591842 0.46384636
98 -0.4893001 -0.20321499 0.07571696 0.087604225 -0.08493494 -0.24147199 -0.26779285 -0.25391126 0.093041725 0.023415403 0.07589858 0.1776969 0.5984751 0.1572099 0.3672391 -0.18710002 0.89662 -0.24883875 -0.8261043 -0.19913279 0.7274542 -0.42511094 -0.28957066 -0.48773727 0.40164128 -0.24150327 -0.22825879 -0.28953725 0.25062382 0.4218546 0.10814729 0.1210384 -0.17236097 0.51846135 0.45804897 0.4286625 -0.2019333 0.5309524 -0.24689558 -0.38828582 -0.25537947 0.45277432 -0.30072322 -0.7770951 0.053373795 0.2428031 0.13543569 -0.008998852 -0.16792166 0.76661456 -0.30944923 0.5219849 -0.1274813 -0.24827391 -0.19332822 0.29567382 -0.22544795 -0.19040765 -0.23210874 0.19325349 -0.31208667 0.00010687648 0.21402323 0.34945786 -0.2999066 0.11864304 -0.634957 -0.07268186 0.6379964 -0.18625684 -0.17951156 -0.24848685 0.2410608 -0.17368373 -0.80433685 -0.12037952 -0.5943425 0.07695482 -0.1847134 0.12048187 -0.31262383 -0.17952438 0.020317145 0.024733676 -0.73046726 0.11820719 -0.11140395 0.32258984 0.45759833 -0.3566744 0.051484466 -0.9260596 -0.014863018 -0.46561223 -0.096759126 -0.1604438 -0.03596711 0.5257063 0.15651675 0.2186008 -0.24277398 -0.18854055 -0.16805245 -0.027488789 -0.63308716 1.2827623 -0.32159728 -0.13093498 -0.037372537 0.49771026 -0.16696316 0.1853578 -0.32295704 1.003855 -0.13928214 -0.1042804 0.49410033 -0.24816863 0.26545313 -0.07291982 0.1982186 0.00026754336 0.108041085 0.5291936 0.008164123 -0.05895075 0.11202897 -0.21643618
106 -0.678118 -0.058115207 0.09554795 0.22334227 -0.011191818 -0.050601386 -0.2264286 0.40560436 1.5066717 0.28233394 0.29451773 0.66114604 0.45005155 1.2124923 -1.3229744 0.31050822 0.14741102 -0.05627628 -1.4147686 0.8251857 0.098910585 1.2312431 -0.24196625 -0.2741044 -0.3501083 -0.14707866 -0.18024406 -0.7351199 -0.34366602 -1.0204302 0.5139154 -0.03018621 -0.31860626 -0.25511235 0.14119582 -0.15632187 -0.19215868 0.95302546 -0.019004777 -0.41853082 -0.02592912 0.6373702 -1.1968325 0.47038153 -1.143835 0.000745293 -0.0088197645 -0.7485876 -0.1947655 0.7621965 -1.0305908 0.055634543 -0.3871464 1.0152266 0.019195173 -0.15097119 0.0043182326 0.0069762655 0.08670956 0.73786724 0.09068921 -0.8178927 1.3985686 -0.17694429 -0.19520737 0.5994697 0.16473609 0.7017653 -0.5000755 -0.31860727 0.16292234 0.64504313 0.008732768 0.25627905 0.2931906 -0.3582646 -0.037780795 -0.09918104 -0.92531663 -0.18686187 0.009441784 -1.5695428 -0.14597131 0.1953009 0.041889325 0.24050862 0.13634032 0.04386614 0.78859675 -0.12019827 0.61298424 0.019689176 -0.055962007 -0.060505357 0.10020126 -0.033435877 -0.22595197 0.6575454 0.06707009 -0.9384774 0.27398068 0.50256675 -0.29849043 0.1461242 -0.4335229 -0.31029317 -0.09069646 0.09937305 -0.07651722 1.9116603 -0.08950949 -0.00016761199 0.47370902 0.18352966 -0.27598494 -0.13107589 -0.011382135 0.12711318 0.10004465 -0.019838993 0.25019687 -0.47659957 0.0669395 0.12180282 -0.0024309363 -0.34978497 -0.41790298 0.050030123
2461 -0.037270486 -0.06809305 -0.035498038 -0.12941171 -0.62351906 -0.47388837 -0.1020674 -0.049923632 0.1977332 0.07816387 -0.34196723 0.21673453 -0.05378437 -0.03470841 -1.695255 -0.09303472 -0.2430547 -0.029137528 -0.47906858 0.71089095 -0.11709791 1.5897309 0.046862047 0.011820175 1.5870917 0.049935 -0.21843383 -0.38605124 0.31565672 0.19485871 0.15613829 -1.5890394 0.61028355 -0.12035335 0.4685737 0.17588925 1.234149 1.72482 0.03513833 -1.7560052 -0.049337003 0.21287337 0.18814585 -0.1662742 -0.33005273 -1.1701428 0.17805475 0.23790538 0.37918335 1.3252462 -1.2735368 -0.09646999 -0.22867414 0.24077775 -0.39968866 -0.030981982 -0.3425849 -0.4331158 -0.5133366 0.28843233 -0.42426676 -1.6537362 -0.15631631 0.14688596 -0.83000636 0.13031884 -0.75293416 1.7753671 -0.4545989 0.021753678 -0.72971976 0.81698895 -0.06863751 1.4046452 -0.07861411 -0.0904582 0.22700009 0.1648551 -0.1066071 0.009361122 -0.008318902 -2.1272311 0.2596755 -0.24496761 -0.20868988 0.36304033 -0.030488761 -1.1510919 0.6528133 -0.04079717 0.28047156 -0.14644271 1.7266308 -0.37760884 0.33378136 0.57120717 -0.46074465 0.0027017707 -0.049078315 -0.45625266 -0.09200059 -0.27219883 1.556139 -0.6278667 0.059283078 -0.21663058 0.115335606 -0.06389882 -1.0968523 0.35398912 -0.11553649 0.13261318 -0.34143156 0.13372277 -0.3017979 0.26138562 -0.24221571 1.8507122 1.6440775 0.8170249 0.21949473 -0.054463767 -0.8610476 0.9361086 -0.34751043 -0.16694476 0.3834942 0.24702142
2092 -0.13702169 -0.16238388 0.38135687 0.24021745 -0.41650155 0.19788499 0.5251515 -0.37030023 0.40339518 -0.045241017 0.5811008 0.2583541 -0.239772 0.053540908 0.3678348 0.02116756 0.4348886 0.15303722 0.14150712 0.1925998 -0.08541673 -0.33439922 -0.38344544 0.016162314 0.41900325 -0.04706993 -0.3820094 0.2443269 -0.18186828 0.066648416 0.26325864 0.57826906 -1.2053561 0.51185143 -0.4537886 0.4696379 -0.20682818 0.066949874 0.088322826 0.13738789 -0.031154156 0.3257642 0.2197226 0.20161968 0.2546 0.13334769 0.2492486 0.13196494 -0.3080824 0.42455328 0.16460644 -0.25697342 0.03737009 0.015878743 -0.10116609 0.3621572 -0.27692044 -0.7028149 -0.17884816 0.29535568 -0.22036698 -0.15741311 -0.26875106 -0.18781601 0.048067294 0.38716656 -0.0433745 -0.15999776 0.074119925 -0.13663721 -0.052649695 0.21549344 -0.0029622007 0.13645484 -0.1788548 -0.13937536 -0.44132838 0.032595906 -0.50215894 0.110702455 0.2195386 -0.18702042 -0.19788332 0.082372084 -0.37841702 -0.47395346 0.12896802 0.027736554 0.8208716 -0.65920156 -0.108804084 0.32359704 -0.017681258 -0.14175935 -0.20448336 -0.47089347 0.38769534 0.3585271 -0.43821847 -0.33717743 -0.32750756 -0.09248947 -0.31203943 -0.14250833 -0.54573023 0.09970675 0.056954537 0.07746767 -0.2914175 0.001870183 -0.29427528 0.387972 0.29385155 0.47893107 -0.017103786 -0.21487153 0.054126848 0.28229412 -0.18106209 -0.3482941 0.122671895 0.0909171 0.22990608 -0.109420024 -0.30193165 0.14587203 0.040942185 -0.3340191
1161 0.21165556 -0.52675587 -0.0006549312 0.3477613 -0.018483682 0.17058028 0.40340215 -0.35818803 -0.2627012 0.11515268 1.2689381 0.16805361 -0.4525815 -0.16634934 -0.15577847 -0.47461078 -0.21327259 -0.027629556 0.23604208 0.341424 0.5201142 0.90667117 0.15238142 0.1247478 0.60040236 -0.110969074 -0.13401398 0.011554454 0.2968317 -0.06722323 0.15395348 0.217461 -0.0009729726 0.10457109 0.25917614 0.5663014 -0.12713747 -0.113725714 0.12923184 0.22516073 -0.18879068 0.010296169 0.027492074 -0.03707167 -0.28977832 0.36714005 -0.31740335 0.09162572 0.2335932 0.22503391 -0.48969513 0.03575434 -0.40474105 0.36125416 0.11669172 0.20793286 -0.5331396 -0.58237404 -0.12523519 0.87511826 0.037632104 -0.24567784 0.27025005 -0.2041475 -0.44271594 -0.29321536 0.19196652 -0.4379537 -0.18738665 -0.2754979 0.1264313 0.059090212 0.10791042 0.09122615 0.07350966 0.025566086 -0.32527927 -0.11715862 -0.24955155 -0.19148307 0.30453688 -0.17468245 0.26881877 -0.069909036 0.0013331033 -0.38142386 0.19441721 0.41464436 -0.11251721 -0.62804 0.26799324 0.4927326 0.10172709 -0.090162076 -0.54722786 -0.28655863 -0.083641134 0.28042233 -0.17410739 -0.10946819 -0.02634188 0.21551758 0.27893442 0.046562765 -1.0415304 0.19806224 0.20243996 0.1324656 0.40709704 0.07067274 -0.27661088 -0.21230768 0.11680377 1.3530117 -1.1806216 -0.5503403 -0.2008569 -0.5694967 0.48664874 -1.0292395 0.45743212 0.21135834 -0.04139934 -0.01840122 -0.21018673 -0.29080662 -0.50526243 0.2443545
2643 -0.14280893 0.50385606 -0.15292932 -0.17039225 0.06399031 0.025381252 -0.13955683 0.066681236 0.06929 -0.14775449 -0.4393446 -0.103391215 0.23841728 -0.17517968 0.3214313 -0.16139828 0.6265882 -0.33047992 0.14737006 -0.6744294 0.100285426 0.2949581 0.15467058 0.39288425 -0.086762436 -0.051383704 -0.066579916 -0.4508574 -0.05177094 0.14384063 0.332549 -0.4375431 -0.41555813 0.8119742 -0.34613386 0.34910712 -0.012762396 -0.110071406 -0.14708963 -0.08392365 0.28489232 0.01286691 0.17166144 0.5939315 0.074076615 -0.025212178 -0.42061567 1.0231403 0.09465698 -0.31522605 -0.7494681 -0.22182 0.04789167 0.31314096 -0.016187767 0.8240971 0.2116997 -1.0252914 0.32579052 -0.18456426 -0.0591143 0.30394232 0.008956477 0.001723806 0.29833385 -0.061415195 -0.4987424 -0.2658126 0.29202467 0.4081102 -0.02134861 0.32164228 0.16510892 -0.4211823 0.12779377 -0.62850034 0.027160035 -0.8931049 0.34555653 -0.4406523 0.63613135 -0.16605778 0.09561385 0.4206059 0.03284962 -0.07627115 -0.20689842 -0.045901187 -0.051618177 -0.5850363 0.30772623 -0.377239 0.22785217 0.04153614 0.017290387 -0.110024974 -0.07190938 -0.00019624596 0.43135208 -0.077142805 0.4124767 0.30635992 -0.2725766 -0.4289112 -0.31890512 0.3158351 -0.14778641 0.16425452 -0.2067227 0.06160749 0.23973809 -0.30781755 0.33005306 1.5120881 -0.24814 -0.13002506 0.16184783 0.17654379 -0.024082042 0.026401922 -0.20046738 -0.69040513 0.06349778 0.05935821 -0.6396318 -0.0335855 0.22429778 0.22137818
2506 -0.27760538 -0.09326835 0.21007009 0.14243537 -0.31556484 0.3320357 0.2827617 0.36545628 -0.1869293 0.08890099 0.14968008 -0.023954624 -0.13759431 1.3225358 0.0702412 -0.0014858126 -0.0035138316 0.14916164 0.37122574 0.9106019 0.11837386 -0.16832814 -0.21841334 -0.13259503 1.1164939 -0.48351142 0.07529082 -0.022037672 -0.18830982 -0.30328164 -0.38888988 0.08166254 -1.5678947 -0.036328923 -0.49884173 0.06932641 -0.27600998 0.15924852 0.38164943 -0.18430626 -0.10708065 0.012381428 0.18239422 -0.26561645 -0.03214258 0.14037582 0.08714705 -0.055251576 -0.2731055 0.30098242 0.6163591 0.27625674 0.028386332 0.6019343 0.7393228 0.77790195 0.12956288 -0.7818973 0.07864085 0.54921764 -0.13344643 -0.7250341 0.17920206 -0.16493806 0.13094506 0.45978278 -0.2003708 -0.47722894 0.0059142467 -0.12523586 -0.004558615 -0.36427003 0.037907813 -0.08526067 -0.3654991 -0.2092015 -0.017593745 -0.33705065 0.16402118 -0.024355108 0.016276302 -0.06404954 -0.04909064 0.30525532 -0.3947268 -0.007788724 -0.022841988 -0.027671907 0.9393181 -0.5732132 1.1148113 -0.61575365 -0.015975382 -0.3102799 -0.040536426 -0.27224118 -0.009187103 -0.3815726 0.026090087 -0.6835041 0.18201286 -0.05135304 0.6964161 0.020339046 -0.5343647 0.79314476 0.09670636 -0.10329416 -0.058135394 0.4109162 0.17005871 0.30746594 0.2594804 0.16021496 -0.3802863 -0.29588458 0.035913657 0.17095508 0.04389412 0.12067765 0.012996765 0.0681427 -0.004796309 0.60276675 0.16688332 0.06207321 -0.04504091 -0.19996087
115 0.19667873 0.21654052 -0.21744278 -0.39723727 -0.20364174 0.6272288 0.63707966 0.8245258 0.19683471 0.09371563 0.6258366 -0.11114631 -0.004712653 -0.13078827 -0.68971866 0.37304288 0.04476584 0.80510396 -0.683217 0.30352074 0.07262543 0.17228153 -0.5700387 0.038016137 -0.79556984 -0.2157842 0.09926333 -0.32983294 -0.38273066 0.21309254 -0.50737566 0.14494047 -0.21167982 0.7519628 0.069947734 -0.2884214 0.41875878 -0.14330365 0.8167676 0.3264859 0.08276368 0.39328164 0.09625251 0.12077404 -0.50819993 0.04057562 -0.21140069 -0.27372253 -0.12827003 0.12112414 -0.120698795 -0.18420362 -0.7018814 -0.040735282 0.25873786 0.14409481 -0.031672124 -0.58279175 0.07936968 0.60462725 0.07513543 -0.11353174 -0.14160506 0.2918735 -0.1386577 0.6571491 0.11083223 0.17428318 -0.4756178 -0.043024287 -0.15684113 -0.12993221 0.38037208 0.018645246 -0.23668012 -0.018982666 0.2420036 -0.12328787 -0.17163661 0.076717846 0.31447512 -0.8364195 -0.15315412 -0.0111990925 -0.21140851 -0.15572384 -0.09448433 -0.0642729 0.46041355 -0.33691627 -0.13240452 0.186807 -0.27193934 0.27950045 0.13684972 -0.26438054 0.14879054 0.2619656 0.16148844 -0.049997225 0.18189214 -0.238525 0.10589258 0.85004455 -0.54099107 0.27674735 0.35077766 0.5803853 -0.3128571 0.18608369 0.19840525 0.09789391 -0.17395693 0.09838489 0.057857398 -0.093177974 0.0067102094 0.17115702 0.03990925 0.095442384 0.16841309 -0.175892 0.0025798266 -0.43163007 -0.011198338 0.23755926 0.1817033 0.1591058
1076 -0.30168468 -0.18043388 -0.1637077 0.023593973 0.12814854 0.3448169 -0.18699864 0.25261676 -0.22788931 -0.18211369 0.3357286 0.24789773 0.019592486 0.016859991 -0.636238 0.3146974 0.094740875 0.10812072 0.08560191 -0.09751557 1.2836213 0.15571204 -0.28043228 -0.26287588 -0.038278535 -0.68917686 0.19454682 -0.10123773 0.12298143 0.014084714 -0.16190277 0.033538245 0.18097407 0.38215438 0.27820054 -0.2864561 -0.06481303 0.5815827 0.16004117 -0.36774632 0.06060961 0.13513528 -0.06675453 -0.11845267 -0.059579223 -0.2864711 0.0730133 -0.12457958 -0.09415549 -0.039425593 0.4070999 0.21753374 -0.65882385 0.040366337 -0.22268969 -0.21824859 0.5588751 -0.52376175 0.49985453 0.023089329 -0.524272 -0.93407905 1.0602795 -0.030642118 0.44556752 1.1669949 -0.034579318 0.020884393 0.3465759 0.06165292 0.015922448 -0.15540649 -0.2521665 0.05130222 0.33033925 -0.42225206 0.2557073 0.23226286 0.06769463 0.31182158 -0.5131793 -0.31161672 0.34080908 -0.43733585 0.27899748 -0.24536051 -0.24853465 0.050640233 0.7007727 -0.43745905 0.25033852 0.11259593 0.09026283 0.080447294 0.1810476 0.5044643 0.15085033 0.25767216 -0.44233632 -0.12052958 0.044288635 0.17271183 0.25194845 0.25338197 -0.0155464765 0.4884775 2.7415226e-05 0.158341 0.13249099 0.17171413 -0.015484396 0.076052 0.0820351 0.2000923 -0.30404755 -0.13848656 0.03726975 0.5152995 0.16340117 -0.31111252 -0.37629265 0.020513 0.28951812 1.0646015 -1.0725564 -0.068367414 -0.42873362 -0.29405832
646 0.05906473 0.5075127 0.3839003 0.06966933 0.22054076 0.22190854 -0.0068279477 -0.004880202 -0.06735823 -0.037507974 -0.11370608 -0.033655327 0.053359058 -0.11174047 -0.8254816 -0.24926351 0.017837357 0.122177176 0.18336156 1.0809541 0.13989942 -0.013828375 0.019762056 -0.34548342 -0.03209439 0.2050297 0.31861344 0.22247472 0.23624602 -0.19058543 0.051151026 -0.28597355 0.23348792 -0.053747945 0.5884642 0.0017213445 0.18231118 -0.14623585 0.6959617 -0.052170973 0.44774926 -0.07442134 0.19912882 0.42320493 -0.13663866 0.21490143 -0.39757836 -0.27048057 -0.31057036 0.15662232 -0.2435919 0.1836867 0.24699882 0.38179892 -0.076579355 0.3160845 0.6123982 -1.079633 0.23404706 -0.16773562 -0.18618757 -1.0618943 -0.03803253 0.18843834 -0.45294085 -0.49860993 -0.5182172 -0.24570279 -0.19408834 -0.24928237 0.07526979 -0.17371988 -0.10791253 -0.18428762 -0.17767635 -0.66416955 0.27562344 -0.81923157 -0.29161775 -0.019143203 0.2767423 -0.4520234 -0.7981718 -0.37331256 0.21851969 -0.41753575 -0.12496718 -0.03204441 0.9797147 -1.7373434 0.1869978 -0.063924834 0.15239188 0.07526845 -0.3896702 -0.01182275 0.5297986 0.12071607 -0.0612935 -0.04374533 0.26634917 -0.2580724 -0.1179887 0.0542458 0.042583514 -0.27156657 -0.2310554 0.73343825 0.15233767 0.13952976 -0.30637506 0.14491376 -0.11134528 0.10059282 -0.16077235 -0.34155664 -0.09080447 -0.10968373 -0.3884327 0.21816073 0.6861063 -0.11018428 0.035445575 0.4016093 -0.515309 0.31180033 -0.017027529 0.23001757
2478 -0.024298934 0.1028777 -0.0887414 -0.12345597 -0.5316413 0.2000315 0.2064639 -0.5153913 0.38696948 -0.043897133 0.23742186 0.28255737 0.23712333 0.009671619 0.034685865 0.54380184 0.22403911 -0.34452766 0.223787 0.5684049 -0.29314867 -0.14749208 -0.018859629 -0.3765887 0.25965673 -0.5008248 0.02659706 -0.22799747 0.010356038 0.0631914 0.057198323 0.055947416 -1.498204 0.4246217 -0.6450364 0.60468966 -0.1795305 0.67559415 -0.1410295 -0.39978695 0.11522075 -0.11645174 -0.13240568 0.19448084 0.23638216 0.15518822 -0.12952429 -0.2123676 0.022659328 0.5717824 0.15637365 0.33852375 -0.099767834 0.06316918 0.14781496 -0.028332919 0.2258818 -0.9262614 0.5077453 0.8473656 -0.15502796 -0.29100353 0.01446939 0.17977971 -0.06304102 0.50209534 0.13325235 0.094016664 -0.09077701 -0.2743473 -0.2782569 0.5722695 0.2873564 0.13078892 0.22149882 0.34223962 0.2333308 0.17646517 0.8593486 0.11200633 -0.26518676 -0.33392122 -0.027038079 -0.610432 -0.58303326 -0.398772 0.28627083 -0.028681146 0.15445392 -0.4197273 0.34335256 -0.15394093 -0.16524051 -0.22557975 0.3752011 -0.015580678 -0.51360345 0.22396682 0.23471822 -0.044261537 -0.0145916045 0.07733166 -0.2674059 -0.14957863 -0.3389234 -0.45009926 0.16907978 -0.38648027 0.048777357 -0.07579066 0.07928935 0.4898424 0.67626554 -0.059370648 -0.77755 0.011686347 -0.006775943 0.21668369 0.34649673 -0.30450574 -0.39315358 0.28349832 -0.61125475 0.1549418 -0.40524495 -0.18577206 -0.008005182 0.05258339
127 -0.10359093 0.025472471 0.1433971 -0.03518286 -0.38974878 -0.013927555 0.05163748 0.009734265 -0.050279524 -0.031094538 0.069782935 -0.11560462 0.092363335 0.042718995 -0.10073428 0.24523461 0.006401833 0.6372527 -0.026769111 0.016186457 0.052249882 -0.31965882 -0.9827714 -0.022915151 0.0090815285 -0.08466538 0.025413565 0.069584854 -0.0913244 0.040582307 0.3729001 -1.2605602 -0.5745822 -0.0020662108 1.0140672 0.29907712 -0.037009522 0.15098585 0.17544459 -0.11258338 0.43619287 -0.071247056 -0.26373494 0.98277235 -0.009402467 0.012664341 0.06507108 0.07448853 -0.18125552 1.193581 -0.20628124 0.9686644 -0.07834124 -0.03814486 -0.011067322 0.032546423 0.24401274 -0.3387551 0.40551668 -0.0004019212 -0.12393114 -0.1037544 0.094721794 -0.077383816 0.10472776 -0.16876735 -1.0108008 1.0373687 -0.07385196 -0.05174072 -0.18193573 -0.03655043 0.034531325 0.18654948 0.036602754 0.035851434 -0.23064351 -0.34112602 -0.14559767 0.6936303 0.08744794 0.16479751 -0.005804435 -0.64094394 -0.35527208 -0.054373685 -0.011318501 -0.009854634 1.1003137 -1.3028644 0.013669041 -0.10806455 -0.07907133 -0.5437389 -0.022792703 0.41202226 0.08264718 0.011680687 0.007134879 -0.10430683 -0.503038 0.10968959 0.35117027 -0.08368033 -0.8092669 0.14133964 0.076903954 0.32757264 0.10964887 -0.059015196 -0.21583067 0.5313161 0.025813034 -0.03252875 -0.6945478 -1.1279141 -0.005811688 0.09654009 -0.0017816392 0.8495418 0.019449925 -0.06877219 -0.28140393 1.9668021 0.1664458 -0.021737963 -0.03818163 -0.04142807
233 -0.11135467 -0.19619545 0.07044619 0.12562375 -0.053680394 0.16214342 -0.15731585 0.018922368 0.00840855 0.30437145 -0.124018505 0.085497856 0.31752852 0.15353924 -0.06014763 0.12561554 -0.47670078 0.12096731 0.29853734 0.77823526 0.54638577 0.30472478 -0.15254006 0.062480006 0.57361937 0.14531289 -0.04867698 -0.062088083 0.259666 -0.09107973 0.06393444 -0.08244887 -0.2976463 0.44720972 -0.22567384 -0.40701175 -0.047240138 0.095110945 -0.16116484 0.25120565 -0.2559116 -0.1294627 -0.28743657 0.32288858 0.4733307 -0.06222435 -0.22033225 -0.039388344 -0.14017315 0.12575129 -0.4660192 -0.015968999 0.21432015 -0.003287871 -0.07284118 0.30166593 -0.019318797 0.28207034 0.08235453 -0.13667987 -0.18777868 0.2248182 0.18400376 0.1287355 -0.29349232 0.8882531 -0.92289335 -0.07607669 0.15629953 -0.098196894 0.12664595 0.7442797 -0.0619442 0.14270854 0.06532193 0.11883986 0.07336502 -1.0308974 0.33842918 0.18601882 0.052033637 0.051788267 -0.10191563 0.18619066 0.15511389 0.056437507 -0.01816731 -0.19251496 -0.4380699 -0.9680325 -0.17900582 -0.16496524 0.45926613 0.22289301 -0.24871476 -0.0039366796 -0.026915083 0.042071186 0.18665142 -0.013583 0.2471948 -0.19045134 -0.17733426 -0.18483126 -0.029690094 0.84263283 -0.010168817 0.8106822 -0.21176963 0.32223523 -0.0918119 -0.03454742 0.655511 0.0070255534 0.19359347 -0.07763349 -0.29965094 0.26020193 0.5576922 -0.10540817 0.11507646 -0.21795465 -0.17128715 0.6112079 -1.3771522 -0.31320938 -0.05274581 -0.22190519
134 -0.17191356 0.060977206 0.27431232 0.34624204 0.6809414 0.012680411 0.3901699 0.33648637 0.5332688 0.164671 0.4171321 0.48512775 0.13046601 0.35232806 0.05731876 0.028633375 0.35039306 -0.17277685 -0.1595909 -0.39436767 0.24926613 -0.28892148 -1.0940158 -0.13472949 0.29813066 -0.19456328 0.37453178 -0.4727921 0.13046494 0.17238443 -0.08390109 -0.93121505 -0.97861934 0.8158725 0.35582048 -0.4501217 0.4740744 0.22792402 0.14879279 -0.117429875 0.770767 -0.009972854 -0.09694697 0.15566005 0.16872865 -0.3115979 0.084987536 -0.026696175 -0.042917605 -0.4710733 -0.31594408 0.07940616 -0.14295417 0.10177667 0.4425596 -0.53817755 0.55040956 -0.7933903 -0.80506575 0.17505443 -0.102341786 -0.39044333 -0.20575488 1.1443667 0.21872637 -0.27790987 0.21325447 0.5902858 0.22750859 -0.32029983 0.24919395 -0.08284823 -0.0056447266 -0.2874488 0.34164917 0.13549708 0.5641228 0.06731693 -0.44848156 -0.086272 -0.2749648 0.38039553 -0.40899092 0.40632096 -0.09956798 0.51042557 0.1308035 -0.08580887 0.13114958 -1.1160647 0.5675766 0.033125073 -0.17965959 -0.008210661 0.33917186 0.3168929 0.1740285 0.06379303 0.13536966 0.049823012 -0.18390901 -0.010602027 0.2765031 -0.5924143 -0.6602151 0.4050844 0.19283368 0.01663759 0.098776095 -0.28132662 0.28672278 -0.11589912 0.08131573 -0.19375184 -0.515609 -0.17581934 0.17798913 0.37990177 0.3383367 0.19006866 0.67394525 -0.062010854 -0.14348763 1.7389313 -0.5175047 0.44023404 0.129687 -0.18364447
136 -0.17057246 0.049684748 -0.09710948 -0.08870465 -0.4248407 -0.297031 -0.16574965 -0.23005992 0.8527304 -0.1870314 -0.013480685 -0.65924096 0.06616418 -0.13335228 -0.109831534 0.049777698 0.07797749 -0.39968476 0.25483102 0.5714379 0.37964648 -0.19920461 -0.19100194 -0.07590976 0.34107897 -0.24254401 0.16525444 -0.28632092 0.2769609 -0.39115503 0.008324726 0.4213259 -0.5024982 -0.26682654 0.13241546 0.17668162 -0.14586864 0.74345237 0.12100661 0.05298874 -0.09021554 0.36929035 -0.07691319 -0.14036559 0.21413694 -0.685618 0.31279987 0.015434571 -0.47646174 0.5930492 0.3933718 0.17592177 -0.49436367 0.088053286 0.34237117 0.16431868 -0.0154694365 -1.2740383 -0.1192266 0.49794453 -0.2133296 -0.35280704 0.17927118 0.1799025 -0.17060058 -0.0059066582 0.037564155 -0.44793788 -0.029051905 -0.74624807 -0.004754341 0.41960934 0.06953669 0.3644435 -0.44079593 0.35898226 0.09469133 -0.5451844 0.024868704 0.043326527 0.6345027 0.21727459 -0.0011527701 -0.010091985 -0.8190015 -0.38604125 0.66826314 -0.68726045 -0.2686108 0.29057267 -0.5320106 0.13381812 -0.06757056 -0.1794172 -0.13513246 0.5757303 0.09405214 0.363575 -0.4481777 -0.114571266 -0.48595652 0.8852557 -0.10260518 0.19149348 -1.1785533 0.36900747 -0.14023432 -0.023589633 0.33026165 0.47832015 -0.61164707 0.083919935 -0.0771404 0.74492794 -0.026114825 -0.123112015 -0.0384187 0.7028311 0.97923684 0.5500892 0.03690981 -0.11295798 -0.033562053 0.053875085 -0.5577738 0.3601639 0.2522574 0.5210128
2622 0.17490269 -0.23338869 -0.07347552 -0.15543252 0.17434837 0.097127035 0.30693942 0.027378563 -0.02843593 -0.035229743 -0.0627605 -0.1063013 -0.4277825 0.12020092 -0.14700285 -0.23964038 -0.053205166 -0.17888038 0.15295964 0.15080617 0.9095898 -0.06280268 0.12823878 -0.40084964 0.029607877 0.045582466 -0.005204927 -0.13875507 -0.39873344 -0.14259006 -0.17392528 -0.48189214 -0.6287868 -0.25665516 0.047706842 -0.0235129 -0.03960803 0.672145 0.18540637 -0.025745064 0.17587866 0.0032539743 0.5977507 0.2909908 -0.27634934 0.11246687 0.11592118 0.026858913 -0.009977056 0.22202522 -0.3121675 0.02569875 0.21976341 0.07016199 -0.062964626 -0.7844111 0.1377828 0.0009885095 0.00687569 0.062225502 -0.25344962 -1.783953 -0.23022823 -0.41434535 -0.07225434 0.92631936 0.011487422 0.83235145 -0.15801449 -0.23711649 0.22332585 0.12978137 0.25384805 -0.20181453 -0.4493308 -1.0099336 -0.43865055 -1.3198781 -0.9194643 0.19006081 0.03387649 -0.15994203 0.122471154 -0.2691402 0.09858774 0.05952073 0.14083801 -0.021356838 0.3085361 0.33885837 0.16752951 -0.034529656 0.038049705 0.42877874 -0.16990384 -0.067546755 0.0013402854 0.13664542 -0.26226097 -0.3959122 0.41871554 0.16046886 0.12379229 0.55431426 -0.8945168 0.99643826 0.16001499 0.09971046 0.047217656 -0.038014892 0.06553684 0.032529145 1.0765392 0.019113049 0.0379355 -0.030438498 -0.22638567 0.036680996 -0.123069085 -0.22728659 0.5484608 -0.6208336 -0.15904397 1.798492 -0.40609828 0.014336301 -0.16835308 -0.06499219
2617 -0.3751439 0.39462438 0.12585177 0.13739103 0.16183235 0.012287546 -0.10815325 -0.61604214 -0.42040426 -0.2704272 -0.058967635 -0.12060733 -0.2645274 0.39127156 0.1569043 0.1735536 -0.88887244 0.16659744 -0.8653402 0.036318228 -0.03744507 0.29783702 0.035652168 0.13900493 0.15463956 -0.0434011 -0.20579068 -0.017569777 0.09792523 -0.39241272 0.38720003 -0.07338527 -0.98250073 0.19108371 0.5189579 0.26903275 -0.3450224 0.32944757 -0.013894325 0.3711422 0.7393317 0.24128205 -0.019375589 0.1684986 -0.42327067 -0.045498244 0.024850251 -0.15473467 0.37781543 0.4822842 -0.2296275 -0.103920795 -0.46391395 -0.08993289 0.31692502 0.40463153 0.11365011 -0.5629275 0.5235155 0.74001527 0.5311238 0.23032893 -0.36426806 -0.13273284 -0.3216672 0.5569508 0.3417435 -0.10733676 0.207411 -0.7081503 -0.43572125 -0.17303003 -0.021821862 0.12069145 0.41938585 -0.93382 -0.23326644 -0.33705395 -1.0894133 0.05473949 0.17860608 -0.8228541 0.041679986 -0.13711837 -0.06139236 0.4481242 -0.008286344 0.3874207 0.07797097 -1.4041123 0.01838231 0.17462057 0.9123972 -0.09712068 -0.074026816 0.18962899 0.39285523 -0.004706969 0.10556169 0.30916417 0.050251096 0.10995591 0.12184092 0.016813584 -0.121914074 0.2964833 -0.20851251 -0.06471817 0.047050077 -0.20346987 -0.04839077 -0.31260988 0.015550742 -0.14782792 -0.32826033 -0.061736226 -0.048382197 0.30717516 0.817801 0.20787938 0.44040602 0.35418546 -0.18685566 -0.19043568 -0.15273392 -0.16261336 -0.18866895 0.05780102
178 0.093206964 -0.13675724 0.05392959 0.14738594 -0.014220358 0.08468426 -0.3796663 -0.084296 0.44541138 -0.306302 0.41546282 0.083619826 -0.041104652 0.83500636 -0.4074888 -0.12901767 -0.19985408 0.53268844 0.24485622 -0.20525897 -0.26991662 1.5769287 0.24087572 -0.1479022 0.122472584 0.09446181 -0.284329 0.18316159 -0.06946682 0.029012535 -0.12952194 -0.33360612 -0.65898687 0.252082 0.23661529 0.553603 -0.19475105 0.007679396 -0.31295407 -0.31473565 0.0141541585 0.36953104 -0.4431755 -0.7829921 0.4312878 -0.07145921 0.05784891 -0.27257082 0.4694573 0.16874564 -0.3725228 0.43986952 -0.07151823 -0.20404065 -0.26291347 0.11778953 0.01577098 -0.32027823 -0.12691696 0.03475625 -0.25901195 -0.14198492 -0.09046526 0.0583895 0.1717324 0.4299062 -0.057785273 0.05651964 -0.057252284 -0.07876811 -0.30229062 0.31599444 0.039398044 0.4143358 -0.06325811 0.061279003 0.20284925 -0.66373104 0.3605048 -0.3113545 0.01965495 -0.7824258 0.030863294 -0.06240848 -0.022453493 -0.09483585 0.052059907 -0.27438736 0.8165492 -0.1975776 -0.18600306 0.23838891 0.03672872 -0.09076751 0.095468044 0.43065813 -0.8069374 -0.05482724 -0.14196452 0.09496572 0.41711557 -0.096657924 -0.025753392 -0.12855998 -1.25091 -0.09245535 -0.4154059 1.0846636 -0.14915688 -0.5559549 0.016831335 -0.23514767 0.5149692 0.7790576 -0.13961945 -0.13463707 0.30540195 0.7814306 0.12581412 0.015138965 0.009232082 -0.22650357 -0.22547683 0.72263455 -0.8445228 -0.33719334 -0.52255875 -0.021744419
184 0.02877928 0.04592224 0.07269745 0.055749428 -0.71756244 0.008237879 -0.071906894 -0.31288618 0.10029558 0.13566129 -0.4622581 0.24866709 -0.17086202 0.4063362 -0.16871697 -0.29217842 0.014198827 1.9133004 0.11318493 -0.019693134 -0.052535053 -0.2467345 -0.042472355 -0.42080128 0.17869513 -0.008431938 0.048991177 -0.63137263 0.016053464 -0.8103788 1.6080025 -0.6479386 -0.32237747 0.14100352 0.5636921 0.22622123 -0.025383832 0.08752646 -0.004288324 0.347997 0.42383316 0.032582596 0.22937469 0.22952631 0.38239563 -0.04108139 -0.07600469 0.1498268 -0.0012800317 0.4087045 -0.17202446 0.8499268 -1.1858634 -0.09351461 0.06354618 1.730565 0.108089365 -0.14601853 1.2483835 0.09450273 -1.8572346 0.25495344 2.0005398 1.7523828 -0.521461 0.04154582 -0.9857736 0.17419164 0.7069167 -0.033956658 -0.47994706 -0.22021425 0.10680027 0.96047544 0.35068962 -0.6178613 -0.18969569 -0.12876725 -1.5140951 -0.42302117 -0.013918956 -1.0836216 -0.116724 -0.093330525 -1.0359566 -0.2799134 0.4848632 0.070031404 1.2166108 -0.29790494 0.48462686 0.022387717 0.39251345 0.2510626 -0.15660141 -0.039828077 0.012979708 -0.005168688 -0.030764077 0.064844556 -0.122750975 -0.03772126 -0.012079294 -0.0038577022 -1.0522535 0.8910311 0.097136304 0.22153476 0.025964262 2.2269619 -0.89945817 -0.64679843 0.6099985 -0.4117416 -1.3390944 -0.8419023 0.0035404633 0.37844825 0.93330294 -0.2056081 -0.086537704 -1.2157315 0.6169079 1.0404812 -0.08146327 -0.27891806 -0.07354701 -0.32604834
520 0.16665909 -0.3653208 1.0072284 -0.21084316 -0.18595473 -0.30848208 1.5756643 -1.1133913 0.58494234 -1.491408 1.7448198 -0.12319556 0.35530892 1.6026531 0.017457074 1.6072327 -0.5251435 -0.24000694 0.15332185 1.2287099 1.5813919 0.09306937 -0.9004231 -0.31749254 -0.29025197 0.037276193 0.33579618 0.3400512 0.46660396 -1.3681715 0.091549136 -0.9812698 -0.22520845 0.08473412 1.9931482 0.051168464 -0.36891267 0.022924256 0.17420827 0.062118158 0.55961573 0.30966577 -0.042072352 0.48060927 0.09383866 -0.53120416 0.0072800643 0.44928876 0.10455065 -0.04085423 -0.35800147 -0.273107 -0.04966061 -0.62367064 0.10076208 0.6517127 -0.19577356 -1.4088435 0.4410208 0.1965519 -0.08563484 -1.587799 1.4081875 1.4578837 -0.4960508 0.3315963 -0.49166867 -0.37877047 0.23196292 -0.0773136 -0.19003211 0.21606892 0.10823425 0.12571914 -0.6519072 0.0119101005 0.2680134 -0.16937414 0.7290259 -0.1266972 -0.36567038 0.066519365 -0.022306452 -0.35165602 -0.15254587 0.18345271 0.5593724 -0.19069561 0.08366523 -1.2656558 -0.056968283 -0.8691922 0.08510525 0.11258562 -0.6493348 1.3026222 -0.32626182 1.1346755 0.059778955 -0.33301365 -1.5154265 -0.02031563 0.2518091 -0.25196213 0.06412891 0.37137517 -0.8687107 0.33131236 0.124282345 1.1559039 0.5245807 0.20212406 0.14142849 -0.15897977 -0.6651355 -0.022325741 -0.90531814 -0.02749679 0.024202524 -1.2497025 -0.015545987 -0.07666308 -0.13684306 2.26935 0.021947986 -1.3385361 0.66587657 0.34115902
1672 0.01640349 0.19240518 0.0010818965 0.32739726 0.1405366 0.0048243823 0.14381412 0.11888289 0.40762454 -0.1725799 0.6134059 0.016390828 -0.037549593 0.6168033 -0.047697533 0.2603997 -0.054238312 0.14145432 0.041039094 0.2782205 0.26644588 0.8537345 -0.10466968 -0.030046191 0.35089362 -0.35479093 -0.2659164 -0.2588544 -0.45839173 0.034454394 -0.25335532 -0.26910245 -0.6481355 0.7067373 -0.15016447 -0.27031356 -0.53550184 0.46091953 0.186964 -0.30236635 0.8454717 -0.24103528 0.13558455 0.037988916 -0.104564495 -0.31862846 -0.17332213 -0.39222428 -0.7458899 0.4522882 -0.37356672 0.19704771 0.1300693 -0.052605715 0.64254105 -0.33926505 0.21421795 -0.20529608 0.0901839 -0.191655 0.10013755 0.07665892 -0.08104937 -0.038349222 -0.3380118 0.26369196 0.27723 0.18605155 0.20416082 0.1460031 0.56791097 0.12162449 0.10218589 0.112473 -0.524784 0.14124012 -0.17393208 -0.7260152 0.0598687 -0.19505635 -0.59372914 -0.3230948 0.63752747 -0.0033896386 0.22651759 -0.058904875 -0.14852381 0.12398893 0.92107123 -1.314811 0.48946625 -0.20981175 0.56287384 -0.03803876 0.27963158 0.27629054 0.3151986 0.27661625 0.16758004 -0.7860655 -0.3651402 0.10686084 -0.1579633 0.14190124 -0.17584491 -0.10698548 0.0057855453 0.55433995 -0.087291844 -0.38820753 -0.047706608 0.37845132 0.19378941 0.750794 -0.39560157 0.119534425 -0.52784425 0.78406596 0.25527418 0.13927847 0.5035999 -0.47656202 0.12828267 0.18414374 -1.312472 0.36730832 0.068838574 -0.2670658
187 0.010041491 -0.28300938 -0.011320003 -0.090233706 0.5384395 0.7921394 0.28824988 0.1856318 0.5806975 0.33265877 -0.15591697 -0.115082234 1.0904747 -0.0009497947 -0.16723637 1.2291074 -1.3728584 -0.45767716 -0.53509 1.8114302 0.5800751 0.38541132 0.19880109 0.47091064 -0.36954546 -0.47887155 -0.586845 -0.02064105 -0.32256314 -0.4593214 1.3340628 -0.30802315 -0.8257504 0.04256481 1.3683766 0.6750901 0.3184069 0.069417745 -0.36387703 -0.1675034 0.12828307 0.4240009 -0.14682537 0.4544638 0.59094286 0.04368954 0.23364818 -0.26607102 -0.13343106 -0.17390805 0.14245567 -0.039023213 0.08006397 -0.43053243 -0.25992492 0.9548019 0.25079405 -0.5080218 -0.08288853 1.024499 -0.24951541 0.13939753 1.9206582 0.73794705 -1.1686717 0.3615765 -1.4228848 0.1681109 -0.08181891 0.11698198 -0.45681185 -0.1501116 0.7328582 -0.3010239 -0.02960913 0.12731706 -0.20495914 -0.20771289 -0.26435414 0.21480648 1.7087574 -0.07223719 0.36228406 0.2379767 -1.1640123 0.19356999 0.4009229 -0.117967695 0.6095216 -0.9047382 0.68659556 0.06219681 0.50802904 0.038935006 -0.4220527 1.0427794 -0.35758367 0.03402803 -0.3486269 0.61171937 0.23479712 0.012007776 -0.48738143 -0.18022384 -0.59761405 0.38925856 0.22348115 -0.11570762 -0.5520205 -0.10908619 -0.120118566 0.04028618 1.1031221 -0.30616844 -0.4888519 -0.014410359 -0.23781228 -0.0383247 1.5205102 -0.3307134 0.3325947 0.5631966 0.59323204 0.19270037 -0.27831295 0.22660635 0.05386708 -0.752394
1208 0.19963682 0.14098646 -0.147809 0.59650916 -0.16260672 0.20145375 0.33107877 -0.65070695 -0.23816742 0.12286311 0.33869818 0.6587238 1.5213107 -0.23709472 -0.16112691 -0.07173312 0.18698594 0.09658252 0.5381142 0.066939555 0.21493033 1.3967669 -1.2125136 0.30796334 1.8220195 -1.0614519 0.47789147 0.31347445 -0.41293973 0.30475163 0.053088292 0.17501031 -0.22464262 -0.08376195 0.32822886 -0.09275851 1.105789 0.43279248 0.11038336 0.044360828 -0.22588342 -1.1010981 -0.12812987 -0.050353084 -0.10181337 0.13729279 -0.091571376 1.008524 -0.14105636 0.04483186 0.19444157 -0.18739519 0.07823533 -0.25817984 0.24151921 1.1199694 -0.06866107 -0.72177833 -0.15863733 0.8509174 0.14098084 0.13288374 1.0736895 0.072415 -0.0023050283 0.10009591 -0.09807868 0.52784306 -0.26878068 -1.3485286 0.5392177 0.16461673 1.5772038 -0.5506558 -0.7013645 0.0639315 -0.40814176 -0.057963513 -1.5103335 0.059435613 -0.04025342 -0.1906765 0.15660527 -0.16035585 -0.4549282 -0.29514408 -0.4614979 -0.45090723 0.8200523 -0.60575813 -0.36270323 -0.12626296 0.3036451 0.13862269 -0.029621562 0.40224156 -0.014963591 -0.04947049 -0.1940951 -0.74015254 -0.5661792 -0.20958814 0.3882153 -0.076286264 -1.3845997 1.6864606 0.30043963 1.1693032 0.0489915 0.0778696 0.6781018 0.5040817 -0.08448154 0.5435299 0.17413007 -0.4635955 -0.37398753 1.4761441 1.5705942 -0.08399421 1.850638 -1.4588424 -1.118741 0.97418916 -0.12541474 -1.240718 0.042732287 -0.12879048
491 -0.8081513 0.27843344 0.046158146 0.08741779 0.13059181 -0.18997318 0.70091593 -0.3712528 0.2905004 -0.14134863 -0.3798715 -0.19330835 0.010406068 0.3271134 0.6865234 0.2163227 -0.16061184 -0.39489198 -0.9398466 0.056449663 -0.10792009 -0.28483522 0.519323 -0.30604854 -0.6049471 -0.73958623 -0.07364879 -0.30381882 -0.07466808 -0.11349745 0.03195612 -0.4200207 0.37094653 0.12217922 0.2988163 0.27223852 -0.15523559 0.019746229 0.06407378 0.118704304 0.15705882 0.17066193 -0.5769545 -0.24623042 -0.0047239736 -0.18221523 0.033868164 -0.2104576 -0.063292034 -0.15052582 -0.52849185 -0.23675887 0.20480226 -0.17438105 0.24826099 -0.31273052 -0.4025246 -0.1774294 -0.11707108 0.54721034 0.39684254 -0.8453762 -0.23504582 0.78410727 -0.5836086 0.2609283 -0.30872196 -0.034677096 0.033747416 -0.2113267 -0.075709656 1.7672669 -0.2450403 0.114771195 0.2666573 -0.10201907 -0.2553952 -0.052047983 -0.20036057 0.18986614 0.099431925 -0.9514857 0.060884595 -0.21256463 0.57747453 0.30196425 0.014071179 0.17552808 0.2270441 -0.7798603 0.82545936 -0.6723512 0.35673705 -0.08256113 -0.31237012 -0.20493343 -0.29251358 0.3424186 0.45664603 -0.11484071 0.036602736 -0.39862907 -0.086739674 -0.24347843 0.23275968 0.85780907 0.16836071 0.24747677 -0.094967574 -0.09224241 0.056274097 -0.27748886 0.19736776 0.16730209 -0.24713407 0.12611406 -0.26340765 -0.13082695 0.76181793 -0.24907786 0.7849275 0.23550168 0.11454095 1.2315639 -0.6776731 -0.017704204 0.5249261 0.4876381
192 -0.040505365 0.07211092 0.44505963 -0.13152696 0.0047604227 -0.1595547 -0.062246077 0.23284468 0.23667966 -0.22279912 0.02940742 -0.14453486 -0.12761031 0.023166742 -0.20984013 -0.20276478 0.18553881 -0.34990895 0.17767066 -0.09476424 0.09366244 0.42923984 0.109776825 0.18269207 -0.19149831 0.052324437 0.16194637 -0.6103443 -0.12667449 -0.012811487 0.1660584 -0.44597292 0.05794413 -0.010321204 -0.2052185 0.16126113 -0.10925345 0.4318205 0.36925563 0.08147069 -0.18727036 -0.14612913 0.12692691 0.78598136 -0.024023872 -0.27416122 -0.13798627 0.26635534 0.22732839 1.4251736 0.3376596 0.1582205 -0.056501884 -0.0943425 0.09044593 0.58429784 1.4645761 -0.286038 -0.14709765 0.25667125 -0.33103797 -0.1524566 -0.52843225 0.15080933 0.36363128 0.3639434 0.29445612 -0.16904615 -0.12132894 -0.15796883 -0.42520672 0.50505364 -0.039660465 0.15036716 -0.08135406 0.08972662 0.031541005 -0.9838318 -0.75152814 -0.014526955 -0.22567117 0.12324925 -0.059440274 0.08170278 -0.04450845 0.05553864 0.2326185 0.05562528 0.56098723 -1.447369 -0.21746701 0.09264421 0.604187 0.004976109 -0.7979834 0.13478792 -0.044623036 0.12262067 0.25609306 -0.2067427 0.015496478 0.010837029 0.34067038 0.07112888 -0.02383256 0.50176626 0.14311978 0.16978419 -0.04725701 -0.16817234 -0.09824954 0.07901543 -0.17256309 0.2183247 -0.009110071 0.013600777 -0.082068115 0.08449783 0.0394111 -0.13940461 -0.16672231 -0.23347355 -0.0018999702 0.13028994 -0.5820511 -0.08599632 -0.102362595 -0.12308206
2646 -0.21480618 0.11508781 -0.22266512 -0.06282627 0.2327835 -0.2729746 0.28482467 -0.4413771 -0.39298385 -0.050908968 0.19277856 0.6922645 0.010337716 0.6037464 -0.2731359 -0.112308055 0.26460332 0.26912016 0.11827863 -0.06549508 1.4319079 -0.13485171 -0.2422651 -0.10113881 0.108964816 0.08039614 -0.30130428 -0.022390988 0.06878192 0.078772016 -0.1692342 -0.2475025 -0.8851802 0.376618 -0.22449605 0.12762071 0.07151455 -0.07304065 -0.22110978 -0.17091928 0.095379554 -0.20154133 -0.0064871493 -0.053361923 -0.28738528 -0.13920867 -0.08131185 0.26120952 -0.047623213 0.9132649 -1.2452657 0.2758992 0.074072815 0.0041806987 -0.056551572 0.11466133 -0.24223118 0.026543213 0.19650175 0.64338374 -0.31626964 0.14125405 0.02152721 0.33928183 -0.013007856 0.015781308 -0.47394976 0.15716235 -0.17129733 -0.047493644 0.08849195 -0.056557395 -0.05177946 0.048421677 -0.19703683 -0.22379631 0.05210493 -1.9192474 0.002304976 -0.0332515 0.31540325 -1.2642351 -0.16462347 0.02272246 -0.11683082 0.08481655 0.03514743 -0.057630375 0.03394147 0.033824943 0.04033359 0.11378575 0.10189343 0.11782362 -0.09427603 -0.10992478 -0.03181988 -0.075002395 -0.012047824 -0.017100098 -0.389297 -0.10842202 -0.022353254 0.058617193 0.069253765 0.041192498 -0.14326932 0.22232968 0.04269801 0.6494119 -0.0047122296 0.27891153 0.37834814 0.28444284 -1.5133117 -0.3368089 0.054350354 0.097580045 0.10927301 -0.18613079 0.20506197 -0.35682565 0.13097778 1.0920403 0.115854874 -0.17109025 0.14740668 0.046275187
198 0.07895017 -0.189646 0.2542451 0.25354546 -0.05064119 0.8224701 0.11162061 -0.6855752 0.52408653 0.03409583 -0.006331793 0.025483161 -0.008586256 0.45073265 -0.129516 0.24280433 0.28535098 0.53289634 0.11804035 0.21063927 -0.056855533 0.009223146 -0.16421364 -0.2819649 0.21240583 -0.33915013 -0.018555285 0.075582825 0.056081027 -0.004653886 -0.1407402 -0.2459982 -0.08797105 -0.06786317 0.16638863 -0.09843293 -0.11241735 0.9955025 0.047669094 -0.06558617 -0.14960249 0.11400945 0.12125171 0.13636519 -0.071926825 -0.053053144 -0.40584192 0.0712508 -0.13829474 0.5379074 -0.12502429 0.37673944 0.077284336 0.19085777 0.02407637 -0.0058545284 -0.027400255 -0.015587807 0.15267822 0.62576073 0.30506292 -0.14075698 0.27663848 0.014708528 0.21440789 0.55228895 0.5117862 0.15536715 -0.1434111 -0.19361785 0.038140777 0.08932725 0.18029365 -0.8880401 0.23388487 -1.185089 -0.41559872 -0.5598676 -0.606423 0.032415316 -0.057987567 -0.7334977 -0.01327553 0.11275957 -0.23726787 -0.89093715 -0.30784714 -0.06024516 0.096904024 -0.6916644 0.3228441 0.18436055 -0.2211659 0.019096715 -0.6137937 -0.048208714 0.020881241 -0.05687195 0.084730655 -0.18311611 0.02216284 -0.26964724 -0.021135954 -0.03267781 0.14317745 0.3096492 0.18196127 -0.22594817 0.2194116 0.8371577 -0.014002421 -0.18225124 -0.1890739 0.21239609 0.30779696 -0.17937216 -0.31841847 0.6471943 0.43371096 0.29116243 -0.07190442 -0.17645112 0.017762426 1.1002591 -0.34180292 -0.19134916 -0.08358351 -0.0054874634
204 0.04897454 0.026900854 0.035705283 0.15420471 0.030244337 -0.105241306 0.033986494 0.1675426 -0.15501022 -0.43009922 0.120870486 0.50153595 -0.3081056 0.3621978 0.3280602 0.023156907 -0.24293487 -0.046805274 0.37588236 -0.07002728 0.34607613 -0.16487643 -0.17815909 0.26023054 0.26673096 -0.5203659 0.07841568 0.019437544 0.077269554 -0.39199388 0.09025215 0.25815606 0.031939723 0.2033628 -0.38867924 0.043514684 0.14431517 0.14424944 0.7005351 -0.098443314 -0.15402977 0.29250813 -0.18084794 -0.0057119625 0.07373829 -0.04371346 -0.51221204 -0.2365128 0.090606 0.5491261 -0.30829692 0.41086346 0.17622669 -0.27341962 0.006067506 0.12491453 0.2786518 0.108154096 -0.399697 0.013620356 -0.14062575 0.09866681 -0.32540193 0.45149678 -0.38635164 0.7966257 -0.21288969 0.2799324 -0.044384755 0.043492746 -0.34814528 0.07394342 -0.02193629 0.31360108 0.124130405 -0.120391004 0.031264525 -0.5442788 -0.16463056 0.32732943 0.4247186 0.15947695 -0.051149916 -0.33845684 -0.11032547 -0.4005122 0.0341155 0.2908381 0.7596552 -0.7534622 -0.22444005 -0.50852907 0.7269484 0.4394906 0.19696204 0.23450641 0.55895203 0.039892897 0.023426738 0.3544531 0.10151136 -0.072854765 -0.02778758 0.395015 -0.8583197 0.58886206 0.1328018 0.010772083 0.031372324 0.58290935 -0.09684952 0.4453575 -0.24142225 0.28817075 0.4185122 -0.25529644 0.036697537 0.16222666 -0.01570688 -0.88000363 -0.08037263 -0.23236401 -0.066145 -0.09995519 -0.3911143 -0.41716138 0.11142621 -0.055403154
207 0.025888182 0.108661555 -0.0038522661 0.3513416 0.049027584 0.44839078 0.10605024 0.058806464 -0.37636155 0.24690926 0.05254259 0.22648238 0.18211576 0.37379703 -0.68032473 -0.06534675 -0.05950371 0.24254136 0.39258203 -0.048561692 0.036797624 1.3481511 0.023493847 -0.11471942 0.15429038 -0.41252133 0.38517547 -0.04542881 0.14486277 -0.09404742 -0.027384706 -0.47524798 -0.7738529 0.05465911 -0.090338804 0.934989 0.12803881 -0.16345522 -0.2869703 -0.52175725 0.05237494 0.5414033 -0.20185007 -0.13761686 0.22715957 -0.11319717 0.1500006 0.022985198 -0.14654239 0.23742479 0.11321021 0.05000942 -0.08203068 0.03237618 0.09348675 0.03203347 -0.20622534 -0.29908067 0.18136264 -0.16357347 -0.31942362 -0.11561291 0.27872515 0.05020189 -0.03292063 0.703965 0.12556769 -0.28752145 -0.18731585 -0.22585776 0.30807188 0.7023912 0.27488792 0.26139078 -0.40834385 0.32094255 0.13487576 -0.5870263 -0.079936676 0.38106525 -0.011232118 -0.43611935 -0.28898355 -0.07298763 -0.052232184 -0.20396371 -0.010430658 -0.3169058 0.6637554 -0.44478282 0.31528437 0.0006182494 0.04668983 -0.045955308 0.09048358 0.57501143 -0.9199302 0.14179875 -0.068183586 0.32792935 0.07782255 0.22962043 0.26434577 0.13906685 -0.94355905 -0.2796938 0.31646234 0.62589854 0.15865058 -0.4492575 -0.08410339 0.032936558 0.9965561 0.95887446 -0.67975336 0.009512206 -0.39574435 1.3999182 0.5182589 0.14362995 -0.19621383 -0.2698605 0.27096838 0.5321723 -0.7341215 -0.12117278 -0.09498419 0.32183793
209 0.02670298 0.2765996 0.5743223 0.076772206 0.25456613 0.69482756 0.15961294 -0.050617896 0.27945676 -0.33666113 -0.043959223 0.66121215 0.0030180803 1.5120628 0.31938717 0.11370253 0.01851796 0.3772318 -0.008290553 0.31748113 0.17153072 0.09518087 -0.4604761 -0.6063935 0.111616 -0.5461524 -0.059518594 0.007532106 -0.017130025 0.12054427 0.0115244575 -0.8033704 -0.8834959 0.07694263 0.2452493 0.502941 0.055218883 -0.28030765 -0.108587906 -0.8056298 0.0998401 0.109794356 -0.12307708 -0.12650697 0.099424414 0.054423474 -0.042388745 0.24214348 -0.047747917 0.40016824 -0.17306894 0.2547247 -0.013357279 0.070441365 -0.03315667 -0.39090005 -0.041716024 0.04022032 0.059145972 0.2514219 -0.47990754 -0.0015989846 -0.33143213 0.08130335 -0.2456428 -0.042957008 0.038903736 -0.0058362023 -0.12785389 -0.29151824 -0.045963228 0.057557996 -0.039473474 0.095208205 0.3119275 -1.7111131 -0.242509 -0.761235 0.021319391 0.20454232 0.6840275 -0.7052377 0.31406853 0.04662216 -0.33416998 -0.38927817 -0.14040816 0.48449486 0.9076495 -0.31224322 0.15714207 -0.016477222 1.2004704 -0.017321602 -0.8890025 0.24722712 -0.0042279875 -0.17247337 0.08671523 0.3760919 -0.04001587 -0.14337486 -0.19506882 0.10274009 0.12099933 0.8528723 -0.15892309 -0.24937019 0.13530463 0.92764854 -0.13689163 -0.10516119 0.29201367 -0.25187308 0.30532545 -0.13359995 0.3319419 0.019135568 -0.24375097 0.007027564 1.1093942 0.5001092 -0.26815823 2.0256402 -0.10531859 -0.2872618 -0.3503405 -0.025810283
1626 0.34143606 0.23164281 0.10534838 0.121679276 -0.017132834 -0.13247223 -0.097523116 0.25922018 0.092210755 -0.019564725 -0.29631603 0.052903485 -0.30839354 0.25032538 -0.21265869 0.44834337 -0.2036956 -0.17377508 -0.045943808 -0.33979738 0.81670296 0.3971893 -0.49959397 0.11372775 0.36597648 -0.9773039 -0.06426977 -0.3738573 -0.55082583 -0.6933216 -0.11682514 -0.26361042 0.14748631 0.41002473 0.19898804 0.3818189 -0.03560912 0.13965341 -0.013242048 0.12136937 0.91756743 -0.25373513 0.0854903 0.45056084 -0.029303866 0.6013824 0.38706023 -0.1930224 -0.15609288 0.2805483 -0.23309347 0.04437095 -0.05310101 0.17916527 0.22059047 -0.301871 -0.4206448 0.20349206 0.23458202 -0.22616768 0.0089392625 -0.09466909 0.09782637 0.11423394 -0.09607954 0.2506779 -0.083829746 0.051863696 -0.3087077 0.45356613 0.071490295 0.42649224 0.036994413 -0.3321833 0.047189534 0.42124322 -0.25963792 0.06193072 0.23538345 -0.55159605 0.46428764 -0.53933513 -0.3808019 0.069050446 -0.3968999 0.24415079 -0.40810075 -0.33403412 0.92204475 -0.06717227 0.065105364 -0.07132297 0.035008732 -0.031151796 -0.49290258 0.04281954 0.12567987 -0.27933893 -0.30417925 -0.15662923 -0.47392565 0.32064685 -0.35307935 0.39854306 -0.26687443 0.3415504 -0.03390995 0.011140436 -0.38850984 0.14964877 0.31994206 0.25063315 -0.08809286 0.0343685 -0.6663137 0.2699262 -0.004522301 -0.3102275 0.16814083 -0.21797593 -0.28923512 0.056917775 -0.19492687 0.7827732 -0.5889797 -0.009219271 0.3372046 -0.19739379
212 0.19846573 0.15029801 0.028586041 0.14775655 -0.07573305 0.108507276 0.16480312 -0.41281474 -0.21882223 -0.69755745 1.4205561 -0.26546434 0.19730367 -0.0043259715 -0.14476855 0.07363957 -0.23285069 0.031071352 0.19690426 -0.05896043 0.08588355 0.12952778 -0.41587365 -0.2354119 0.59761155 -0.29460883 -0.20983149 -0.3911028 0.2091671 -0.23711377 0.25392786 -0.09183757 -0.87269676 0.32066542 0.58572346 0.11336661 -0.040209714 1.5687538 0.7787472 -0.11393995 0.2438237 0.096304156 0.09165069 0.057396263 -0.30028793 0.14431803 0.061749727 -0.06769024 -0.14657463 0.37124297 -0.6868603 0.5661497 0.04291828 -0.05312253 1.2872384 0.35607642 -0.13214514 0.23739457 0.13307904 1.0450795 -1.0254846 -0.1672947 0.42454422 -0.3017528 0.06735026 0.2136325 0.20566536 0.26168874 -0.6592546 -1.6059982 0.2793549 0.056566074 0.14547545 -0.03555401 0.18857497 0.302168 -0.19929211 -0.4471591 -0.2301386 -0.33076885 -0.20842032 0.17390431 0.46332252 0.373719 -0.2271633 -1.6100459 -0.24135278 -0.086914845 1.176018 -0.54689544 0.7284237 0.08770155 -0.28870097 0.0044003287 -0.12606588 0.22693163 -0.46901008 -0.2754052 -0.0060255188 -0.73864824 0.04853949 0.054484814 0.18475842 0.10331588 -0.5455414 0.2895533 0.20728517 0.04428651 0.26392266 0.676914 0.046735663 0.093761615 1.1328954 0.11844956 -0.052219726 -0.018923597 0.33459517 -0.17390646 0.021396343 -0.30117586 -0.10304811 -0.17941745 0.20271769 -0.12455143 0.006983879 -0.4807947 0.30308253 0.0314283
214 -0.036181718 0.052664198 0.11158077 0.568207 0.21339446 0.4508805 -0.47345635 0.28872395 0.43972516 0.2556288 -0.4736394 0.6234185 0.31583974 0.052417107 0.38693666 -0.11622279 -0.015878633 -0.029166395 -0.023847999 0.40904588 0.5785511 0.119353496 -0.049719993 0.093393646 -0.17737661 -0.37564498 0.29671535 0.15522435 0.053025488 -0.44658068 0.07836549 -0.012562561 -0.04638599 0.24757312 0.52285427 0.07770103 0.20971382 0.7653141 -0.0038913619 -0.5187956 0.32188085 -0.2814616 0.0286455 0.5310404 0.33723044 0.040272713 0.40586144 0.041754533 0.31749153 0.17009993 -0.7290131 0.020159867 -0.045275565 0.11065488 -0.14163835 0.057748947 -0.3074503 -0.36936864 -0.0033192057 0.14475417 0.038452744 -0.24113372 -0.2712308 0.2954768 0.21074474 0.78512394 0.16578597 0.61573315 0.15070741 -0.26751685 -0.02209934 0.61200964 0.13495193 0.11032304 0.06169072 -0.80400467 -0.011541973 -0.5006199 -0.44627655 0.32634282 -0.20470871 -0.1829955 0.17697911 -0.164385 -0.28095192 -1.0532131 0.1510501 0.21904086 0.2691422 0.3336579 1.267106 -0.5787334 -0.043290373 -0.32660922 0.48528224 0.5396637 -0.17635974 0.13303855 0.35678217 -0.359635 -0.31120154 0.27233884 0.25909415 -0.44897604 -0.68616253 0.89752245 0.022621017 0.07165039 0.09611875 -0.48892868 -0.15847053 0.06977511 -0.14085907 0.8870716 0.025979012 -0.030484328 -0.48568296 0.25565347 0.08931992 -0.059842717 -0.031176198 0.27017564 -0.2902243 0.18318245 0.44457245 0.047010597 -0.47251952 -0.2353194
913 -0.1732399 -0.09909347 0.23280461 0.0037652862 -0.15194765 0.120787494 0.14814316 0.128067 1.0275865 -0.49668047 -0.45568174 -0.38200378 0.46480045 0.48352215 -0.151752 0.15773913 0.27696475 -0.117178224 -0.9736984 0.037187822 1.2682503 0.06438222 0.17403555 -0.34315428 0.2427816 -0.40084696 0.3528333 -1.1433012 -0.17867494 -0.036879394 -0.09215652 -0.03290765 0.079092585 0.8473766 0.70288897 -0.12373321 0.37554637 0.2682364 0.13052025 -0.5694367 0.109613806 -0.096845366 -0.098464325 1.1907943 0.05212575 0.09230824 -0.111205816 0.07483444 0.01063023 -0.04808318 0.025889901 -0.14423515 -0.34255493 -0.07176162 -0.5225399 -0.23198831 0.42287007 -0.5664698 -0.28012446 0.10766109 -0.5300348 -0.14959803 0.038303204 -0.012565649 -0.68475515 0.41518727 -0.16284437 0.2742287 0.72741795 0.22578065 -0.079383045 0.56159264 0.38055533 -0.103324756 0.035258763 0.09340155 -0.15531275 -0.8173006 -0.059661895 -0.37254846 -0.09380747 0.07126104 -0.43809593 0.038466044 0.29642966 -0.6465981 -0.19721444 -0.28448212 -0.004166152 -0.46365356 0.11136937 -0.13687408 -0.4155954 0.053090267 -0.71235716 -0.081867516 -0.044129625 0.29328042 -0.17654975 0.23781668 -0.3023318 -0.061055895 -0.31991 0.24125457 -0.29676378 0.17270482 -0.07027413 -0.12636515 0.14173357 0.78521633 -0.48155537 -0.09498206 -0.27319324 0.9239027 0.14373323 -0.42333195 -0.37975222 0.14988904 -0.24194266 0.283088 -0.15858722 -0.120196275 -0.24704896 0.4885323 -0.4067558 0.20763466 -0.2683387 -0.22173959
221 0.23119242 0.014133262 0.085016765 0.18403628 -0.51900226 0.02156956 0.37768376 0.29837242 0.69794184 -0.005392633 0.11882574 -0.5641538 0.11842644 -0.1988198 -0.7248455 0.6687527 0.033615492 -0.10700622 -0.5379858 -0.20086831 0.71162575 0.5691543 -0.099546775 -0.024064295 -0.42202416 -0.34328282 -0.020508269 -0.43650648 0.03014482 -0.47959068 0.08650812 -0.20622915 -0.007980408 1.1260649 0.92601144 0.71064925 0.4432508 -0.10289685 -0.2953324 -1.0065471 0.22688386 0.24261706 -0.25284815 0.3992583 0.53423345 0.24310257 -0.3866608 -0.40826938 0.02576638 -0.23570266 0.43444058 0.20866796 -0.24664366 -0.051353417 0.18902706 -0.47377834 0.6890203 -0.505542 0.20487472 -0.20421204 0.34179544 0.13830622 0.30664632 0.19912633 -0.6451739 0.074789815 0.083862044 -0.20616749 0.118942015 -0.3600191 -0.28161648 0.38056988 0.41237 -0.036868833 0.020404 0.39140925 -0.3317906 -0.38745514 -0.14671074 -0.16205488 -0.3363814 0.16841222 -0.0093433615 0.2698057 -0.02371318 -0.08849429 0.49512908 -0.0029277513 0.08573603 -0.43576255 0.17730337 0.5295093 0.63220626 -0.6172423 -0.22847559 0.18962146 -0.29772115 0.23256566 0.2047197 -0.094987586 -0.18631174 0.62470084 0.10689055 0.21560146 -0.73861957 0.108403765 0.03278252 0.17010325 -0.29731482 0.74242103 0.52501035 -0.43722913 0.40203786 0.82819366 0.090606175 -0.42721927 -0.31785527 0.35582423 0.84184694 0.41274494 0.09197842 -0.21660073 0.1189739 0.22446413 -0.24160188 0.016066324 0.35803986 -0.26016912
222 0.23241308 -0.13449296 0.1991792 -0.16533655 -0.6407803 -0.03821145 -0.00961493 -0.119618855 0.5419397 -1.479135 1.4056692 -0.027537791 0.6202629 1.3142103 -1.223642 1.0298612 -0.40604594 0.23262812 0.22543365 0.36286506 0.82853234 -0.4023736 -0.5429347 0.284454 0.013820336 0.61353016 1.2564563 -0.5396554 -0.038729355 0.6949781 0.2156341 -0.8554979 -0.1498865 -0.59773886 -0.016852526 -0.34174934 -0.41709372 0.085325554 0.0062025194 -0.593498 0.22988486 0.06067524 -0.02798492 0.42621267 0.6396764 0.043582987 -0.13026614 0.9379123 -1.0713018 0.020402912 -0.32316235 0.077132456 0.0847628 -0.26464024 0.074101664 0.5602799 0.27683482 -0.87435603 -0.07494343 0.8082897 -0.0016526146 -0.07095734 -0.054111317 0.012118464 -0.6879318 0.97921425 -0.06355339 1.2520567 -0.06884652 -0.8432897 0.2047373 0.060453545 0.121097356 0.049850874 0.15412797 -0.011292584 -0.111208305 -0.22922869 -2.2912142 -0.3089586 -0.27584776 -0.067493126 -0.2754413 -0.101649694 -1.1587291 -0.31387925 0.33355603 0.20477818 0.17412928 -0.6869935 0.120894596 -0.093641154 -0.24412906 0.38234994 -0.0032984077 1.2232821 -0.11373467 1.2199116 -0.10563088 -0.57684463 -0.20772961 0.14565976 1.22912 -0.14730102 -1.3105763 0.94231534 -0.16189587 0.2177602 0.07260556 0.052396126 -0.11104529 0.111727215 1.2371355 -0.2867898 -0.46737483 -0.050906215 -0.14044826 0.8346998 0.550891 -0.02824405 0.42361924 -0.027479293 -0.10046573 0.18004884 -0.8898243 0.28650463 -0.030022189 0.013700239
821 -0.1513323 -0.22133532 0.059678063 -0.38693443 0.6221875 -0.040401086 0.40513307 0.0014941538 -0.40134072 -1.2198023 1.8273622 1.7132151 0.006249226 -0.08402254 0.16131896 0.42081892 0.24629731 -0.09757474 -0.25940284 0.19755058 0.11603191 0.22423394 -0.113862984 0.45506495 -0.8114915 0.28878126 -0.11166182 -2.0070093 0.07057634 0.6600816 0.007378977 -0.15112986 0.22520864 -0.26350015 1.8559252 -0.59202653 0.026217844 0.35094115 -0.33501917 0.028720787 0.18969046 -1.2735566 -1.5226501 0.08838216 -0.023283111 -0.4333151 0.7239949 1.383763 0.04748579 2.0010157 -0.7896811 0.52819747 0.044634465 -0.24402975 0.005917909 0.20561333 0.2226631 0.22959541 -0.05698039 1.9589999 0.16645573 0.0927884 0.7194792 1.1834772 0.62534285 0.88831836 -0.7168991 0.28233016 0.1368761 -0.2638739 0.5860674 -0.02010332 0.2834412 0.78177875 0.6404167 -0.5981116 -0.079103775 -1.1216108 -0.14327769 0.26885784 -0.27393264 -1.7208284 -1.1580327 0.5413035 -0.023037061 -0.091886096 -0.5794609 -0.4446662 0.79304737 -2.1534173 0.09106883 -1.6431012 -0.15789075 0.18805383 -0.8714717 -0.40219888 -0.57382756 0.3798726 -0.3900227 -0.75236094 -0.06502802 -0.00958965 0.35750073 -0.838345 -0.9231432 -0.20733799 -0.5677107 -0.16705364 0.08917654 0.8590224 0.5017652 0.27680096 -0.08054756 0.9822151 -0.06521598 0.23836733 -0.14583962 1.7136436 0.6506633 0.49922636 0.7452216 -0.37505144 -0.15237574 0.6852059 -0.4218358 -0.30335417 -1.3212742 -0.26873985
