2405 128
1770 -0.1874964 0.30429193 0.26698917 0.13292259 0.01679356 0.23930787 0.086686954 -0.019763831 0.038340352 -0.12134272 0.33486268 -0.13519119 0.3864595 -0.0049709873 -0.19562486 -0.25820956 0.06136746 0.87114227 0.06269157 0.17674114 0.0092814565 0.17834163 -0.46899354 0.045380257 0.13505496 0.8049351 -0.3259864 -0.41955757 -0.29797482 0.26953036 0.009124515 0.01569952 0.06872597 0.09794899 -0.24917945 -0.05933407 0.13512155 0.725174 -0.37032038 0.04776942 -0.2357447 0.08542612 -0.14801255 0.18821788 0.18438838 0.044235885 -1.3434045 -0.15672563 0.38684955 -0.2719439 -0.23155189 -0.3112761 -0.49569196 0.027829709 -0.2561717 0.015710888 0.4276733 -0.05328513 -0.13253483 -0.05294605 0.46383235 -0.46946603 -0.2370318 0.4472996 0.12318929 -0.5563008 -0.068620004 -0.0022169764 -0.054478653 0.36289042 0.22317886 -0.49631536 0.0062556276 0.037052006 -0.26801613 1.0028926 0.22568846 -0.014545125 -0.42244557 -0.044566724 -0.1592632 -0.14092678 0.52223957 -0.4075806 0.36681 0.031192677 -0.2428412 -0.2397133 -0.14556727 0.081617884 0.43211803 -0.22834785 -0.23532099 0.021670679 -0.20693971 0.19895922 -0.36149985 -0.074107096 0.12546216 -0.42335838 -0.046951927 -0.14224613 -0.13630615 0.41201413 -0.24756151 -0.10842257 -0.21984802 -0.6881516 -0.41948262 0.6492719 0.2347982 0.09819681 -0.0378251 0.15833847 -0.5272487 -0.19282976 0.46863154 -0.2687636 -0.21077658 -0.1086211 -0.1962941 -0.01913951 -0.11205632 0.039740868 0.19624951 -0.32358852 -0.2129085 0.02668826
899 0.09544604 0.019048812 0.11215035 0.0984245 0.17182049 0.051242158 0.21545443 0.032835577 -0.6533387 -0.23285033 0.6244881 -0.088778794 0.18997453 -0.20003127 0.5251885 0.17246202 0.030856973 0.027086942 -0.089219645 -0.17045616 0.17071937 0.43741518 0.08165907 0.19648173 0.39701152 0.23696038 0.253958 0.14214101 0.10636911 0.62016916 -0.0012470083 0.15052968 0.9503286 -0.050954722 0.4869199 -0.13581799 0.038817413 0.15105142 0.18610168 -0.1842032 -0.18850407 -0.1269175 -0.2093886 0.18999164 -0.17241554 -0.1361356 -1.0695466 -0.20247182 -0.22297673 -0.2514489 0.06315358 0.07106429 -0.39249554 -0.63033986 0.036404554 -0.18821377 0.031966276 -0.24545158 -0.337581 -0.18358296 0.10940992 -0.04457152 0.08581225 -0.075783454 -0.4934561 -0.11112458 -0.33264607 0.08455846 -0.16662844 0.21524973 -0.16861457 0.057854455 -0.101223566 0.34459174 0.54119056 0.36826468 0.3582725 0.19358957 -0.21699257 -0.03187561 0.088663556 0.104833215 0.17869742 -0.2465579 -0.44692612 -0.006594491 -0.2585577 -0.014192558 0.14783762 0.5700712 0.020773578 -0.07958717 -0.19757552 0.4030459 0.35293597 -0.39917442 -0.26287183 0.21992722 0.11793459 0.16037387 0.43632883 -0.17628862 0.03623099 -0.2104981 -1.045828 -0.10242626 -0.1893508 0.15385336 0.2730605 0.36407468 -0.08639115 0.18172444 0.34530532 -0.26765814 0.06619497 0.23106079 0.1820516 -0.71394604 -0.1938786 -0.43705663 -0.11767427 -0.2717447 -0.7906323 -0.35736433 0.39085585 0.24169464 0.36611617 -0.74570984
1254 -0.3507945 -0.59771556 0.17441104 0.27090883 0.1657363 -0.1541919 -0.24413177 -0.32794735 0.40811172 -0.104418226 -0.38085285 -0.10246754 -0.517145 0.14274274 0.26487482 0.19396056 -0.40083873 0.09883244 0.3855934 -0.39435163 -0.13626124 -0.13186699 -0.050103836 0.17264368 -0.4203003 0.06744696 -0.012966651 -0.18696864 -0.28908816 -0.12745507 0.21228515 0.03558089 -0.08620643 -0.47428185 -0.21450976 0.44595623 0.00033365143 0.087414585 0.19418 0.12537037 -0.14856967 -0.0035552378 0.0838611 -0.8186754 -0.23206764 0.14962459 -1.5423707 0.44577107 -0.07696451 0.022124158 -0.6508834 -0.03559386 0.08865843 0.055469785 -0.11912583 0.47928512 0.018875021 -0.22815782 -0.018199809 0.33848116 -0.12622492 0.15574352 0.034503903 1.0469191 -0.21267946 -0.29105836 -0.06785008 0.23708622 -0.41418242 0.17377684 -0.03151662 0.007908454 0.26431486 -0.47198716 0.060791217 -0.1447819 0.4800215 -0.040164586 -0.516897 -0.18178912 0.016931897 0.40817624 -0.066801205 -0.042118963 -0.42733112 -0.22109833 0.44509792 0.32748348 -0.033031996 -0.17384112 0.36028063 -0.07909309 0.23787507 0.72064555 0.41160852 0.08775051 -0.7433252 -0.29207385 -0.08726099 -0.58285666 0.24807855 0.13241453 -0.2069253 0.14751199 -0.75017804 0.14182557 -0.25647444 0.12575606 -0.15979542 1.0035623 0.51510364 -0.41663274 -0.41400993 0.28421885 -0.004273212 0.039800685 -0.2016182 0.36638778 -0.16360588 -0.19895983 0.86322075 -0.379567 0.07895822 -0.048490386 -0.34489134 -0.31666148 -0.2212235 0.34722704
763 -0.074511886 0.37551516 -0.19090918 0.044625334 -0.10736598 0.0039771292 -0.23588867 -0.23100227 0.035828035 -0.35789412 -0.08284317 0.03178937 -0.5416943 0.22314161 -0.060742237 -0.15551332 -0.5341659 0.056100123 0.4738404 -0.667776 -0.44552335 0.82110363 0.039097488 0.14082184 -0.15208669 0.07348027 0.084126145 -0.42209637 0.058019258 0.44933745 0.56952095 0.10567117 0.45116368 -0.15639485 0.12345887 0.3745962 0.27360925 -0.1854161 -0.18956971 -0.2891255 0.30534744 -0.08861831 -0.01403901 -0.046743155 -0.14731058 0.098543055 -0.34520435 -0.03392247 -0.026375536 0.17327864 0.14460689 -0.4438962 -0.08390975 0.5655638 0.28218094 -0.2568771 -0.2934419 0.11735796 0.044570006 0.06952873 0.0935837 0.25888896 -0.1584261 -0.09958647 -0.20518073 -0.310962 0.47181952 0.16220886 0.21427698 -0.054853313 0.35164583 0.48624977 0.36185658 0.029403947 -0.043366324 0.36639127 -0.13262296 -0.5333694 -0.01945237 0.24991241 -0.1978295 0.3359235 -0.28113878 -0.23761128 -0.45498255 -0.22269826 0.020680664 -0.4101335 0.18248603 -0.23286913 0.31046382 -0.22119412 0.44671094 0.049419016 0.34750405 -0.30051434 -1.5017645 0.25850347 -0.33876565 -0.22451621 0.011307152 0.4436224 -0.37210968 -0.08857909 -0.48855752 -0.05277142 -0.55700547 -0.634392 0.29658058 0.76826453 0.25282934 -0.2730142 0.41839904 -0.04565282 0.11569163 0.09028221 0.19558804 -0.2855034 -0.012978168 -0.5118795 0.23282434 0.27884158 -0.33288074 0.36342123 -0.8213274 0.48101345 -0.040925182 0.037694674
1671 -0.7189651 -0.008525074 0.049626723 0.09876508 0.27881822 0.080321535 0.058882814 0.18908498 -0.067434624 0.12696944 0.5636154 -0.1055491 -0.10902041 -0.0006535887 -0.03508126 -0.2327483 -0.37568858 -0.4878141 0.11505226 -0.09209755 -0.050389476 2.2717519 -0.0077694436 -0.3692288 -0.089573085 0.012410772 0.51087606 0.12841803 0.088904954 -0.1103262 0.6025357 -0.13881148 0.86864823 -0.3074271 -0.1565159 0.5653225 -0.015283457 -0.20288227 0.009095358 -0.04667569 -0.036030326 -0.16998275 0.0005333486 -0.39821178 0.039746888 0.0018081188 -1.087307 -0.12507778 0.42183858 -0.36167717 -0.1539042 -0.21291348 -0.2984589 -0.11113698 0.021758456 0.24652617 0.2576682 -0.1576305 -0.0183918 -0.020715805 0.023220886 -0.08330367 0.053326234 -0.3778016 -0.16946372 -0.3895026 0.05540428 0.06879381 -0.21310662 0.22477849 -0.20413494 -1.5925863 0.07560822 -0.38486972 0.26003066 -0.09890551 -0.056777183 -0.32954633 -0.12105731 -0.14286233 -0.36356807 -0.042666066 -0.064903855 0.011888184 -0.114440575 0.30500498 -0.020120274 0.004886698 -0.29171 0.27118945 -0.13598877 -0.089879885 0.07805205 -0.28812304 0.057240713 -0.13857381 0.03682399 -0.08550259 0.27834588 0.3873976 0.10905745 0.24161784 0.31706506 -0.08936579 -0.2410614 -0.1056758 -0.8306329 0.36893854 0.11243534 0.7080843 -0.06866729 0.16149716 -0.22827493 -0.1728365 -0.18027762 -0.02204726 -0.04796886 -0.1530576 -0.2468123 -0.3745995 0.004923851 0.02573821 0.12721102 0.17517291 0.13361305 -0.27128884 0.09688681 0.12903707
1167 0.16272265 -0.24017702 0.021103254 -0.29704043 -0.3356413 -0.043314315 0.22121471 0.14769664 -0.21314697 0.29097337 0.2195695 -0.3216777 -0.035979018 -0.20789972 -0.39182022 -0.22123902 0.058667377 0.1341253 0.03501743 -0.4184838 0.018390728 0.29914266 0.2756114 -0.01895907 0.17870268 -0.20759949 -0.11241453 0.2887046 -0.0050636865 0.12427683 0.43647885 0.11009795 -0.26167533 -0.051356 0.2370934 0.029139398 -0.24804193 0.42042732 -0.16481163 0.5746708 -0.24961647 0.00664787 0.1343841 -0.2864455 0.2746525 -0.11835714 -0.8027712 0.17819126 0.42628852 0.16748556 0.29934335 -0.2803786 -0.24469732 -0.048019636 0.044666957 -0.16485165 0.43320087 0.20834363 -0.06164637 -0.39165068 -0.15350999 0.04726108 0.14764512 0.27877071 0.20012242 0.25498778 -0.21484014 -0.14482863 0.3999068 -0.2827877 0.121884376 0.04095516 -0.2820458 0.15050368 -0.23186661 -0.0062775603 0.124172464 -0.3308548 -0.15262829 0.083740324 0.25694007 -0.2160952 0.13843481 0.029924141 -0.2547602 -0.23187548 0.08000317 0.46855015 -0.79111665 0.04162921 1.468796 -0.14974599 0.21231724 -0.5758625 -0.25092748 0.055411164 -0.2021236 -0.07944865 -0.7236262 -0.036667734 0.14602926 0.2728449 0.01991939 0.12516625 -1.086997 0.13905391 -0.03737799 -0.46506155 0.108024634 1.4599087 0.39862528 0.3390208 -0.043157157 -0.056592435 0.40796122 0.02171822 -0.28238297 0.22838977 0.02347718 0.061547745 0.3969546 -0.4253983 -0.077179834 -0.3045656 -0.39378083 0.3528717 0.18309443 0.18764356
1655 -0.431119 0.089606486 0.37316787 -0.64938974 0.059921384 -0.2014801 -0.33621323 -0.099141 -0.55930996 -0.569273 0.117713735 0.20343278 -0.24631241 0.25252336 -0.23634593 0.12026183 0.03999368 -0.094988674 -0.31104678 0.105476245 -2.009187 0.3868272 -0.5904273 -0.17787562 -0.477081 -0.07755189 0.107539654 -0.3615132 0.48772296 -0.0016345412 -0.19813558 0.12999696 0.4069388 0.2766475 -0.67823875 -0.184974 0.37652758 -0.07851316 -0.5293717 -0.055577185 -0.24136552 0.23638469 0.15737645 0.0909048 -0.29715747 -0.34287202 -1.0843235 -0.48499522 -0.0966384 -0.36945894 -0.23753236 -0.08421861 0.07876917 -0.1402333 -0.2778881 -0.0020213823 -0.18693158 -0.08365767 0.25057203 -0.6002255 0.086220585 -0.048103455 -0.06990296 2.4078112 0.04540935 -0.17933136 -0.47682044 0.36609954 0.05414535 0.07180831 -0.03122651 -1.1554365 -0.32383868 -0.4146734 -0.28918236 -0.17860153 0.30550957 -0.07251172 -0.38028327 0.18574014 -0.06417962 -0.101828694 0.22667342 -0.4679972 0.2712617 0.047795832 -0.119144104 0.22509624 0.3216185 0.1664089 0.092655286 -0.21543027 0.058665507 0.5028399 -0.06353584 0.047535166 0.27153313 -0.18175419 0.18959409 -0.4522066 -0.6633119 0.0064608315 -0.09734605 0.48456106 0.00675663 0.064368494 0.35556015 0.21784723 0.16377032 1.4991034 0.16492876 0.024205174 0.38757616 0.057043903 0.11031638 0.23158664 0.06979295 0.058898974 -0.70369434 -0.33966148 -0.045890305 0.45507315 0.3164347 0.12716478 -0.2895056 0.5803018 0.2928274 0.4081067
1395 0.1770761 0.24271922 -0.10548747 0.51165223 -0.081823744 0.083462365 -0.2849047 0.034290675 0.61374104 -0.42524025 0.39265627 -0.21766745 0.23437825 -0.28506938 0.014398497 -0.21711035 0.040116344 0.11336363 -0.19834684 -0.3922774 -0.9226871 0.054053355 -0.11264584 0.35134637 -0.10183366 0.31369168 -0.29126018 -0.1350306 -0.044551503 0.28459954 -0.24761745 -0.17663187 -0.39723152 0.36359042 -0.7386517 0.33200142 0.62892056 0.38550964 -0.06536412 0.36034006 -0.064432874 0.11249111 -0.09659974 0.111459404 0.34210756 0.4696969 -0.41359487 0.045607954 0.11865861 0.050451834 -0.5224222 -0.35692078 -0.3075741 -0.13838685 0.5048052 0.06720822 -0.026032375 0.0860579 -0.06122145 -0.36892608 -0.08574995 -0.05514427 -0.07058666 0.5050864 0.21875925 0.29689336 -0.10527924 0.31778818 0.008478987 0.19265191 0.12617093 -0.115301155 0.109209344 -0.37496626 -0.34977886 -0.19169563 0.2756161 0.23648405 0.026791872 -0.165728 0.6229359 0.045681234 0.37013847 -0.3365869 0.5058231 -0.012317256 0.09988907 -0.20596264 -0.5424512 0.07664339 1.209423 -0.28290293 0.3656089 -0.17233674 0.4886609 0.26079607 -0.9695994 0.26212907 -0.193355 -0.06973614 -0.10229127 0.48468897 0.1875608 -0.38906735 -0.40018767 -0.108243205 0.027405951 0.20033719 0.10801925 0.07761562 0.60478365 0.47806367 0.019356327 -0.008309523 -0.8295795 -0.7832125 0.13778731 -0.6720415 -0.5367067 0.036292 0.27172136 -0.58422756 0.38553363 -0.11643918 -0.30614838 -0.069652624 0.09770782 -0.250315
681 -0.4523447 -0.25022435 0.0838082 0.041430835 -0.038979117 0.09627532 -0.045019086 0.38728547 -0.34220773 0.03161811 0.2856242 0.0056297034 -0.13540328 -0.21389697 0.029863618 -0.12257003 -0.0847581 0.07261114 0.09487586 -0.46554485 0.096954286 0.93142396 0.18300669 -0.42199734 -0.29568416 0.1789171 -0.33788946 0.15062484 -0.085449144 -0.21860124 0.025805244 -0.11771855 -0.24828911 0.060548395 -0.07075108 0.03777763 0.1712688 -0.3439172 0.3464004 0.26924127 -0.05743603 0.13845271 0.24727981 -0.21604502 -0.41151553 0.08298131 -1.0414615 -0.027174363 0.22179675 0.06707529 0.25371522 -0.081142135 -0.34669665 0.08663702 0.44768178 -0.32221472 -0.5825514 0.0847168 -0.25039813 0.34238034 0.30056712 -0.14572996 0.32865497 -0.07794038 0.21432582 0.24085829 0.07091129 -0.19508123 -0.30971718 0.20193097 -0.13697276 0.32717204 0.18643443 -0.032720104 -0.17715152 0.11706551 0.5320194 0.71396536 0.23552987 0.7023486 -0.021575416 -0.21072409 0.41276783 -0.51701236 0.16188096 -0.23863594 0.55192935 0.17007647 0.36820555 -0.023455663 0.733699 -0.40454012 -0.2654668 0.165774 0.2949723 -0.24060367 -1.3355061 -0.119210504 0.27367422 -0.17867792 0.16995476 0.22942878 -0.15636186 -0.13013837 -0.29610544 -0.17577319 0.26012504 0.1320796 -0.023194445 0.033028163 0.31525075 -0.07210817 -0.30333892 -0.21184123 0.41643634 0.16049427 -0.35125756 -0.1977615 0.13303976 -0.12364763 0.2727202 -0.03768113 0.3212571 0.32586733 -0.34399983 -0.10494988 -0.13410418 0.54593366
2283 0.3441968 -0.35672995 -0.1880949 0.038938146 0.15002924 0.13649239 1.0985329 -0.3121621 0.109079026 0.38314128 0.07820839 0.12554632 0.45989665 -0.1509045 -0.022437617 0.14047858 0.40168002 0.285672 0.01280292 -0.30554494 -0.5571886 0.7899634 -0.05069168 -0.07686327 -0.05122392 -0.07171394 -0.13157524 0.19710149 -0.0936737 -0.10634098 -0.59525913 0.21437678 0.701652 0.37347767 0.095873155 0.04348384 -0.13662395 -0.37576252 0.38620335 -0.56565803 0.3275811 -0.16127826 0.3187918 -0.28151017 -0.33920947 -0.12712027 -1.6336691 -0.4426566 0.31400305 -0.19947919 0.10356922 -0.24537143 0.17281023 -0.316074 0.37332278 -0.5344696 -0.21716186 0.06045214 0.14277849 0.25169444 -0.37707466 -0.23997945 -0.054338813 0.5464622 -0.4797342 0.061926145 -0.058597036 -0.42328867 0.40172634 -0.018067257 -0.09478886 -0.14854637 0.6140659 -0.12878221 0.10015986 0.27318913 0.056920853 0.2908524 0.1588248 -0.052758474 -0.15536703 -0.34553128 0.20888595 0.12395132 0.09853616 -0.19636515 0.022161115 -0.07823758 0.25826353 -0.21036611 -0.27995333 0.23615885 -0.10940551 0.22927274 0.011409405 0.07139893 -0.24960831 -0.3066725 0.3221082 0.19209635 0.413216 0.13163976 -0.18661857 -0.34787086 0.3157753 0.104752496 0.24737433 -0.0452878 -0.48946813 0.50903875 -0.11975589 0.031874787 -0.21492757 0.20575401 -0.07871152 -0.46990877 0.13468212 -0.20219503 -0.43751863 0.14112306 -0.13678214 -0.60958177 -0.22331296 0.0118795205 0.36196032 -0.45233092 0.29185823 -0.14789595
728 -0.31874803 0.04362949 -0.5164704 -0.12774085 -0.091831125 -0.11477449 -0.36355117 0.087442905 0.023942703 -0.09184053 0.38275683 0.10293755 0.42275426 0.15588506 0.21945706 -0.30886292 -0.4315251 0.26396585 0.07832772 -0.10417384 -0.4577369 -0.10070884 -0.11025663 0.18912032 0.020982282 -0.02985874 0.3844559 0.74235505 0.15366103 0.32391047 -0.20797896 -0.17473891 0.8188995 0.048192807 0.13163507 -0.036573347 0.039648477 -0.17899881 -0.31579143 -0.12786761 0.043866504 -0.30031466 -0.43550748 0.08955192 -0.16405101 -0.12797542 -1.1013739 -0.079444304 0.6303714 -0.22599955 -0.17444709 -0.12866674 -1.2393647 0.08254344 0.72182107 -0.26735365 0.050847054 0.25912377 0.026826844 -0.100799516 0.014726451 -0.2456588 -0.030193 -0.09846013 -0.3799758 0.25059035 0.12848665 -0.34418526 0.37024412 -0.10060139 0.078587115 0.13478856 0.09227871 0.35286644 0.25553882 -0.38437808 -0.065285526 -0.031220905 -0.15371703 -0.2547386 -0.30413905 0.061941803 -0.36957884 0.1257976 0.052845698 0.029012274 -0.4202859 -0.1281054 -0.121579506 0.14084204 0.3281073 0.17567132 -0.0006068337 -0.09520544 -0.20125456 0.062029835 -0.22637391 -0.06345221 -0.4369174 0.3744774 0.25150326 -0.21019663 -0.4437032 -0.06598492 0.008717805 -0.25304377 0.36519736 0.44324443 -0.0038725527 1.2454643 0.027216684 0.009171705 0.096844554 0.31435025 -0.5754762 -0.20203711 -0.14703278 -0.4372707 0.13833214 -0.60556406 -0.2981894 -0.1354472 0.5476821 -0.02181377 -0.25967318 0.27771625 -0.6572612 0.021612491
1586 -0.3883864 0.22945425 0.5910392 -0.10681234 0.8041944 -0.089875326 -0.099458374 0.5804996 0.06588451 -0.08820245 0.50489205 0.047318228 0.17683697 -0.015992543 -0.17566258 -0.18330425 0.27557427 0.27060556 -0.03916171 -0.21569583 -0.11259791 0.7656766 0.10679074 -0.5538572 0.22535783 0.18416369 0.70275587 0.35067838 0.42912844 -0.08932848 0.05356167 -0.0010946887 -0.1021919 0.26976445 -0.18762106 -0.20870212 -0.21862227 0.023419663 -0.26833516 0.050916508 0.13252012 -0.06501659 0.5210877 -0.14823347 0.42302984 -0.77401525 -0.7367648 0.2082369 -0.4962906 -0.20241615 0.0115423035 -0.02721543 -1.3496646 -0.4289035 -0.042526707 0.2428143 -0.3010365 -0.45741326 0.16135801 -0.110985324 0.079773195 0.57907134 -0.0726365 0.3357251 0.12281642 0.22468397 -0.56910133 0.3891122 -0.16266665 0.08815668 -0.08597148 -0.30462918 -0.40446645 0.21807668 -0.2697244 0.14756434 -0.15224311 0.12444111 -0.3049788 0.036174163 -0.042156816 -0.20943677 0.08940882 -0.74044216 0.3076542 -0.3063197 -0.20201226 0.4070495 0.18018453 -0.018560937 0.5911914 0.24292459 0.36129102 0.33620885 -0.3619249 -0.01068379 -0.54334444 -0.04636773 -0.37520176 -0.7615047 -0.05896648 0.23985608 -0.122088425 0.10822838 0.41431525 -0.34933653 -0.19488263 -0.32012248 0.20487621 0.6076879 0.083741896 0.12290262 0.124008924 -0.5336136 -0.30680987 0.55274534 -0.4964935 -0.7473979 -0.5204794 -0.20766112 -0.12327592 0.006107011 0.035862967 0.25919995 -0.012279271 0.20980926 0.2880243 0.25249806
843 -0.28495502 -0.334289 -0.2919137 0.2787309 -0.13697863 -0.09045364 0.3516835 0.36735737 0.23674555 0.4220412 0.024445679 0.32329705 -0.42782745 0.9946369 1.9903882 0.69985765 0.2874957 2.9746091 0.26238516 -0.47959617 0.18254343 1.7619258 0.13633327 -0.27247867 0.13387875 -0.23910512 0.18011384 0.3513515 -0.16912685 -0.27320427 0.56081104 0.41444045 2.1067545 0.05033024 -0.19568114 -0.29793522 0.15304205 0.10073582 -0.32383683 0.19946006 0.3440362 -0.39017427 0.37299097 -0.33144248 -0.35096148 0.22504054 -0.10164018 0.27100095 -1.3579079 0.36799315 -0.28500214 0.3100029 -0.30205494 0.19721362 1.2179557 0.3179655 -0.2314008 0.19521566 -0.57743174 0.32398635 -0.2140206 0.4348048 0.25619745 0.26658642 -0.28295428 0.062999696 0.26704934 0.22190876 0.41448653 -0.40343973 0.16755216 -3.2180586 0.394478 -0.27833456 0.21959718 -0.67163336 0.11321651 -0.29045796 0.4809066 -0.09992444 -0.25407782 0.58762306 0.06825689 0.27078217 0.3774947 0.26653326 0.13235974 -0.25839898 -2.9416015 -1.2256889 2.0389934 -1.8760906 -0.9993833 1.8356916 -0.110958874 -0.09435512 -0.32132095 0.15935157 0.27937636 0.18085642 0.25872478 0.26835302 0.23752543 -0.035415586 -1.0241964 -0.28724948 -0.25369924 -0.23819575 -1.5033096 0.94128275 0.07022904 0.1716433 0.2278026 0.28300977 0.24207045 -0.28510135 0.26983407 -0.6754885 0.3246929 0.2227446 -0.4648865 -0.39522368 -0.23623607 -0.3926047 -2.3561807 -0.28248614 -0.1955627 0.13782379
303 0.14876662 0.099430986 0.2744645 0.06332256 0.25706866 0.2034977 0.1110482 0.36469924 0.32440785 -0.022368733 -0.26578912 0.2988762 0.06162041 -0.15782708 -0.17806795 0.554246 0.010101452 0.1120412 0.17484286 0.54452527 -0.05010769 1.1345686 0.14746158 0.40160012 0.07799898 -0.15242162 -0.08771189 0.21505946 0.0019767736 -0.14521505 0.20092511 -0.10728115 0.31786138 -0.08982591 0.015965305 0.19338036 0.014283351 0.31364617 -0.18463475 -0.1916161 0.03331003 -0.08637041 -0.186984 -0.14037503 -0.3587743 -0.30843803 -0.9346467 -0.026428068 0.328549 -0.34958142 -0.0016020138 0.66408205 -0.41522166 -0.12216486 0.08540887 -0.071930915 0.18408664 -0.04036143 -0.14643365 -0.16747704 -0.04375365 0.11829966 0.19562566 0.3286408 -0.42296806 0.19774263 0.032711606 -0.61045796 -0.43226537 -0.40875834 -0.08771004 -1.3195641 0.09586852 -0.47319603 -0.5366365 -0.60461575 -0.06623194 0.39192843 -0.2093955 0.038012657 -0.14449368 -0.4621291 -0.2548562 0.5198437 -0.061199337 0.1004764 -0.33438277 -0.04273419 -0.2605595 0.26775542 0.20068212 -0.11122609 0.33728006 0.18748116 0.050884847 -0.0069479 0.5115147 -0.19089508 0.20730406 -0.3201795 0.004728102 0.25691742 -0.3467062 0.09980819 -0.72779316 -0.35768595 -0.16918364 0.017364033 -0.45229113 0.03709768 0.27102765 -0.3643877 -0.0474317 0.055143118 0.3881351 0.3783087 0.072196655 -0.4002882 -0.13119505 0.18088563 0.18758354 0.12703341 0.48954475 -0.03816887 0.24434589 0.017736964 0.040201496 0.15916242
2031 0.14896028 0.2858958 -0.65523195 0.09901633 0.016653445 0.063785076 0.56017613 0.30280837 0.013814731 -0.19870584 0.2524866 -0.16480891 -0.18937466 0.040260606 -0.16038762 0.15977146 0.061673637 0.08528795 -0.0718231 -0.19828284 0.007925086 0.79230386 -0.13455817 -0.21234101 -0.0014811886 -0.26572475 0.1439846 0.42795122 -0.555979 -0.38165122 -0.16727066 -0.172754 0.04393766 0.32895184 -0.3385414 0.00081131514 0.23167607 -0.18913914 -0.21489246 -0.019133357 0.51957595 0.21574412 -0.09909635 -0.35760114 0.16263458 0.50127137 -0.8247234 0.1576389 0.33286163 -0.12958148 -0.01901867 -0.36787286 0.31417248 0.72913986 0.028178602 -0.6972253 -0.15982279 0.0402691 -0.26060396 -0.017612789 0.36886603 -0.0831258 0.32391623 0.9532906 -0.036344364 0.27198434 -0.17243683 0.08035254 -0.026644273 0.04693997 -0.22719416 -0.0034899928 -0.68366575 -0.15609713 -0.0252506 0.054188903 -0.104559354 -0.33835766 -0.43401405 0.07095316 -0.33384746 0.20190637 0.21849197 -0.026221648 -0.2900198 -0.15152164 0.011991755 0.2585312 -0.90347326 -0.12568411 1.041807 0.20861143 -0.06791531 -0.23389941 -0.1655055 -0.012079234 0.2600595 -0.16781044 -0.42843688 -0.2180561 0.045019086 0.032620154 0.20686594 -0.07410573 -0.49112713 0.025943162 0.35188198 0.03732278 0.075064555 1.0702313 0.09913034 0.04730105 -0.06437831 0.17593716 -0.19997789 -0.6678962 -0.053807948 -0.32798073 0.24262157 0.28569052 0.21693057 -0.11339165 0.07276146 0.16211385 0.0023187818 0.05041733 -0.047592185 0.2529724
812 0.115099624 -0.0013267461 0.3920914 0.68703485 -0.23427324 0.070202835 0.07742947 -0.5557479 -0.30479902 -0.6483508 0.38322744 0.051983614 0.20279756 0.14446057 -0.15891449 0.1091401 0.072179474 -0.15247467 0.013494882 0.024170078 -0.54684955 0.6234246 -0.038067605 -0.051609024 0.13016124 -0.61728644 -0.5135595 -0.27357307 0.1106118 0.030525925 -0.08420296 -0.04621743 -0.24892949 -0.07606954 0.05030563 0.1601547 -0.08706878 -0.25075877 -0.22588176 0.18175897 0.1175646 -0.11041254 -0.1679298 -0.26523447 0.24045758 0.05427646 -0.27114603 0.35284033 0.2642159 -0.16544613 -0.48230478 0.34593743 -0.0755528 -0.24540092 0.03861103 0.053244703 0.08758383 -0.09162676 -0.04366955 0.13459916 0.093950614 0.04550862 0.057479415 0.12737128 -0.0734507 0.08854993 -0.05818687 -0.32876936 -0.3987833 -0.05776519 -0.3263682 -0.40959165 -0.09202148 -0.07261613 0.089357205 0.26814035 0.32232592 -0.31284246 0.27205187 -0.12724972 -0.028419998 0.141261 0.15165107 -0.469244 0.1501769 -0.24888681 -0.48865736 0.074733905 0.28985766 -0.0032432023 0.22763646 -0.8528263 0.061084837 0.35268387 -0.1898612 -0.07252159 -1.1514801 -0.01605369 0.20680626 0.14209698 0.02712675 0.20575725 0.3409948 -0.49037513 0.12256069 0.14511907 0.17460276 0.005251673 -0.3251187 1.2973857 0.2319924 -0.58711493 0.02644715 -0.250935 0.03465415 0.13559772 0.09618675 -1.0542058 0.12949906 0.45080507 -0.15525083 -0.43248203 -0.03291764 0.3358488 -0.43801862 -0.03836224 0.18752812 0.6316884
1553 0.116107054 -0.08796145 -0.59089404 -0.53195375 -0.080887996 0.19075169 0.0821379 0.15454759 -0.079196796 -0.37832758 -0.15497947 0.23024614 0.10038868 -0.28707573 0.127198 -0.03936598 -0.16693607 0.032587126 -0.1599141 0.1157044 -0.87290287 0.037192225 -0.014810622 -0.23654228 0.35972467 0.03416336 0.24777819 -0.11551855 -0.15710635 -0.31017682 -0.28537714 0.118998766 0.071709834 0.08641827 0.14771582 -0.045067906 -0.07023033 0.024061562 0.08072255 -0.23057188 0.31255218 0.3055191 0.06495765 -0.16206096 0.019351367 1.1008286 -2.3663049 -0.16852139 -0.26252958 -0.07111968 -0.013828195 -0.2934531 -0.09258925 0.3643999 0.05244997 -0.17272973 0.16676998 0.1025441 0.5894242 0.26486441 -0.062332477 0.26077244 -0.07908685 -0.5344066 0.17161785 -0.123354904 -0.13329592 0.086817086 0.07703015 -0.11811421 0.29153982 -1.3294923 -0.27887827 -0.002497911 0.41189617 0.42819464 -0.22645852 -0.00738439 0.09779734 -0.07157531 0.04729435 -0.12023693 0.103205144 0.22920476 0.36904895 -0.07642701 0.22081017 -0.15728055 -0.28649074 -0.9827462 -0.50473577 -0.10234356 0.2445603 0.13105151 -0.042096216 -0.21953551 -0.95818466 0.15133373 0.1467183 0.056496866 -0.13885982 0.016134914 -0.26258007 -0.18632971 0.15577349 0.17519103 0.18030576 -0.33542597 -0.20314991 2.0849874 0.010224392 -0.22823545 0.088548884 0.13630949 0.12815042 -0.3983851 0.13436535 -0.3049794 -0.11598636 -0.39817676 0.18382455 -0.070443176 0.39951253 0.22224614 0.37010986 -0.105578005 -0.107263856 0.08388252
1327 -0.10731995 0.09810298 -0.19393645 0.31621736 -0.3311643 -0.0331498 0.2347558 -0.1431299 -0.46513382 -0.18347824 0.009448258 -0.14751168 -0.25162053 0.0059044617 0.6403872 0.122862026 -0.16312276 -0.39233273 0.16663523 -0.081771724 -0.048818342 0.016495684 -0.12009319 -0.10791436 -0.08440845 0.07096563 0.21450375 0.6663658 0.10023709 0.24873221 -0.33049747 -0.28274846 0.6400655 0.100816265 0.2594121 0.13349888 0.044389598 0.09237105 0.23991266 -0.17488684 -0.45621988 0.070169844 -0.44262233 0.06723081 0.21460451 -0.2962811 -1.0481211 -0.37567437 -0.09812558 0.23435593 -0.17250831 0.56201684 -0.75654936 0.39671525 0.31292287 -0.14334078 0.100427166 0.124909855 0.15115418 -0.02424731 -0.19195078 -0.2011029 -0.11146375 -0.08599429 -0.65948087 -0.033808112 -0.15368813 -0.39058304 -0.012527918 0.15485908 -0.35960478 0.20183747 -0.15436254 -0.3083918 0.27063844 0.52292204 0.14063135 -0.045987055 0.4364279 0.13300885 -0.081812434 0.14016494 -0.02793189 -0.036676604 -0.0012615899 0.4863795 -0.21510012 -0.18770893 0.683348 0.13428684 -0.39312452 -0.10798806 0.020828087 0.07506859 -0.075652994 0.15618265 -0.13238744 -0.08215703 -0.49242008 0.29481623 0.4078002 0.44280657 0.3897104 0.13390248 -1.1207857 -0.7128402 -0.12973437 -0.096481755 0.20169863 0.53311485 -0.19747746 -0.33580688 -0.32549927 -0.07599211 0.114856675 -0.10146093 -0.12840992 -0.29430446 -0.075364836 -0.14943814 0.18053824 0.07005782 -0.4772964 -0.24577191 -0.091002695 0.059621308 -0.2897719 -0.27184445
468 0.11116505 -0.21073852 -0.14145067 0.009146124 0.25055295 0.121132866 0.0556124 -0.13172168 -0.29009643 -0.16074221 -0.23920096 -0.09110275 -0.3313985 -0.63755506 1.4437839 -0.3994543 0.045276403 -0.36699894 -0.014812092 0.061139908 -0.28962708 1.2932886 0.40662333 0.08360487 -0.5386227 0.20430073 -0.022026787 0.4531806 0.4052956 0.042790744 0.9688131 -0.1104254 0.05838543 0.73147523 0.18429947 -0.2288646 0.11807491 -0.053536523 -0.36444303 -0.077872485 -0.14577015 -0.27134135 -0.12878773 -0.21924458 -0.44205528 -0.49195945 -1.518271 -0.24218471 0.516875 0.0332492 0.14892745 0.44340885 -0.608563 -0.22120677 0.28344128 -0.052614152 0.18829812 0.10513441 -0.047508996 -0.08518682 0.18826517 -0.13412538 -0.6411568 0.30800086 -0.084705 0.086985596 0.08025613 -0.5542906 -0.13213576 0.077025734 -0.0058223135 -1.4547391 -0.011899367 0.8177666 0.40779194 -0.05534957 0.10834555 -0.091625325 -0.04603018 -0.41495356 -0.043951087 -0.25962892 0.024614817 -0.112295 -0.08295695 0.12391551 0.16170818 0.2936978 -0.3296315 -0.007369151 0.15199493 -0.3231958 0.072689906 0.22595623 -0.836262 -0.21559739 -0.24577625 -0.439018 0.06246873 0.012611083 0.39748323 -0.200521 -0.2662245 0.21940687 -0.02742572 -0.09358254 -0.27478358 0.42861003 -0.08596079 -0.003506862 0.05548922 0.11259265 -0.083775386 -0.1415447 0.055171352 -0.37737656 -0.009540802 -1.096515 -0.14724162 -0.09768147 -0.29835024 -0.028094767 0.5574519 -0.15288883 0.1516825 -0.14123057 -0.039545536 0.034128435
1582 -0.19282688 0.3691729 0.058477685 0.04459834 -0.08443297 -0.7663843 -0.09683845 0.43155375 -0.38357693 -0.43297127 0.077338174 0.37257373 0.13580929 -0.31321234 0.023411619 -0.068323374 -0.1395644 0.48686817 -0.5773554 0.43221757 -1.2004725 0.43025184 -0.3053152 0.8322484 0.094511 -0.29456356 0.1746612 0.116437756 0.34928098 0.02454985 0.0003182222 -0.029572563 0.3636441 -0.21602066 0.061987624 0.10414655 -0.40207544 -0.038416676 -0.11854276 -0.2693438 0.006319304 -0.2414544 0.08981696 -0.42620328 0.15772474 -0.6243505 -0.6436786 0.14401166 0.47933573 -0.104677066 -0.089541376 -0.07735722 0.17527944 0.020839853 0.29194534 -0.63263375 0.10038892 0.19048505 -0.34281382 -0.14029324 -0.50856566 0.114395194 -0.048297733 0.48695862 0.46128178 0.021917492 0.12510282 -0.094021834 0.3432135 -0.13394195 0.15927441 -0.49673167 0.37623596 -0.007790696 -0.008819017 0.56549776 0.13572106 0.12802482 -0.034454547 -0.24012259 -0.11917914 -0.09001508 0.3992831 -0.39021334 0.30610344 -0.04877516 0.1828144 0.14657651 -0.15595712 -0.1550207 1.1773839 -0.10150617 -0.14156027 0.3244778 0.25813505 -0.16853817 0.11857225 0.44586036 -0.31802484 -0.35510996 0.26651987 -0.4637263 -0.20175141 -0.25668135 0.08148649 0.23441535 0.08498782 0.3187453 -0.39301816 0.5562618 0.14830022 0.18844765 -0.37166154 0.23792742 0.10990404 0.2994967 -0.12277544 0.055078585 0.41458115 -0.7940862 -0.1329963 0.3458757 0.25920877 -0.5633131 -0.06159064 0.21064657 0.08743094 0.40565854
912 0.20438606 0.0033475077 -0.04312533 0.14924265 0.07506498 -0.14604694 0.25961223 -0.29190254 0.29575843 0.051645495 0.18726203 -0.047507074 -0.1653796 0.062273085 0.4048617 -0.3209402 0.10626384 -0.32884747 -0.17044082 -0.13802916 -0.15375927 -0.4037588 -0.19762121 0.028176477 0.28635547 0.07784426 -0.23346537 0.23083404 0.2198571 0.09752051 0.47119218 0.24342094 0.18969303 0.17208426 -0.14476302 0.055845067 0.31502953 0.2163308 -0.18443619 -0.00044559303 -0.080406204 -0.10002233 0.10517577 0.4523752 0.3854353 0.039716184 -0.6762628 -0.18581758 0.445 -0.15517163 -0.4236496 -0.27418426 -0.44487116 0.37373695 0.31107646 0.46183932 0.38508117 0.15809557 -0.09990132 0.85046 -0.28453517 0.014968024 -0.2728937 0.7911129 -0.03752779 -0.025763135 -0.2720533 0.034018334 0.1915262 -0.05540955 0.21032484 -0.28622282 0.39748797 0.3256537 0.35951674 -0.24027462 0.055961065 -0.49401727 0.033243503 0.24266508 -0.1748254 -0.0028216776 0.54996634 0.1187165 0.044733133 -0.102413416 0.21583158 0.04853345 0.07624707 -0.09870751 0.58112305 -0.40474787 -0.049414806 0.3350057 0.02661315 0.076844975 0.07385487 -0.056369334 0.5795294 -0.47885257 -0.16079438 0.16616996 -0.5730318 -0.30463406 -0.837414 0.17554381 0.17094135 0.008700627 0.14081356 0.41879818 -0.0065946304 0.099974796 -0.42650548 0.15762334 0.083972044 -0.052395936 -0.29470053 0.24498403 0.04582881 0.47146556 0.21121821 -0.10581042 0.3841164 0.04814405 0.4113987 0.014259157 0.073304735 -0.7458628
2076 -0.11049468 -0.034759823 -0.23221007 -0.22312562 -0.18641827 0.19055966 0.15842038 0.14819683 -0.38913512 0.072768405 0.8591161 -0.1681483 0.11437983 0.06696439 -0.0076310933 -0.0028632132 -0.09167681 -0.3613284 0.037022095 0.4014589 0.26341105 -0.23747858 -0.035638735 0.099481665 0.07147415 -0.6767035 -0.24025221 0.070162915 -0.10444053 0.339171 0.6064213 0.092153326 -0.52486736 -0.42063358 -0.22237931 -0.11185812 0.21014382 0.12832257 0.4868813 -0.11742722 0.3935101 0.050302476 0.06675564 0.011880266 0.051630765 -0.30785793 -0.7907701 0.37904537 0.57333845 -0.087558046 0.18800984 -0.08405346 -0.41073534 -0.34630707 0.10391929 0.01059082 0.5870146 0.11163009 0.14553699 0.09894577 -0.44593272 0.32009497 -0.34788188 0.98299015 0.3602098 0.009306518 0.1338061 -0.16539814 0.31119657 0.04533621 -0.09639848 -1.100027 -0.017824791 0.24748006 -0.10021257 -0.26586634 0.3495496 -0.08802322 -0.085151665 -0.10782956 0.86564034 -0.54928935 -0.051720608 -0.05855306 -0.43347517 -0.099312775 -0.008832259 0.39871466 -0.14850363 -0.21180893 0.6108905 -0.28082237 -0.37957308 -0.4855951 -0.3381018 -0.10233827 -0.10839563 -0.227117 0.2742198 0.101738565 0.27067146 -0.1461616 -0.04844188 -0.14124018 -0.41794568 -0.20488305 -0.056402143 -0.07374382 0.16358194 0.8776843 -0.27921832 -0.18804543 -0.23545362 -0.27547863 -0.16550544 -0.10305939 -0.8556826 -0.75094855 -0.062001903 0.7704041 0.0051713665 0.14114244 -0.071551785 0.01447254 0.13203983 0.0988839 -0.1278955 -0.20639533
1724 -0.1596339 -0.17019248 0.31217134 -0.107664056 0.12713253 0.0676167 0.4063803 -0.5991027 -0.15265355 -0.08098133 0.55888206 0.0034921013 0.07471186 0.09575313 -0.022330286 -0.14683886 -0.06283205 0.3841014 -0.31211418 -0.15090004 0.07448663 -0.02077981 -0.097678535 -0.30104136 -0.08410831 -0.16830744 -0.21678622 0.37457582 -0.2862853 -0.42908636 0.21376702 -0.106164865 0.80180055 -0.34893575 -0.12657544 0.24558058 0.011232305 0.33668762 0.19676033 0.22905296 -0.17369623 -0.12408372 0.1515802 -0.16972168 0.043646842 0.4143275 -1.0756778 0.33716145 0.22977929 0.1273757 0.098284364 -0.2991355 -0.4445056 -0.30224687 -0.33005023 -0.0671562 -0.23909241 -0.29063314 -0.044091705 -0.12016546 -0.08177593 0.02028074 -0.076225415 0.5789884 -0.20530854 -0.062858075 0.6008298 -0.06976134 -0.09412442 -0.6479167 0.2588697 -0.10122131 0.17402297 -0.29773176 0.031040454 -0.07260756 0.34496492 0.14958353 0.047434412 0.39222458 0.06783415 -0.48185351 -0.088838585 -0.050006 0.26344892 0.14746605 0.03804653 0.044483602 -0.2870894 -0.29805732 0.4248668 0.2910696 -0.060057085 0.41125286 0.21315226 -0.19620901 -0.14120966 0.27054673 -0.33713105 -0.032607254 0.14043394 -0.2189201 0.40463933 0.3847809 0.25253516 -0.25509956 -0.03655547 0.12139538 -0.037060615 0.35148224 -0.053674065 0.38547692 0.30450547 0.34216103 -0.0014759647 -0.4589607 0.11313768 -1.0119954 -0.2408712 -0.27027968 0.27588585 -0.035132237 -0.013682 -0.80607307 0.70673925 0.015509671 -0.14888372 -0.25878972
1309 0.2783858 0.09085394 -0.2921704 0.11317566 0.34677058 -0.085211016 0.24131289 -0.066385016 -0.167144 0.30224976 0.06503124 0.31072783 -0.3365079 -0.1258527 0.48888728 -0.1215294 0.29252508 -0.047844995 0.310303 -0.40743828 0.12860477 -0.49086624 -0.28308347 -0.39808458 -0.129148 -0.063420825 -0.06889958 -0.0828693 0.07755683 -0.34850177 0.60223687 -0.18859649 0.31632134 0.024846116 -0.1362634 -0.0777791 -0.042384915 -0.07982161 -0.0960712 0.11172 0.22253397 0.19680087 -0.15664834 -0.24717115 -0.051036417 0.40358436 -0.46826994 -0.29842228 0.13779242 -0.25761884 -0.08914187 0.029422121 -0.08444364 0.24657926 0.061364636 0.21741888 -0.3091525 0.07074499 0.21776053 0.10768706 -0.032277774 0.32455915 0.40773112 0.8320102 -0.49296424 0.25044286 -0.33039856 -0.010178542 0.01001277 -0.114638574 0.08417415 -0.3110214 -0.35917485 -0.32941267 -0.04630747 -0.7600162 -0.19471969 0.05477656 0.41994375 0.035612952 -0.0074170735 -0.1310552 0.031491987 -0.19966549 -0.116992235 0.0071248855 0.18970412 0.5484147 -0.21954699 -0.33671567 0.3215061 -0.33366606 0.08645835 0.20130415 0.26335043 0.45246544 -0.19862024 -0.29658064 0.14632693 0.058103394 0.014363061 -0.11323829 -0.12778983 -0.118561104 -0.8436446 0.19556883 -0.07197389 0.17587914 -0.080769524 0.57822466 0.17606983 0.17427751 0.1470197 -0.19442414 -0.1143827 -0.27458027 0.41076913 0.07869335 -0.47227916 -0.01160841 -0.16934043 0.2468532 0.34740913 0.11559723 0.14564455 -0.1717706 0.33873928 -0.5349805
1858 0.08882553 0.17934324 -0.09543254 0.27616587 -0.15159465 -0.047032356 0.3994418 0.043377392 0.0034178416 -0.32663321 0.46429607 0.11715155 0.12618908 0.33218774 0.3022479 -0.17734732 -0.13216597 0.21830916 0.23407415 -0.35844105 0.40794724 0.28407454 -0.16601655 -0.09854796 -0.26675275 -0.169995 0.63586557 0.30483803 -0.16130455 0.08319384 0.08261822 -0.20297447 1.0728713 0.4234116 0.017418833 -0.025318794 0.4549165 -0.029818278 -0.40955132 0.09245908 -0.24060431 -0.28474194 0.4533935 -0.42089713 -0.21800205 0.47064424 -1.6160071 0.69587356 -0.4827468 0.4390404 -0.45481175 -0.29387996 -0.49171185 0.36709952 -0.31289878 -0.12854236 -0.5647909 0.010180197 0.09521101 -0.42079556 -0.19457655 -0.38416198 -0.010354545 0.3323818 -0.5965788 -0.1525403 0.010336192 0.041024644 -0.027488837 0.15429458 -0.0013107441 0.5592033 0.049861774 0.29332054 -0.0976714 0.09569482 -0.01670803 -0.08902496 -0.010060533 -0.18728605 0.12051682 0.2391646 0.12266404 0.04752252 0.13783492 -0.010033768 0.08012357 0.4915815 0.28941777 0.13785392 0.3049721 -0.124316834 -0.19367005 0.23955284 -0.5050275 0.09872851 0.000922875 0.008231622 0.28935528 0.074804515 0.24541596 0.16309991 0.03825401 -0.07253478 -1.3202142 -0.09272797 0.06333366 -0.13475429 0.24504964 0.7841835 0.42410696 -0.40057456 0.033516623 -0.17471269 -0.050270215 -0.07723963 0.23350203 -0.19363661 -0.18694772 0.068009235 0.090943076 0.02998708 -0.3975514 -0.58145577 0.23926708 0.39199764 0.049615167 -0.044213995
1941 -0.092516296 0.30576846 0.118388005 -0.21559736 0.31274354 0.044510294 0.18153082 0.0013804503 0.38299018 -0.25660056 0.07159859 0.03894811 0.21028757 -0.4192601 0.43184114 -0.33107802 -0.19930378 -0.13070257 -0.19683367 -0.13654615 0.4922002 -0.108285576 -0.18864599 -0.36382654 0.2274067 -0.13822067 0.13706541 -0.007329302 0.11397869 0.28699347 0.92989165 0.16912091 0.7825737 0.67994314 0.107635856 0.0076059126 -0.28471634 0.42273504 0.052974254 -0.014953792 -0.15411231 -0.14922713 -0.26792905 0.4194874 0.14628537 0.052728858 -0.62430996 0.18099307 -0.0903828 0.4860441 -0.09855207 0.007743449 -0.57917815 0.29503912 -0.16242923 -0.43594176 0.43701077 -0.40706512 0.025978716 0.07555721 -0.36969668 0.017918127 0.2758037 0.18099898 0.2970763 0.030550558 -0.5198239 -0.025238596 -0.10801223 -0.098508775 0.26404285 -0.16713989 -0.12215153 0.29462498 -0.12355882 -0.04238167 -0.42980582 -0.10028469 -0.08153905 -0.14525957 0.21515866 -0.10580582 0.0016943011 0.04378904 0.2505598 -0.14919776 0.14002821 0.12603056 -0.033341497 -0.06181895 0.06946236 -0.252404 0.24767038 0.08018296 0.16659307 0.5663966 -0.13348377 0.08042204 0.2921139 0.08119045 -0.03645986 0.16226499 0.18725993 0.44032577 -0.7043854 -0.07654612 -0.0780491 -0.1353258 -0.0319877 0.34569314 0.24531676 0.021193475 0.30169418 -0.3093108 0.3110049 -0.08622835 0.1612607 -0.052014843 0.247557 0.25482413 -0.27241158 0.24601296 -0.5288986 -0.021237435 -0.2558631 0.15946387 -0.25741473 -0.19976178
452 0.26299715 0.38166842 0.08808632 -0.003665816 -0.42828938 0.32472226 0.16678405 -0.0067216414 0.17571169 0.041105565 0.11694859 -0.4903594 0.42611244 -0.053895727 0.09505876 0.118322335 0.36881518 0.595816 0.06121846 0.31430334 -0.9117815 0.16983396 0.02378172 0.0316849 0.015974399 0.13128632 -0.1249493 -0.23044299 0.015588312 0.21492767 0.016865933 -0.2373728 0.016769618 -0.20303681 0.1930461 0.48950142 0.18600114 0.6976388 0.31055567 0.18248592 0.032582097 0.31666818 -0.025906473 -0.1493221 -0.1193074 -0.56528455 -1.324323 -0.5205075 0.40375674 0.65050036 0.23581398 -0.18117379 -0.18474399 -0.017904185 0.49997675 -0.84674585 0.1342508 0.09064946 -0.33270505 0.18863118 0.2749791 0.26194865 -0.15387627 0.19262423 -0.084586225 -0.12551546 -0.2907315 0.0858597 0.13269867 -0.13314122 0.09950163 0.013312517 -0.10771785 0.25170872 0.0814746 0.305662 -0.06664629 0.16244525 -0.091815345 -0.45136762 -0.15611678 -0.54024535 0.11245139 -0.29435664 0.010005049 -0.44907665 -0.13817537 0.31917048 -0.2414961 0.10302115 0.14385171 -0.28988943 -0.25456905 -0.28998172 0.015047514 -0.1730254 -0.43565205 -0.08990575 -0.032998253 -0.0437533 -0.22351916 0.4926304 0.43746847 -0.06618442 0.02733738 0.34358507 0.19205323 -0.028896296 0.07422516 0.69038844 -0.18164812 -0.24173543 -0.35972226 0.15841398 -0.015629236 -0.18859948 -0.09324599 0.26537567 0.0790559 0.011145128 -0.14053248 0.049695514 0.12824002 -0.072602354 0.07861596 0.09436722 0.32167593 0.0070997584
2080 0.43351382 0.30120268 0.4166545 0.27706668 -0.3966668 -0.019940885 0.6394759 0.018125527 0.31043345 0.1640906 -0.39396894 0.21945205 -0.27642235 -0.30420038 0.88153297 0.098120205 0.39372477 -0.3633721 -0.41185558 0.006965684 -0.04813757 0.14665344 0.87574816 0.5034608 0.0019845641 -0.28619373 0.08471328 -0.100127615 0.16248254 0.1200877 0.27819416 -0.40548074 0.19163872 -0.45117384 -0.45339897 -0.34123763 -0.19826949 0.28492743 0.28528404 0.4715427 0.15476711 -0.1433505 0.04334368 0.0730706 -0.17990775 0.2022041 -1.4963125 0.43568543 0.1743436 0.008435951 -0.20099042 -0.4265907 -1.1324496 -0.102396175 0.6254356 -0.15745482 -0.09061786 0.18671018 -0.42858493 0.28298837 0.22628234 -0.0045061726 -0.24711195 0.69053686 0.47920677 -0.24010456 -0.21068949 0.24183689 0.42102495 -0.43289435 0.043591972 -0.6803862 0.062437166 0.03282805 -0.7898384 0.023126267 0.35229278 -0.6865818 0.49009606 0.00043203993 0.13656561 0.41062182 0.08824257 -0.24598968 0.345681 0.09949942 -0.13551359 -0.34232986 0.8108335 0.7060532 -0.064726755 0.29854804 0.30952656 0.602369 0.15265027 -0.44767383 -0.13707794 0.0108115915 0.4967289 0.4868558 -0.018616606 0.11791791 -0.418912 -0.035234213 0.51373327 -0.2646451 0.5838772 -0.10333843 -0.08562072 0.38085186 0.055534385 0.19124174 -0.3661554 -0.22442485 0.14708748 0.00010847452 0.4638512 -0.18457891 -0.08080853 0.4161155 -0.13591312 0.08689162 0.6549016 -0.14540651 -0.47047466 0.080697715 0.39515686 -0.29648042
1916 0.2906308 -0.24557357 -0.11689384 -0.18345182 -0.060379803 -0.40069073 -0.27753192 -0.3842543 -0.11039462 -0.010101855 0.46368602 -0.014848097 -0.005300567 -0.19671513 0.17537701 0.073449574 -0.410197 0.515174 -0.21313474 -0.1371135 -0.21378696 0.060482442 -0.27651832 -0.2517927 -0.06765517 0.3961133 -0.15964535 0.030221941 -0.24597088 -0.4466308 0.5054229 0.14953817 0.15597701 -0.1251239 -0.24575475 -0.3122024 0.31688857 -0.2443563 -0.05569957 0.26390737 -0.10048169 -0.2776359 0.2341015 0.09103894 -0.26526597 -0.2554627 -0.23923676 0.2733909 0.20471844 0.10571494 0.2074923 -0.7768337 -0.63463867 0.15630206 0.059774674 -0.104259826 -0.16841587 0.26421383 0.32245633 -0.1347501 0.1243941 0.35287857 -0.033686023 1.0866754 -0.12983464 0.14374247 0.4693418 -0.6150272 0.11172731 -0.15971306 0.17045534 -0.50420505 -0.07627065 -0.084135935 -0.032866824 -0.18050346 0.0011356571 -0.09628952 0.009937668 0.12743048 0.7855692 -0.019252123 0.26179904 -0.14005928 -0.025872856 -0.26344994 -0.16467825 -0.22300333 0.09891227 0.26245308 -0.14550059 0.46437904 0.07624403 0.4183934 0.03747687 -0.33481708 -0.03140786 -0.0631812 0.32764536 -0.1050998 -0.25166497 0.55087817 0.043401644 -0.39211413 -0.03862908 -0.13209617 0.41683742 -0.09763244 -0.36379713 0.5154562 0.10443325 0.06302669 0.32753506 -0.43870115 0.27470103 0.3352796 0.31008425 0.50660115 -0.31989816 0.2068451 1.3675425 -0.08497893 -0.11997281 -0.44627133 0.07864296 -0.65819395 0.0034345903 0.21363841
214 0.33044398 -0.18068548 0.037811846 0.07639797 -0.12982029 0.048187304 -0.052466303 -0.0030556703 -0.19873434 -0.0133657 0.46140411 0.028899895 -0.23102896 -0.12462245 0.2725565 -0.22961263 0.17760058 0.5837343 0.56679815 -0.30147412 -1.2629485 1.5228271 0.17851233 0.105486944 -0.27317104 0.28560236 0.14671096 -0.25939307 0.35767293 0.040981874 -0.649504 0.16218808 0.009370125 0.17682998 0.43757296 0.26802424 -0.10091572 -0.42913494 -0.21142647 -0.10490124 -0.22220606 -0.118209 -0.0006879445 0.3490662 0.03761415 0.39372277 0.10411027 -0.24858315 0.12082901 -0.4487609 -0.09234811 -0.07424567 0.18240522 0.1465721 0.36810362 0.43550587 0.042654514 -0.40807572 0.21281514 -0.046821006 0.010224317 -0.19624092 0.60225976 -0.09705803 -0.022384346 -0.00835265 0.81194293 0.03679423 0.31302926 0.3975967 0.13705383 -0.10732479 -0.18221265 -0.27312762 -0.09565938 0.16787405 0.09807943 -0.36047718 0.19768637 -0.21999848 0.14902376 -0.08474562 -0.29160154 0.1918403 0.12107456 0.09629419 -0.27148655 -0.19997762 0.75073844 -0.11164946 0.51395005 0.13465461 -0.023378009 0.5469823 -0.08873034 -0.15523756 -0.97794193 -0.19729272 -0.004772107 0.11056681 0.039133776 -0.13468151 -0.06131792 0.46589318 -0.055347417 -0.26258498 0.020534579 -0.27811286 -0.22023973 1.0598798 0.12006197 -0.17675887 -0.39148983 0.17907467 0.021949055 0.20728147 0.2034671 -0.34641618 -0.14941466 -0.009400189 0.54317665 0.19400707 -0.5444784 -0.20432435 -0.6891226 0.022912538 0.32997128 -0.13900042
1041 0.2894804 0.44101605 0.06844321 0.02604803 0.14408493 0.280635 0.38453627 -0.023242025 -0.08353341 0.068694405 0.4049392 0.25224894 -0.101931304 0.21398784 0.33205226 -0.23427977 -0.15267016 -0.42404607 -0.15169522 0.1916331 -0.21802688 -0.52648693 -0.3643283 -0.08544409 -0.068814605 -0.02572639 -0.35195848 0.16623498 0.23338155 0.15039396 0.5814376 -0.062419146 -0.054322295 0.34736043 -0.3279547 -0.02999008 0.38974848 0.3374771 0.25441256 -0.42685395 0.042233016 -0.101519294 -0.38877717 0.22184037 -0.20266046 0.03657856 -0.36855903 0.019551309 0.41769123 0.3624155 -0.12899695 0.22059463 -0.5255882 -0.1127518 0.20121513 -0.06909061 0.37128448 -0.045886535 0.21093579 0.34771308 -0.33290586 0.59965247 -0.047168948 0.03227202 -0.17745245 -0.5111698 -0.03251289 -0.4201301 0.099112585 0.31760946 0.2383782 -0.2737189 0.02956291 -0.12856764 0.18105614 -0.5152551 0.09636388 -0.38348442 -0.26858094 -0.10844946 -0.10611103 0.04414886 -0.008129351 0.12765406 0.767781 -0.0401423 0.0269539 0.07822623 -0.17400746 -0.32166657 0.44981736 -0.38421616 0.1020733 0.15707858 -0.21004987 0.21327665 0.062385347 0.13747297 0.1622686 -0.39246634 0.21875878 -0.29809886 -0.20177402 -0.17056982 -1.0185279 -0.14869343 -0.29477397 0.021463564 -0.28267527 0.6322469 0.01536447 0.26924592 0.2037181 -0.43611515 -0.3510696 -0.5437494 -0.22561315 -0.063405804 0.22050478 0.22271723 -0.18376093 -0.16737106 0.008276874 -0.28713104 -0.22454022 0.032309864 0.23048365 -0.15501255
1220 0.027060563 -0.14193392 -0.27582753 -0.035329442 -0.2327508 -0.10316262 0.29586452 -0.632835 0.5284104 -0.27419475 -0.0791107 -0.16981266 0.5336038 0.12687753 0.48853496 -0.0596878 0.35783103 -0.08308472 -0.04511068 0.157949 0.25784326 0.22892243 0.06983441 0.35900718 0.01756885 -0.3589338 0.09057716 0.052361608 0.13913676 -0.35829428 -0.05801985 -0.3127061 0.07667219 0.22569737 -0.12788753 -0.14504792 -0.3581729 -0.17007767 0.42256507 0.10263211 -0.14651358 -0.035429727 -0.35336408 -0.34027484 0.027853947 0.10702624 -0.7319613 -0.05963353 0.33789203 0.14299922 -0.32225174 -0.33643395 -0.11214789 -0.5805124 -0.71159065 0.006400073 -0.15948926 -0.3185509 0.14957802 0.48123512 0.03436407 0.04395345 0.45621473 0.7821815 -0.3088967 -0.12553158 0.38236517 -0.43053773 0.026674217 -0.055686023 0.42721736 -0.8186114 -0.20661294 -0.17203584 0.08510386 0.22767507 -0.2591457 0.5337899 -0.32921484 -0.20446144 -0.020719508 -0.27160797 0.1570246 0.29488036 0.40436003 0.35631165 -0.014606397 -0.13982162 0.116800986 -0.1193075 -0.06107498 -0.15469842 -0.27490726 0.28623632 0.039563358 0.14847036 -0.36035424 0.54148954 -0.06831059 -0.2601645 -0.36861303 0.42970565 0.3977514 -0.16322324 -0.6031925 -0.02021224 -0.10854036 0.271584 0.19112404 1.2258464 0.68970704 0.09462113 0.17271434 -0.40400925 0.3505254 0.05060355 -0.47713536 0.11174055 -0.5522161 -0.39186588 1.0531669 -0.26491517 -0.059455063 0.18089324 -0.9568817 -0.098153576 0.13391101 0.06297809
1741 -0.035586316 0.04475054 -0.4529208 -0.103886716 -0.30194598 0.1927243 -0.35141245 0.35297456 -0.1212228 0.037978455 -0.013756019 -0.06457715 -0.0024109897 -0.30401245 0.38736296 -0.05156902 -0.0071995878 -0.19662303 0.19083524 0.005982212 -0.11126772 0.24226248 0.05476487 -0.15742734 0.23359384 0.06929573 0.12141643 -0.058888964 0.2864551 -0.5662773 0.023140207 0.047879737 0.14624627 -0.041420482 0.22979029 0.0114726145 0.14253002 0.88771796 0.37244081 -0.0975197 0.24967201 0.24485502 -0.16161354 -0.43825725 0.03552436 0.011697597 -0.3702675 0.30650344 0.10235173 -0.3748516 -0.2514807 -0.18796363 -0.5794673 -0.04623417 -0.102260694 -0.16348441 0.4725149 -0.08546984 -0.06318577 -0.657596 0.11091773 -0.1561654 0.079515 1.3729932 0.26015863 0.32757086 0.26896673 -0.30986297 0.3354212 0.23473786 -0.030978525 0.009164309 -0.1962573 0.15047798 0.14662646 -0.0052712364 0.10775456 0.051924136 -0.39028367 0.28963503 0.2098438 -0.03579418 0.04329555 -0.1420405 -0.48254722 -0.14341502 0.013938605 -0.23899473 0.12163108 -0.3776603 0.06475893 -0.2400545 -0.1338653 0.16179033 -0.33507338 -0.105672985 0.2471436 -0.039743494 0.16419283 -0.20514289 0.3767344 -0.37642327 0.17148854 -0.086908855 -0.3571274 -0.16373034 -0.20452179 0.025263298 -0.40662348 0.85371244 -0.77041763 0.13427745 0.13952321 0.14090931 0.0903695 -0.2015167 0.02236571 -0.0357729 -0.040505774 0.54634917 -0.13320602 -0.11990613 -0.28094095 0.1413445 -0.5913255 -0.43505114 -0.14414911 0.5810111
453 0.033022024 -0.06918245 -0.17229597 -0.26128367 0.13102113 0.12884319 0.7548818 -0.03135442 0.12689456 -0.21129693 0.09305609 -0.06639855 -0.03584296 -0.29126954 -0.29489714 0.16935636 0.029691212 -0.45500714 0.16973276 0.44669 -0.574269 0.75829536 -0.53481334 0.120037325 -0.17791785 -0.04014207 0.17975633 -0.38851267 -0.19462024 0.39353237 -0.024481812 -0.14912729 0.27532804 -0.07103521 -0.17698145 -0.08081952 0.043850593 -0.041912504 0.080337144 -0.2771748 -0.31132618 0.06689779 -0.15980475 0.2221824 -0.30358154 0.38152987 -1.3019606 -0.12500417 0.14520492 0.5063277 0.23971853 -0.40690973 -0.07078938 -0.3301624 0.48417085 -0.95091987 0.3912718 -0.10634234 -0.15035972 -0.16830212 0.20517096 -0.73650986 0.22510934 1.024117 0.35636508 0.53064185 -0.46643138 -0.22775903 -0.0895767 -0.052792665 0.08374465 -0.26136982 -0.055384133 -0.030545114 0.102377996 -0.4780282 0.036413956 0.09168328 -0.19195248 -0.029546235 -0.0008514507 0.2580033 -0.06174042 -0.02730902 0.091528796 0.27764863 0.24983676 0.04549761 0.14232545 0.08777768 -0.28083745 0.1717875 0.008832452 -0.07166754 -0.35033128 0.40228456 -0.08737944 0.4563778 0.2309257 0.051375322 0.17128366 -0.15864834 -0.027127257 -0.53822887 -0.1649742 -0.1264281 0.39056987 0.093545444 0.3193506 0.34282282 -0.4736779 -0.050821193 -0.0036395453 -0.1210858 -0.53023714 -0.20267521 0.49435574 -0.3609738 -0.03745157 -0.016063131 0.073761985 -0.28661028 -0.20343398 0.29691458 0.3587212 -0.1016243 -0.0024059634 0.016143806
431 -0.52145046 0.59096014 0.5589426 -0.20543616 0.0029276935 0.094725035 -0.20832916 -0.41491076 0.43105885 0.37479448 0.3968258 -0.12438011 0.3137186 -0.2935557 -0.18887542 0.56319445 0.02917597 -0.24746475 0.06312778 0.072208464 0.024320211 0.08204488 0.061528545 0.09279536 -0.09220978 -0.6103711 -0.013613371 0.09024358 -0.09978221 0.24329121 0.3377957 0.2567751 0.5809293 -0.24923599 0.54140264 -0.118105315 -0.21431346 -0.32289097 0.20820595 0.12194983 -0.24809933 0.26864284 0.073460974 -0.30529281 -0.31846625 -0.16164438 -1.0510104 -0.20239286 -0.12622036 -0.31032845 0.10257312 0.04986112 -0.72856987 0.31793314 0.67147064 0.423756 -0.1118037 -0.24446419 0.17975129 -0.35528624 -0.29840574 0.046204153 -0.09372202 0.61353743 0.15855338 0.3125038 0.08626087 -0.09562583 -0.091922626 -0.3006023 -0.72405106 -0.23653102 0.27222395 0.08038161 0.33247873 -0.08633992 0.18456827 -0.182452 -0.26424208 0.27586895 -0.243779 0.25432295 0.057178143 -0.47166234 -0.2587516 0.5890071 0.12059581 -0.1263852 0.027186155 0.24042973 -0.024654211 0.5012409 0.20935145 -0.30563337 -0.11208325 -0.14780308 0.006276367 0.01428366 -0.5759098 0.41887495 0.72036374 -0.26237124 -0.16755241 -0.31203914 0.16832106 0.73660403 0.02622108 -0.7464651 -0.071983434 0.7889492 -0.10577739 -0.1065396 0.3767747 0.172324 -0.12942939 0.13090566 0.19131745 -0.23995781 -0.1276446 -0.16429068 0.54605776 0.16630207 -0.23450705 0.21273309 -0.39030308 -0.2991118 -0.016003586 -0.14961523
1357 -0.1219706 -0.33611456 -0.1250787 -0.19321181 -0.039001618 0.08826621 0.44235626 -0.13728479 0.15634255 0.5531691 0.09435833 -0.012341559 -0.22769123 -0.033838697 -0.26988128 0.42995787 -0.35160273 -0.25508887 -0.47363946 -0.28385216 0.09827323 0.05963526 0.15383452 0.11769882 -0.15462032 0.2196361 0.1541984 -0.31509805 0.0039581233 -0.13628411 -0.2509354 0.04584106 0.47937286 0.19968276 0.5107788 0.6202991 0.42909172 0.40248692 0.4219656 0.035459258 0.025775086 0.07160391 -0.38489848 0.35969824 0.1879054 -0.18167894 -1.559994 0.10514307 0.09501174 0.23884757 0.1950537 0.0751468 0.12269572 -0.23094942 0.38158712 -0.40291488 0.32142928 -0.08080576 -0.4555959 0.1272644 -0.114337295 0.1030154 -0.055183038 -0.0763104 -0.04999439 0.1517866 -0.0958712 0.09598794 0.002535953 0.2549739 -0.15956198 -0.010398431 -0.20847744 0.1426488 -0.22424962 0.013128183 -0.26504 -0.24652322 0.2100045 0.073582634 -0.00452453 0.07502002 0.24381404 0.39082283 0.1484115 -0.1342174 -0.072299406 -0.023813838 -0.13264671 -0.040211517 0.061661735 0.10306944 0.117014065 -0.06748623 -0.17445217 0.10595112 -0.03434093 -0.19443661 -0.2093611 -0.43411195 -0.22933662 -0.008042307 -0.40521 -0.1413639 -1.1083809 -0.6977996 0.005158149 -0.022749294 -0.3374731 1.337131 0.16978826 0.34658533 0.10763513 0.1577428 -0.46908918 -0.17764296 0.189488 -0.16758527 -0.21184327 -0.624168 0.9046908 0.15503904 -0.2146893 0.12378497 -0.5861396 -0.31055778 -0.07289676 0.07737784
389 0.5366243 0.0124106 0.100316 -0.41737437 0.069785304 -0.023293883 -0.12340469 0.1284575 -0.025158558 0.16092888 0.9445366 -0.22703998 -0.19521701 -0.05547292 0.13688779 -0.30429146 0.030795643 0.34168726 -0.15513869 0.21604453 -0.88379127 0.9694711 0.16975877 -0.11524051 -0.053956844 0.35008296 -0.105365545 -0.38006246 -0.126602 0.6537367 0.062093355 0.12202225 -0.09973841 -0.3361137 0.0018836264 0.04687269 0.2968708 -0.3899353 0.12255903 -0.037543368 0.17350134 -0.08547216 0.011516532 0.06525806 0.3000263 0.46633896 -0.013817459 -0.054266717 0.17435454 -0.1744995 0.13721998 -0.07664951 0.016990038 -0.30137774 0.09102343 -0.113735035 -0.23383722 0.261242 0.46562645 0.08106801 0.4597586 0.0568211 -0.006251109 0.18241897 -0.26307875 -0.2071627 -0.15699874 -0.14143641 -0.0028089832 -0.14256725 0.22493154 -0.15852301 -0.10603459 -0.13014646 -0.3870551 -0.3178912 -0.36225373 0.010624508 -0.030481622 -0.30872524 0.042562984 0.24097459 0.053089306 0.27309412 -0.28375453 -0.550719 -0.022774354 -0.1939675 -0.44655252 0.0975944 0.47676155 0.31804243 -0.34863737 0.8832244 -0.12050158 -0.089610495 -1.2861519 -0.25083792 0.042982332 0.21353209 0.26612648 0.45645857 0.36687183 -0.26108187 0.22020754 -0.16308177 -0.27889818 -0.110368446 0.13386573 0.7303988 -0.10625359 0.13092056 0.25452965 -0.0064709852 0.19222759 0.1947054 -0.034568876 -1.0608367 -0.06525333 0.032966822 0.25378528 0.058658462 0.4300433 0.48014334 -0.8675221 -0.11516584 0.14231509 0.27413476
2006 0.4264557 -0.60787404 0.30229458 0.07198357 0.115829796 0.60257906 -0.3751686 -0.06226444 0.06379668 -0.27884367 0.007767165 -0.2004672 -0.41607404 0.034907475 -0.059688453 0.47459674 -0.3459231 0.29509503 -0.19358541 0.06722783 0.77435935 0.4332621 0.37894794 0.32949337 0.29370934 0.07205153 0.21090987 -0.17855075 -0.34038347 -0.40937364 -0.15843056 -0.10934556 0.33731964 0.16902028 0.4131411 -0.26009417 0.08735036 0.32448447 0.22002687 0.15537143 0.12331224 0.021134207 -0.20914918 0.049406253 0.206366 0.15485929 -0.1968538 0.116119415 0.22294235 0.33431897 0.11399357 -0.20816076 -0.4119967 -0.17850012 -0.19996053 -0.58397603 0.008269045 0.06667086 -0.06863017 0.23648274 -0.05776632 -0.14833643 0.35172057 1.5471389 0.23925401 0.36116424 0.20904255 -0.25766745 0.46636736 0.05883391 -0.2660921 -0.4787114 0.53432286 0.0863336 0.22621989 0.3338395 -0.45432192 0.17234005 -0.36435318 -0.06441359 0.044129696 0.02261852 0.07295189 0.14924939 -0.015280561 0.008593825 0.108903006 0.014289504 0.16308758 0.09002692 0.35060865 0.08266216 -0.22841957 0.45669279 0.29661906 -0.025656834 -1.3178277 -0.10703724 -0.026544323 0.20642112 -0.022155154 -0.022074345 0.051852167 -0.1460447 0.055349555 0.1522533 0.105125025 0.22301546 0.06405754 0.6702942 0.29010597 -0.3249461 -0.3439351 0.09853611 -0.21331409 0.20587847 -0.13838495 -0.21177362 0.29441997 0.52056223 -0.32729748 0.25286978 0.39374426 0.29345673 -0.18938288 0.30585054 -0.3024657 0.29758763
656 0.12070643 0.06753883 -0.20410255 -0.033243798 0.6128816 -0.009543306 0.6961485 -0.20479937 0.0701142 -0.0847727 0.11503068 0.030843314 0.12020967 0.24175599 -0.31531924 -0.43190786 0.12707508 -0.14873835 0.2593825 -0.1003007 -0.013173679 0.8631602 0.23870288 -0.14135912 0.22365822 0.23480217 0.3774826 0.18868 -0.048237752 -0.038902644 -0.24968609 0.13254867 1.0619968 0.052927233 -0.01869557 -0.324786 0.15170088 0.6390932 0.2815779 0.19197239 -0.32325837 0.29424882 -0.10551823 -0.17847627 -0.10016583 0.081449546 -1.0512487 0.3115307 -0.23522702 0.058481924 -0.0018409188 -0.3896864 -0.040405124 0.015028475 -0.23579216 -0.24270472 -0.23592414 0.16944833 0.058687802 -0.3435297 0.046200577 0.24921487 -0.49056724 0.68116254 0.047038272 0.1489022 -0.33003166 -0.5216112 -0.046041362 -0.19606315 0.066305205 -0.056927882 0.11773665 -0.12550677 0.024485456 0.38340798 -0.1821152 0.14192939 -0.115065716 0.090176456 0.037322994 0.28725246 0.087097235 0.005509325 -0.4238046 0.2062906 -0.1886606 -0.1680564 -0.08952104 -0.3470846 0.4102162 -0.18175402 -0.14977375 0.12362458 -0.04094961 -0.41507292 -0.09036615 0.2423098 0.05710522 -0.14187872 -0.34118927 -0.2868404 -0.0937569 0.32021245 0.45194995 -0.10476266 0.28421316 0.24169543 -0.08284047 -0.1952012 0.010183482 -0.084297255 -0.2046842 -0.00024899695 0.0332815 0.163885 -0.10231662 -0.48559344 0.11045276 0.028800309 0.17039125 0.47917628 0.09626361 0.30212379 -0.27687228 0.24550079 0.2493641 -0.14346951
1103 -0.06310182 -0.1410942 0.43665448 -0.11554805 0.06634159 0.23543888 -0.011541605 -0.31077814 0.24735871 0.62752175 -0.18642443 -0.11823493 -0.0593147 0.14089663 -0.15671653 0.1362677 0.15920602 -0.115215786 -0.1215381 0.050320312 -0.014151452 0.17318399 -0.4832177 -0.05804049 0.026376067 0.30563843 0.13769886 -0.055566337 0.1603015 0.2746535 0.54113555 0.4595516 0.7293175 -0.045201212 0.0021552737 0.057391893 0.49000832 0.13220544 0.080049045 0.07424021 0.052420434 0.15819958 0.10333304 0.32952842 -0.10043732 0.2707551 -0.5641781 -0.16300525 0.087408975 0.17872459 -0.4894314 0.17776944 -0.25073168 0.043491054 0.22948873 0.4831912 0.020734731 0.06558243 -0.1021897 -0.41678265 0.8015139 0.099436134 -0.40075243 1.4098215 0.5832082 0.09097243 -0.1941439 0.3259594 -0.089408144 -0.3173755 0.24587736 -0.7939727 -0.07601487 0.55913746 0.29542452 -0.17790133 -0.12551512 -0.20179245 0.17660256 -0.31653672 0.56772417 0.018854849 -0.67720264 0.41901183 -0.06815491 -0.07447964 0.047862444 0.57273805 -0.5001685 0.55230486 1.2972414 0.25402308 0.043503653 0.014588639 -0.31728393 0.3357652 -0.79091626 0.056799594 -0.44461173 -0.65878636 0.05510841 -0.52148336 0.14204535 0.055682406 -0.81771654 -0.29116797 -0.44936097 0.1436084 -0.31944722 1.274463 0.29331306 -0.042745687 0.15166354 -0.3037911 0.70597583 0.087485194 -0.4352063 0.3520272 0.25474697 -0.38318333 -0.08465114 -0.29539105 0.15147543 0.43187004 -0.48202482 0.09935121 0.30559137 0.8172676
2032 -0.027537776 0.026217798 0.01943866 0.06386729 -0.0058759903 -0.00011236085 0.49822748 -0.034727436 -0.09353033 0.16614759 -0.028987875 0.16454113 -0.12087995 -0.014129918 0.06746913 0.22223356 -0.08842616 0.30174282 -0.37665817 -0.40024245 0.3482269 0.84338343 0.09227687 0.2513276 -0.19141914 -0.26249242 -0.26687917 0.15617985 -0.032257404 -0.022511747 -0.2736446 0.059155438 0.13222194 -0.32377905 -0.27228037 0.20576407 0.11939203 0.055381414 0.07164054 -0.06131271 0.46480173 -0.017423179 -0.16404153 0.10795531 0.040677875 -0.21026215 -0.5495652 0.26680166 -0.047106322 -0.124177486 -0.34511298 0.03221886 0.20139918 0.20106378 0.11921546 0.12948176 -0.29963672 0.113537915 0.0042712097 0.34304425 0.14414315 -0.20672238 0.044077907 0.95603347 -0.019318096 0.28834352 0.32275298 -0.018517414 -0.42371386 -0.16529582 0.30048823 -0.22320677 0.03141884 0.04248953 -0.14170384 0.16045079 -0.9718866 0.06281263 -0.25215027 0.6389174 -0.044420548 -0.07203569 -0.29960153 -0.20451654 0.04879459 0.15686904 0.32910255 0.03493528 -0.08566819 -0.2277059 1.0916361 0.06769333 -0.2178148 0.5795514 -0.2359006 -0.17811665 0.2876641 -0.19406244 -0.021838862 -0.11826934 -0.38104698 -0.069778875 -0.14386736 0.27265197 -0.036636453 0.36124176 -0.020488912 -0.028468804 -0.46847552 1.6109387 0.44830012 -0.53595126 -0.22180796 -0.1887756 0.44764897 -0.15153673 -0.35671675 -0.11668675 -0.2729555 0.23288114 0.43839377 -0.02643376 -0.30081412 -0.40186042 0.3816735 -0.33458343 -0.32437736 0.002054184
313 -0.16279384 0.42984936 0.15106435 0.32561746 -0.5415123 0.34868792 0.39497077 -0.039314207 0.1291464 -0.033455875 0.2246725 -0.29055408 0.1388644 0.07226465 -0.0667625 -0.30766946 -0.20224975 0.2578348 -0.0715558 -0.5798942 -0.93845654 0.089057766 0.15957703 0.08637519 -0.14933822 0.16340558 0.46119285 -0.1857036 -0.3939039 -0.11250278 0.11759269 -0.08809379 0.23081228 -0.117722675 0.14551781 -0.21608283 -0.07871734 -0.027274402 0.574847 -0.11945043 0.053185157 0.031510256 0.657722 0.25894088 -0.36650428 -0.1399947 -1.0116421 -0.5049483 0.028426617 -0.24702291 -0.31498274 -0.37161848 -0.4338798 -0.17242911 0.43852112 -0.38242647 -0.03834912 -0.2757495 -0.055095997 0.37345886 0.03448164 0.6415412 -0.12419939 0.35028514 -0.29166126 -0.34681687 -0.17682873 0.17801939 0.19435535 -0.21906868 -0.7252695 0.24719915 -0.016589206 0.2621194 0.0909035 0.11864061 0.3220052 -0.0073745814 0.03845044 -0.20728984 0.1753836 0.04214509 0.30849212 0.06351883 0.3085561 -0.54730076 -0.22371633 0.12873608 -0.13622311 0.3421358 -0.1682978 -0.11105111 -0.31557298 -0.53344876 -0.16099463 0.2947396 -0.63040864 -0.15779701 0.10987274 -0.2551537 -0.25971332 0.46309474 0.24883862 -0.13676417 -0.074923374 -0.0035180203 -0.066359006 0.1737508 0.20761488 0.6309677 0.12571773 0.0429613 -0.15347807 0.36068878 0.28774235 0.16674782 -0.31942725 -0.13377029 0.18046127 -0.098508306 -0.20432287 -0.28301054 0.35790497 -0.049156338 0.08569681 -0.08011453 -0.0341088 -0.06465468
2256 0.098905124 -0.25584808 0.6537486 0.07944919 0.0893003 -0.5617637 -0.22555187 0.25900376 0.04531546 -0.21230431 -0.32230115 0.067104936 0.30571863 0.2314714 0.013306701 -0.54000664 -0.18659449 0.20112583 -0.021912817 0.13079253 -0.60628366 -0.30278334 0.26551569 -0.6150802 0.23934639 0.21307042 -0.004112281 -0.21571848 -0.40712854 0.01806397 0.037079275 0.14803405 -0.29819903 0.16348997 -0.31520173 -0.014165796 0.12551384 0.031951964 0.0935329 -0.3176275 -0.5360226 0.15204442 0.24866058 -0.23084116 -0.050722882 -0.40369964 -0.7567738 -0.034426197 0.06996749 -0.06946736 0.28078976 -0.24173902 -0.47991064 0.06310512 0.031041542 -0.5636837 -0.21994692 -0.58964413 0.10819993 0.50168616 0.11339162 0.2935369 0.0678227 1.26946 0.62983197 0.42100334 -0.18249147 0.048366826 -0.41361812 0.053347103 0.20180885 -0.20681281 -0.12272656 0.13914002 -0.10899275 -0.48496017 -0.20069614 -0.018285032 0.009139246 0.46833223 -0.058647923 0.057784487 -0.058367286 -0.33662066 -0.40125072 -0.23315348 -0.26896697 -0.13286929 0.29446796 0.3882408 0.24306291 0.011708332 -0.24523374 -0.09119938 0.08051823 -0.1717132 -0.25823987 0.40611368 -0.424259 -0.23184316 -0.37260887 -0.03945873 0.3953251 0.11533267 0.19864155 0.5546626 0.32932082 -0.012100737 0.57712036 0.8843423 -0.0016507057 -0.27274436 -0.07446226 0.13894296 -0.0464111 -0.34704387 -0.11247953 -0.5101633 -0.079739526 0.3492513 -0.025289822 0.13819292 -0.2861527 0.108850434 -0.7867128 -0.243028 -0.68702614 0.18490513
1483 0.10745389 0.21829715 0.08336541 0.08249754 -0.12594955 -0.31402403 0.22415048 0.01976187 -0.13226832 -0.5161462 0.036888644 -0.17600845 -0.23205471 0.23009901 -0.23879866 0.22924243 0.059585348 0.5026814 0.28480133 -0.19561853 -0.6334183 -0.12129842 0.10883909 0.20339957 -0.09047127 -0.49427292 0.3172272 0.16899738 -0.09548952 0.107355796 -0.016659642 0.22196837 -0.07659493 -0.20323947 -0.2577057 0.05522882 0.13382483 0.23791808 -0.3379667 0.31721452 -0.29745817 -0.1208351 0.30321872 0.16422316 -0.056867488 -0.053202495 -1.0389129 -0.009706788 0.2535356 -0.20592584 0.11589562 -0.08738167 -0.23384781 0.12951528 0.39181182 -0.6993047 -0.17121114 -0.14192456 -0.20099159 -0.1639525 0.016994944 0.25361213 -0.27692 0.27205843 0.17306662 -0.2023997 0.54798704 0.23257177 -0.3593103 -0.44084904 -0.41088954 -0.47779602 0.0071361177 -0.21639821 0.24157466 0.06733023 -0.24147806 0.31984776 0.084319465 -0.28670788 -0.15970515 -0.38864642 0.013306228 -0.5363474 0.8789214 0.06200744 -0.072275355 0.2697836 -0.4178687 0.41623446 -0.20237911 0.05128088 -0.011231583 -0.21986568 0.018333135 -0.18814333 -0.40522343 -0.25134122 -0.4489949 -0.104891926 -0.2846216 0.11371249 0.2157733 -0.36074695 0.12003406 0.07643861 0.16003747 -0.10758902 0.20833722 1.0962629 0.08984777 -0.2596548 0.25713307 -0.059633784 0.0102453055 -0.67177474 -0.14713612 0.22420734 0.16476016 -0.35654458 -0.3297747 0.030870415 0.11159347 0.4983349 -0.374399 0.4456905 0.1737685 -0.17368749
2389 -0.12378569 -0.406046 0.18766423 0.032760702 -0.15242834 -0.016211102 0.31165588 -0.30119476 -0.22170189 -0.24971037 0.37181196 0.026884224 0.1546502 -0.5049715 0.3033921 0.68690664 0.23880039 0.12303282 -0.13042286 0.11243364 -0.69437194 0.3464361 -0.586863 0.44919136 -0.3566624 -0.19758192 -0.13909528 -0.16554534 0.71351486 -0.17329116 0.28273883 -0.38636234 1.0016423 -0.4742946 -0.010445538 0.19814618 0.19884273 0.3313031 0.12845251 -0.031025719 -0.017153604 0.26076707 -0.51311725 0.32704726 -0.029288149 0.4178575 -0.33572683 -0.027931582 -0.26297697 -0.4339074 -0.09483546 0.07079096 -0.84735525 -0.36685166 0.024079286 -0.0862267 0.27414078 0.10496636 -0.22508754 -0.4206365 0.17639945 -0.03423972 -0.5026721 0.01474561 -0.3286541 -0.15078998 0.39799532 0.059889026 0.36239997 -0.07648665 -0.23400773 -0.26892534 -0.29783845 0.04468051 0.014139658 0.27708358 -0.6217999 -0.25343123 0.41563562 0.2002574 0.25038385 -0.091994256 -0.18545869 0.23364612 0.3778724 0.31666842 -0.13193004 -0.053724863 -0.08273921 0.40415224 -0.1301095 -0.044577613 -0.103554256 0.271947 0.030225856 0.32580116 -0.29163453 0.373816 -0.06400673 -0.00823068 -0.3997329 0.105141014 -0.025180103 -0.17253074 -0.43865797 0.34538215 0.015228563 -0.2257924 -0.18800156 0.063172154 0.33853176 -0.22684066 -0.17667006 0.082961254 -0.06148697 -0.26473504 -0.17141294 -0.004513404 -0.4518626 -0.19779262 0.41394356 -0.020402431 -0.1703077 -0.050546337 -0.10162555 0.375194 -0.039478254 -0.2113064
1988 -0.0057488177 -0.062841155 -0.30880174 0.05862451 -0.5906085 -0.43313214 0.9928176 1.0584323 -0.31823498 0.10316831 -0.1052839 -0.3050718 0.008827946 -0.2664036 -0.24078631 0.32987934 0.29196098 -0.44821736 -0.12635723 -0.3109259 -0.6537361 0.72114104 0.28009638 0.54545015 -0.09197125 0.16687617 -0.25976354 0.1654451 -0.13963248 -0.20956442 -0.18219922 -0.06741147 0.74198365 0.43617103 0.15928331 -0.087807916 -0.047399983 -0.08067549 0.1451054 -0.23777246 -0.4350891 -0.23889773 0.11348302 -0.0667633 0.156597 -0.0288495 -0.67230415 0.1037186 0.14135733 0.06606974 -0.24099474 -0.055832267 -0.27325818 -0.12004032 -0.11489274 -0.0388925 0.20583688 -0.050882474 0.19569539 0.013078273 0.05898204 -0.2911141 -0.6312226 0.62566155 -0.08934573 0.19570148 -0.4928513 0.15627423 0.0010281134 0.18684289 -0.3613544 0.14648885 -0.008499725 -0.15931104 0.3459585 0.060724456 -0.14989446 -0.07798225 0.02909616 -0.28131214 0.17164643 0.048427846 -0.41628543 0.43976244 0.12232111 -0.176984 -0.22063929 0.36332527 -0.02045279 0.09927875 1.2193946 -0.3544018 -0.5095067 0.73037755 -0.15428458 -0.18756256 0.30946505 0.035089944 -0.042887468 0.38610122 -0.13217801 0.12962112 0.26487127 -0.26555598 -0.4770171 0.1546976 -0.66011757 -0.15444377 0.25378728 1.9549648 -0.3508966 -0.067587815 0.07577566 0.03755118 -0.117342904 0.64442605 -0.30035773 0.3187368 -0.23205777 0.050763536 0.06338224 -0.15145627 0.18473136 -0.5337664 0.01935587 0.26685607 -0.061925836 -0.06475635
1924 -0.20389454 -0.09972581 0.474929 -0.108878344 -0.3015855 -0.5283209 0.5847911 -0.052348636 0.040526416 0.17258702 -0.33331454 0.39597762 0.16435085 0.20656617 -0.7419289 -0.690924 -0.34358972 0.13636583 -0.1734932 0.1500372 -0.2900396 0.042911906 0.2852519 0.32073662 0.05129652 -0.20130126 0.24947251 -0.50929123 -0.10864115 -0.11774085 -0.34776795 0.2087097 0.16874747 -0.16233286 -0.5422759 -0.122865796 -0.0025758424 -0.22107223 -0.898004 -0.856753 -0.046361547 -0.013264154 0.5783951 -0.15078473 0.05372494 -0.02488037 -1.352359 -0.54023325 -0.3868902 -0.0933617 -0.067035116 0.050350424 -0.7393634 -0.022238513 0.26624522 -0.65283906 -0.09003886 -0.3328089 -0.18477939 0.06353434 0.20697431 0.23662177 0.6630054 0.30012918 0.44176275 0.4519342 -0.23701538 0.2000719 0.085445024 -0.6554337 0.046291504 -0.472953 0.011677593 -0.033544082 -0.1454002 0.20581777 -0.2762329 0.115912266 -0.3292609 0.5768042 0.04366924 -0.59300816 -0.13465196 -0.36806628 -0.15040609 -0.12685737 0.27909377 0.20194896 -0.1846148 0.2701808 0.22069095 -0.026179783 -0.0035258282 0.37880254 0.10691594 0.0709283 -0.20112698 0.50954324 -0.2974179 -0.031261075 0.3790571 0.2012858 0.03430763 0.025524 -0.25206858 -0.0045124926 0.75603575 0.08040007 0.07871984 0.9687809 0.029128494 0.30962572 0.29613626 -0.49400032 0.11747073 -0.690869 0.11332161 -0.011171473 -0.41417658 0.25519204 -0.057569426 0.040913425 0.7533613 0.4845032 -0.16299611 0.03905888 0.38589722 -0.02064512
2278 0.025908137 0.035232384 -1.0115001 0.484994 0.13495125 0.2028743 -0.053550877 0.030151779 -0.5697009 -0.17482337 0.22784583 -0.72077054 -0.43349683 0.005377492 0.5370983 -0.09993734 0.2932583 -0.16104037 -0.23849607 -0.35459918 -0.57921267 0.10435152 0.42627358 0.44735125 -0.0034681896 -0.1016948 0.0066057127 0.35486624 -0.38643578 0.09773595 -0.33125457 0.017494483 0.08985578 0.33373177 0.6784885 0.5469012 -0.13223337 -0.30664214 -0.26842523 0.15831882 0.04657866 -0.14020348 -0.17641397 -0.09408099 0.11246893 0.034312487 -1.2057467 -0.049128268 0.023049193 0.21946478 0.120386384 0.10104105 -0.6873583 -0.01792908 0.08405461 0.045631863 0.36255732 0.032885436 -0.37031028 -0.20422255 0.048347663 0.0029856707 0.13059226 0.9158655 -0.098341554 -0.621194 -0.0014486943 0.13057488 0.07614514 0.4974383 -0.20093447 -0.12720604 -0.123953685 -0.22290929 0.024409246 0.13167098 0.096471034 0.053151876 -0.31493524 -0.05023274 -0.33229446 0.43853343 -0.48017237 -0.2563975 -0.7276604 0.3271102 -0.042733517 -0.3449389 0.11469321 0.18169239 0.12070909 -0.1971139 -0.32214192 -0.0497774 -0.027674027 -0.18314315 0.2567273 0.11870277 0.34238172 0.18223229 -0.35315302 0.25437263 0.18407677 0.080337666 0.13189587 0.21746337 0.44274512 -0.048145823 -0.106470324 0.31885654 0.19825247 -0.15499087 -0.45675156 0.022011105 -0.15743425 -0.20122825 -0.78544194 -0.5358516 0.017969573 0.25115305 0.11755537 -0.10181058 0.3060761 0.14796413 0.21434529 -0.53023815 -0.1724833 0.55340666
1362 0.54798824 0.24635513 0.3168829 -0.06561007 0.40107706 0.23950113 -0.15526886 -0.32855186 0.25830784 0.09443539 0.13505317 -0.008787232 -0.42549434 0.3916614 -0.1915934 0.29371423 -0.22006968 -0.36798233 -0.06536135 -0.3653494 -0.26376024 1.1395053 0.21250306 -0.29045928 0.10976187 0.33480018 -0.11079175 0.045004394 -0.3740748 0.38769707 -0.003655502 -0.086536705 -0.08855213 -0.051586047 -0.0057604956 0.09692807 0.37092042 0.09497585 -0.033573207 0.21826042 -0.34956315 0.0009566636 0.0006468685 -0.22625288 -0.33872128 -0.20186266 -0.871154 0.2240687 -0.050280258 -0.0956704 0.33682835 0.3074315 0.4018966 0.2708427 0.10208341 -0.05664379 -0.23841257 0.07363511 0.38730857 -0.04883671 0.015804967 -0.11158167 -0.12894508 0.03057148 -0.16843402 0.20055625 -0.07478068 -0.33269456 0.2327064 -0.4639287 0.12873456 -1.2454714 0.1423212 -0.03315276 -0.16366057 0.11268713 0.0017547138 0.07478755 -0.18897022 -0.20157942 0.3130613 0.4501811 0.3452041 0.2048208 -0.5460118 0.1793901 0.028516006 0.30358952 -0.06288148 -0.25368178 0.07088429 0.07704599 0.25620788 -0.24476385 -0.28571784 0.2881277 -0.85365176 0.32559502 -0.1023909 -0.15370086 -0.21821563 0.015425015 -0.039828036 -0.16046582 -0.97175986 0.102925345 -0.11086941 -0.19824408 -0.027529087 0.36508295 0.23475367 0.120101355 -0.3223965 -0.17310977 0.14100307 -0.5799251 0.28985924 -0.14016305 -0.06903446 -0.3332286 -0.07775654 -0.31411037 0.041711304 -0.3400312 -0.24135305 -0.18767019 0.14745924 0.044287164
1068 0.25437668 0.4140321 -0.5136543 -0.22040711 0.26355797 0.23536527 0.16288628 0.28346452 -0.20503236 0.10738302 0.3578062 0.30286142 -0.34521478 0.47700912 0.38509116 -0.4967488 0.3002348 -0.15892401 -0.056555927 0.083980456 -0.1960805 -0.11700896 -0.07184278 -0.29532963 0.10842207 0.25462836 0.037509713 -0.30954728 -0.27742964 -0.020084733 0.49555084 -0.007099303 -0.17264539 -0.33648664 0.06419405 -0.10394108 -0.38142127 -0.2675857 0.24578296 -0.2213171 0.17297487 -0.25499028 0.33091462 0.34049615 0.03641434 0.16195782 -0.98726076 0.37240785 0.041142415 -0.08042818 -0.2206875 0.19167331 -0.5396276 0.21933171 0.20332049 -0.67356175 -0.29765284 -0.5317815 0.11593083 0.44883135 -0.17926858 0.57854664 0.33532244 0.22399808 0.20594357 0.22352715 -0.25691032 -0.13107783 0.051682774 0.12450208 -0.0664083 -0.072355285 -0.012942704 0.12005694 -0.23428221 -0.3893761 0.35470703 -0.10747374 0.5714939 0.21647166 0.41717705 0.10692814 -0.0673732 -0.157729 -0.1086398 0.19892819 0.15739505 0.29725334 0.03008822 0.031631954 0.23022711 0.0061838105 -0.107302986 -0.03181782 -0.08177897 -0.17414111 -0.16293363 0.24686147 0.44368654 -0.14022179 0.107132435 0.16091314 0.096260294 -0.14784072 -0.61454 -0.042988498 0.15934506 0.11801844 -0.4656201 0.5934233 0.16125266 0.15236072 0.36770836 -0.40632033 -0.08828199 -0.31416932 -0.2291133 0.3132059 -0.4466827 0.22369194 0.07606545 -0.36299416 -0.047388785 0.2321762 0.24328163 0.12098349 -0.29705212 -0.40545663
1762 -0.1684758 0.216645 -0.17816587 -0.29117155 0.26486138 -0.52424085 -0.04822971 -0.2760973 0.45372346 -0.023627458 1.0499119 0.03188258 0.0050559244 -0.32834485 -0.46901333 0.34044966 -0.278694 0.10734234 -0.32036012 -0.23229422 0.6290797 -0.12181562 0.77189904 0.88668454 -0.08837751 0.25831774 -0.29227498 0.087171935 0.10645383 0.016579969 0.16349913 0.032708317 1.2029424 0.26887926 0.18055776 0.21059869 -0.10747698 -0.29239073 -0.15034933 -0.01737626 0.33151436 0.08970685 0.03736071 0.19553433 -0.36717856 0.29081097 -1.5255737 -0.120099306 -0.18938796 0.14828622 -0.0070180544 0.26060975 -0.51056933 0.3288582 -0.03617682 -0.13551828 0.12618034 0.09448963 0.22964424 -0.0031422032 0.51121587 0.2080558 0.19538422 1.4115028 -0.36541644 0.2561559 0.0017795666 0.13670379 0.32677478 -0.21410282 0.04053622 -0.44479996 -0.04951969 0.105011396 0.120764114 -0.40025747 -0.24138568 0.21157882 -0.3687289 -0.047382813 -0.10384111 0.12553477 -0.17399846 -0.22097051 0.3955018 -0.2950777 0.030920407 -0.052038573 -0.37590623 -2.3775967e-05 0.17043634 0.1964658 -0.6173254 0.4197142 -0.12042208 0.04504549 0.21873729 0.0802737 -0.050294723 0.16329503 0.049061317 -0.61779237 -0.2516394 -0.088441044 -0.5220982 0.051648036 -0.38418004 0.32005423 -0.3401564 0.88532776 0.47611052 0.05387944 0.204146 -0.03897788 0.32093152 0.28601968 0.22161654 0.0043704407 0.46227184 0.17730214 0.14584273 0.50893956 0.36756578 -0.8094963 0.12202564 -0.022251539 -0.16875575 0.08382329
1938 0.03338152 0.05483838 -0.41372567 0.27970326 -0.4011826 -0.31025967 -0.5319776 0.12434748 -0.752865 0.1830872 0.88974077 0.06270818 -0.042682163 -0.029294156 1.4124134 0.21023403 -0.6686106 0.13671829 -0.29630193 0.17928775 -0.14697759 0.32538822 -0.010239288 0.39877886 -0.26684508 0.09111813 -0.42268413 -0.21844552 0.018288516 0.017863337 0.17080063 0.33303705 0.85497415 0.038716577 0.23770101 -0.29435593 0.058544602 -0.2062549 0.28366202 -0.18356 0.2956166 -0.09067766 -0.35965613 -0.049825177 -0.112419866 0.07042877 -0.7560332 -0.06754838 0.18010934 -0.06646497 0.0094107995 0.26805508 -1.2917832 -0.16672091 0.33786008 -0.2552425 0.038847484 -0.44049135 0.18862034 0.43038803 -0.5899752 0.15090245 0.22232217 -0.28852296 -0.03230845 -0.36639604 0.038938213 0.051732857 -0.0045314967 0.20297188 -0.059402548 -0.34984642 -0.26038432 -0.5006578 -0.006207316 -0.22122188 -0.062255487 -0.23530793 -0.21637827 -0.19035397 -0.018715711 0.058718313 0.08975285 0.10589711 -0.19602114 -0.090097435 -0.22964634 -0.40334082 0.111026235 -0.19216433 -0.28611702 0.20402367 -0.17334759 0.04101101 0.033063613 -0.036979076 -0.6209777 0.0064420495 0.32744223 0.47295463 0.09768436 0.097714834 0.14290184 0.017977638 -0.34923062 0.3490828 -0.34839705 -0.43711147 0.059404764 0.37925494 -0.043777145 -0.010516025 0.03757206 -0.38216618 -0.25235027 -0.61724794 -0.57044464 -0.13767093 -0.32784498 -0.34873986 0.5770023 -0.036514014 -0.1743335 -0.33095604 -0.056542594 -0.10667212 0.27973026 -0.14171389
1217 -0.22226365 -0.05682609 -0.13533403 -0.5480874 0.16420388 -0.7396506 1.1328086 -0.06088492 0.38710645 -0.22681367 -0.3310622 0.102106474 0.24711762 -0.22245759 -0.03951672 -0.059197925 -0.47759745 0.093435265 -0.14314201 -0.3370817 0.05370526 0.32256153 -0.08272954 -0.08648641 0.2454021 -0.16819672 0.07788686 0.5135502 -0.13780531 -0.550132 -0.36685672 -0.4875922 0.58493066 -0.3585991 0.13801117 0.14192794 -0.14669533 0.43169102 0.41154668 0.64499944 0.038328417 0.6522605 -0.34909388 0.43530443 -0.69817615 -0.25016272 -1.5336298 -0.11471556 0.0065980237 -0.22150661 0.122414626 0.07395618 0.27512768 -0.22452262 -0.42714053 0.331157 0.017158894 -0.26949018 0.47962195 0.3731495 -0.005452715 0.19244432 0.17107257 0.45185375 -0.51202786 0.053890236 0.016550992 -0.5161303 -0.23072322 -0.23237045 -0.035421126 0.09866402 0.34079626 -0.15994942 -0.4142635 0.67547274 -0.35488394 -0.07226777 -0.3001703 0.40744168 -0.22236528 -0.37173966 0.32670915 -0.2084122 0.377427 -0.07639198 -0.06295515 0.012924421 -0.13337345 0.19708543 0.23960546 -0.61816263 -0.13880536 0.30586275 -0.20794253 0.15419094 -1.0015563 0.57016206 -0.18618615 -0.6966364 0.6242333 -0.08080167 -0.060218412 -0.06897656 -0.5524055 0.4889553 0.13733754 -0.17507167 0.40887174 0.34532896 -0.07800187 -0.89042836 0.057487134 -0.66981786 -0.085638225 0.016535446 0.014998921 -0.09128898 -0.037417293 0.39670047 0.3433915 -0.24175549 0.2904135 0.20297684 -0.5489576 -0.1482805 0.7583277 0.43136454
421 -0.39151582 -0.2158082 -0.17235228 -0.07406799 0.00075112836 -0.13122343 0.079051845 -0.41049072 0.86169577 -0.03624284 -0.0097673815 0.089353696 -0.19023569 0.067248225 -0.41534844 -0.023140503 0.05126114 0.4559367 -0.03782722 0.11842647 -0.027718771 0.34432048 0.13145185 0.2674644 0.040703434 -0.2962522 -0.32235238 -0.30342278 0.2685093 0.034823485 0.2753938 0.1874394 0.5272003 -0.2916671 -0.012150685 -0.42507416 -0.16951466 -0.032184277 -0.048073158 0.41216892 -0.05399027 0.18709236 -0.04373533 -0.04519675 -0.12005358 -0.08139186 -0.89022225 -0.19449337 -0.14804813 -0.034062248 -0.19881864 0.3807949 -0.73800296 -0.0006096985 0.41782767 -0.1855464 0.13993822 -0.3486772 0.2222787 -0.08548957 -0.75056505 -0.17729202 0.17942367 0.20888764 -0.09059009 -0.043379717 -0.26762742 -0.10078338 -0.5457137 0.051449493 -0.2760845 -0.17066264 -0.22972307 -0.48068482 0.30299297 0.14481999 -0.33056247 0.056197703 0.09464261 -0.28463644 0.3394873 0.8330383 -0.14561456 -0.13303024 -0.20202112 0.2858067 -0.0078044385 0.05113789 -0.040131524 -0.31465456 -0.39128336 -0.0014189663 0.34117466 -0.46439686 -0.37716556 0.04072466 0.10338308 -0.08487618 0.2004065 0.20418657 -0.2022648 0.0097368285 0.16462319 -0.010011144 -0.1384356 -0.29793364 0.3219139 -0.10972765 0.19300225 1.0547165 -0.009796131 -0.021465061 0.36895424 -0.028985394 -0.0008944983 0.0407858 -0.16822346 -0.14509836 -0.4449594 0.36983633 0.36724982 0.030104471 -0.74728745 0.2795641 -0.4958862 0.0044173864 -0.21023776 0.12846206
1613 -0.22909324 -0.36848652 0.19615456 -0.26196414 -0.36846772 0.13419098 -0.072544575 0.24628367 0.10590023 -0.14282586 -0.028954128 -0.14885877 -0.060669255 0.027282951 -0.15218374 0.30912876 -0.12179878 -0.16604416 0.5966075 -0.1726547 -0.59086484 -0.42171136 -0.060233008 -0.18054962 -0.11291123 -0.002762047 -0.19634819 -0.048001584 0.3403436 -0.10073819 0.03646484 0.3022176 0.17894197 0.16663966 0.3143469 -0.07705938 -0.14215119 -0.29784864 0.1691191 0.06332372 -0.25003934 -0.5543165 0.5148899 -0.39801747 -0.12974682 0.09880831 -1.2235204 -0.2931661 0.29839978 0.32332042 0.4643754 0.09337107 -0.27657694 -0.081671014 0.35314077 0.3151365 0.36317748 0.27810946 0.37880188 -0.6086797 -0.44361636 0.18484785 -0.22546749 1.4402555 -0.33776045 -0.055242226 -0.4248764 0.31958124 0.089520484 -0.23041815 0.18310443 -0.2650312 -0.018821442 0.36642462 -0.72530305 -0.19108616 -0.2714429 0.4216311 0.5254377 -0.19447327 -0.20440748 0.25098252 -0.28357154 -0.52035636 0.3199013 -0.028664602 0.12241071 0.38146657 0.07592488 0.34841222 -0.10189844 -0.30595222 0.07214334 0.530493 -0.12915221 0.030531764 -0.55795586 -0.35436213 -0.16141023 -0.20812635 -0.32161507 0.14988644 0.11428521 0.2587431 0.03302132 -0.43647686 0.68430346 -0.16618659 -0.22795793 0.65849304 0.011756772 0.034024235 0.276165 0.23019546 0.16278008 -0.029904507 0.2329559 -0.12433666 -0.25372452 -0.48477858 -0.6855683 0.18229322 0.18323669 -0.13823637 -0.6391444 -0.37123126 -0.34794354 -0.36755213
1884 0.12651144 0.28028053 0.28309244 0.03374376 0.12647402 -0.17449781 -0.008390801 0.48050654 0.16828111 -0.0034618834 0.1752037 0.21420144 -0.45185798 -0.268647 -0.18955979 0.010117109 0.18158512 -0.35273448 -0.08736969 0.028380137 0.5289899 0.17529815 0.0028329077 -0.31999102 0.4270038 0.1441371 0.35603583 0.5036239 -0.5893218 -0.13141973 0.44654456 -0.07885571 0.8747074 0.3447189 -0.25141641 0.21087085 -0.012606758 -0.21253103 0.10416725 0.08660741 0.3548048 0.18799764 -0.11296399 -0.09820308 0.01471844 0.56752187 -0.44106525 -0.033794113 -0.28834394 -0.21708879 -0.25283086 0.1262239 -1.0081046 -0.42801127 0.22818652 0.28898072 0.31346416 0.0790786 0.08843873 0.18274876 -0.13213482 -0.38131148 0.39613393 0.15320835 0.12896538 -0.14113633 -0.09677774 0.05147378 -0.7943166 0.2069061 -0.041133706 0.12236507 -0.41202277 0.032428592 -0.23059957 0.08415056 -0.23801558 -0.09145343 -0.26751286 -0.25579658 0.7015078 0.17359422 -0.36286157 -0.20971037 0.20281874 0.08842365 0.021944024 -0.3485243 -0.36199164 0.08364444 0.49351433 0.3038552 0.42154884 -0.15373155 0.046503585 0.33661017 -0.5471513 -0.110359125 -0.09610386 0.2194549 -0.2905371 -0.14445911 -0.0012381196 -0.021278713 -0.09561973 0.043744657 0.45046705 0.040534504 0.2912797 0.5807632 -0.27617234 0.002895131 0.15760216 -0.019918889 -0.14962356 -0.09634169 -0.20231701 -1.2616948 -0.047499992 0.15194121 0.2598236 0.28423026 -0.16699322 -0.19576463 0.41452974 -0.19778337 -0.14738315 0.06799452
1729 0.0016718835 -0.1172431 -0.2046777 -0.10171946 0.43261153 -0.021570148 0.03414633 0.43441606 0.046207957 0.019830683 1.7535353 -0.08546343 0.15253736 -0.6380322 -0.10808228 -0.5556028 -0.19083683 0.8523698 0.1330577 -0.38775006 0.27072042 0.16239372 -0.49705136 0.051045652 -0.21882147 -0.033542074 0.1394156 -0.06613736 -0.121291414 0.03192342 -0.21582481 -0.21776854 0.8448373 0.12933774 -0.06544765 -0.36776614 -0.20644647 0.14068939 0.01538631 0.24632463 -0.039443035 -0.14849468 -0.23893234 -0.025763163 -0.10684999 0.028195247 -1.7095668 0.124218576 0.00025056116 -0.33718818 0.043309506 0.107013136 -0.60634905 0.054479107 -0.11550888 -0.47964814 0.060788725 0.212673 -0.06838589 -0.22563449 0.28795946 -0.39607364 0.06805834 1.0281762 0.2713744 0.15023907 0.20379362 -0.18837272 0.0037771699 0.09121012 0.49029198 -0.34777194 0.34136498 0.047460828 -0.03434077 0.1333771 -0.19119707 0.0129349725 -0.23039599 0.036783196 -0.4827806 -0.51506954 0.35745963 -0.077322826 0.09134292 -0.09253008 -0.47876945 -0.26390976 0.51433897 -0.024115603 0.7492926 -0.3933318 -0.34160778 0.1015163 -0.15032396 -0.30674404 -0.05321348 0.9089985 0.12021694 0.22924684 -0.20951852 -0.11279647 0.45311284 0.14735387 -0.52271646 -0.3936075 -0.04082586 0.5789778 -0.008972838 0.61920476 0.030815229 0.07031419 0.11782418 0.09886575 0.042321794 -0.04908177 -0.75378466 -0.23074439 -0.24113652 -0.05021855 0.12019852 -0.32840225 -0.28636903 -0.5675158 0.10149635 -0.059754398 -0.13106255 0.017746704
1225 0.0894354 -0.10131614 0.38283104 0.20586583 -0.33453342 0.2542243 0.02073288 0.07658165 -0.020292437 -0.37187374 0.008512337 0.33882484 -0.07997483 -0.27150145 -0.022820773 -0.23258388 -0.37678283 0.31065434 0.17810747 0.22638501 0.21212773 0.54142135 -0.03147819 0.27948207 0.28818804 -0.16666068 -0.3825681 0.179753 -0.012223588 -0.3999665 -0.07648465 -0.04797293 0.33919352 -0.5692507 -0.1349248 0.19187023 0.033458672 -0.14379615 -0.010749113 0.10073088 0.16770281 -0.18325588 0.43874204 -0.068362325 0.095815465 -0.086840056 -2.0091662 -0.05278942 -0.17205682 0.1346024 0.024394307 -0.16246209 0.24213435 0.11590701 0.21700943 0.06637778 -0.098048426 -0.051352065 -0.04803896 0.12024723 0.48459804 0.13175277 -0.017403055 0.0044368897 0.39225873 -0.24322943 0.27406895 -0.00968944 -0.12506646 0.0069595026 0.30294958 -0.028250331 -0.14997716 0.1273735 0.4379455 0.19368297 0.049880214 -0.40595457 -0.03920664 0.2023777 -0.027954068 -0.11130785 0.4339757 -0.43244675 -0.2314866 0.121830106 -0.13219334 -0.05747445 0.60902363 -0.14276919 0.11348596 -0.115379795 0.00848126 0.39650714 0.09438884 0.0623898 0.20484895 0.08451229 -0.53077906 -0.44959417 -0.24920659 -0.46434537 -0.06885923 -0.06186893 -0.39762226 -0.11139054 0.37211877 0.07077605 0.44926792 1.817188 0.372809 -0.39872563 -0.14003666 -0.009972876 0.504479 0.1477994 0.24327548 0.031360663 -0.5986462 0.19356988 1.0620815 -0.365582 0.42388475 0.33947954 0.15683974 0.36430317 -0.19567494 -0.204192
500 0.17047396 -0.12511007 -0.45315763 0.5972961 -0.5132534 3.658881e-05 0.220713 -0.27449426 -0.052301794 0.11047548 0.47963732 0.029812258 0.06359753 0.27705592 0.11706366 -0.3019301 0.031682573 -0.13059832 -0.3253576 -0.11248219 0.53646386 -0.024770577 0.20474608 0.46929196 -0.42012668 0.112165734 -0.38930166 -0.11973289 0.46054238 -0.20193265 0.9024876 0.14694516 0.9904177 0.407918 -0.043289907 0.38076282 0.37948713 0.16099879 0.23805569 0.3095847 -0.17201681 0.08607765 -0.22261421 0.4472658 0.14498083 0.19120212 -0.47170478 0.30106303 0.2896866 -0.2857633 0.06163056 0.20338431 -1.434609 0.4388699 -0.31724334 -0.1634597 -0.25628278 0.041283045 -0.122995175 0.1973138 0.1445212 0.29463825 0.10678601 0.9174214 -0.31684303 -0.27837774 0.0040759365 -0.05945486 0.004355127 -0.24180792 0.01817087 0.3637758 0.28848577 -0.37237594 0.27168423 -0.7602903 -0.24974605 -0.18005416 -0.2748483 0.014020583 0.05186333 -0.23503582 -0.011091388 0.18307045 -0.45638686 0.35624763 0.20897263 0.17663495 -0.03509348 -0.44497395 0.33420044 -0.025759215 0.115811944 -0.36126763 0.56968963 0.20834647 -0.03057154 0.12897396 -0.25471255 -0.11989832 -0.39821428 0.90642816 -0.02034336 0.35646495 -0.5807033 -0.29710045 -0.7249573 0.46462977 0.08835082 0.42725414 -0.21579129 0.12896751 0.0037020424 0.17242877 -0.0722193 0.07658857 -0.17590672 -0.33523563 -0.018618153 -0.15591365 0.026899174 -0.040856604 0.011167115 -0.12573989 -0.32797253 0.12683597 0.17337763 0.37491685
1568 0.31625646 0.50264406 -0.48162243 -0.35577145 -0.016793529 -0.08148033 0.10150982 0.562397 -0.2901469 0.32369798 -0.088335164 -0.43254548 0.1300556 0.16090101 0.037346944 -0.08008431 0.33500314 0.10379122 0.7226672 0.11421035 -0.54711336 0.46699628 -0.09477666 0.20559134 0.30297548 -0.2459627 0.18537319 0.6063609 0.4239957 -0.011720315 -0.02530249 -0.19378118 -0.059492674 0.28334847 -0.098825686 -0.32717824 -0.16613051 -0.14675131 0.0008707142 -0.033378508 -0.25427574 0.087177895 0.14041266 -0.18661684 -0.20424859 0.13681872 -0.79161036 -0.24510926 0.3370931 -0.169341 0.19269185 -0.327624 -0.40436354 -0.10136885 -0.09691015 -0.0030799247 0.13792162 -0.30158332 -0.13717882 -0.010523591 -0.088851705 0.0011791929 -0.23496391 -0.36371043 -0.2516713 0.24039873 0.30060267 0.50072855 -0.33568028 -0.51942694 -0.46234104 -0.38244817 0.2846628 -0.00954698 -0.1842673 -0.4117565 0.043745033 -0.13084204 0.15485913 0.17697322 0.13352948 0.22998406 0.23010877 0.2563884 -0.33368772 0.26529285 -0.30095962 0.40428942 -0.27136195 0.3108081 0.5684592 -0.4188425 0.0840658 0.24143723 0.092888616 0.03633294 -1.1434141 -0.04323899 -0.29055077 0.11063467 0.33953086 -0.06254978 -0.22724909 0.7100864 -0.22245347 0.02520481 0.06552194 0.11828156 -0.15908645 0.82062465 -0.15850486 -0.6075255 0.036681287 -0.4241401 -0.4375765 -0.7456484 0.019437011 -0.27375713 0.3463651 0.041339394 -0.63497955 -0.16175497 -0.094935745 -0.21163824 -0.23221214 0.4532922 -0.44585446 -0.06508994
951 -0.3185412 0.32463828 0.043249812 0.059910093 -0.37666452 0.33470175 0.10979295 0.40610462 0.34404123 -0.14548819 0.8776498 -0.27506664 -0.24820665 -0.48573717 0.21880482 0.036761563 0.41200307 -0.094899215 0.28359234 0.0909927 -0.3119931 0.40296802 -0.13058376 0.46504468 0.085374594 0.4438229 0.38556352 -0.17068101 -0.43940854 0.2662674 0.4922114 -0.0055382946 0.22638881 -0.06365728 -0.230311 -0.37541816 0.6090153 0.0074840635 0.48896718 0.16072895 0.1119837 -0.14213814 -0.14964217 -0.07631185 0.10112039 -0.05742514 -0.9582058 -0.46004042 -0.05291775 0.28502762 0.052089952 -0.06407095 0.13865463 -0.050782815 -0.10756454 0.12274773 -0.18646926 0.6255265 0.26591602 0.756027 0.036824692 -0.050451875 0.10734482 0.45615458 -0.17654721 0.24401717 0.73201966 -0.45173973 0.071606256 -0.7592972 0.0034113384 -0.042630788 -0.046679225 0.06493823 -0.03893731 0.004948851 -0.030809976 0.3435421 0.25648406 0.088663995 0.196382 -0.15933937 0.28536177 -0.42122626 0.36750093 -0.13117975 0.059829272 0.13485838 0.07879438 -0.4476733 0.67946947 0.25376654 -0.001250538 -0.3409997 -0.027194759 0.30155918 -0.28430906 0.025774537 -0.7328493 -0.16716097 -0.22361942 -0.544689 -0.109633625 0.10856739 -1.1102098 -0.38614175 0.18371008 -0.042809013 -0.2516139 0.10690087 -0.19853371 0.27983862 -0.04839854 0.16532867 0.2672182 0.35080248 -0.0919028 -0.01596957 0.19652592 0.34041163 0.1961123 0.40990847 0.36371168 -0.4406441 0.15611692 0.10404071 0.15391834 -0.11694625
478 -0.031643804 -0.02808493 -0.026495144 0.26258102 0.15389198 -0.055830296 0.26153925 0.4326548 0.15736692 -0.15932171 -0.36668804 0.46005774 -0.029084729 0.33158782 -0.1313935 -0.41205528 0.668442 0.2366316 0.039810926 -0.016050734 -0.8365351 0.3223388 0.029728493 -0.064340875 -0.23587792 0.2710286 -0.102864034 0.13188012 0.2187806 -0.07945571 -0.5819913 0.21094264 0.18063614 0.0201132 0.16011976 -0.01865025 -0.19332838 -0.75438243 0.037422016 -0.47221863 0.27362067 0.16577436 -0.010955845 0.255936 0.4808454 0.2501655 -0.08775472 -0.07198017 -0.011500462 0.100409165 -0.051634476 0.10557052 -0.20652251 -0.36499536 0.32529402 -0.22919711 -0.24685259 -0.0073876907 -0.031410813 -0.07994814 0.547416 0.0541386 -0.36197823 0.0020676614 -0.19751464 0.19415453 -0.030822271 -0.40940267 -0.16877085 0.19824772 0.25729233 -0.12363511 0.14688452 -0.015517304 0.30947107 -0.3720335 -0.14320189 0.07435133 -0.14204219 0.010758043 -0.09693146 0.009455682 -0.3543517 -0.23723675 -0.26406822 -0.31735122 -0.07282768 -0.06398941 -0.19077158 -0.25151885 0.63243437 -0.4735001 0.14240731 -0.1540171 0.252434 -0.140497 -0.032106422 0.42863262 0.21154714 0.018924475 -0.32374752 -0.0867293 -0.18168038 0.14983791 -1.2032324 -0.25673825 -0.25825152 -0.41640168 -0.2995746 1.0418887 -0.8272366 -0.042254746 0.08645665 -0.32387885 0.13651484 0.14477965 0.48276943 -0.8607535 0.08313583 -0.03637295 -0.08159791 0.35761517 0.24140064 0.20949946 0.39835557 -0.5162294 -0.27228752 0.0032983324
1808 -0.33269215 0.30469012 0.3647126 -0.7139441 0.34596655 -0.25450465 0.6290983 0.15891023 0.06484821 -0.19704664 0.3566098 -0.09602779 -0.2472423 0.04354404 -0.4227023 0.31211525 -0.040776655 -0.22382498 0.23993844 0.08872879 -0.7255893 0.42379624 -0.14327607 0.18361372 0.41828588 0.056723278 0.12320803 0.09021826 0.26711908 -0.4338386 -0.48571813 0.08259858 0.5559805 0.08812718 0.5184681 -0.24818404 -0.026972348 0.099614106 0.14293383 0.5309074 -0.0069901496 0.4279375 -0.40194422 0.3005593 0.037481308 0.3086668 -0.9879876 0.35459313 -0.15778013 0.18013835 0.07567565 0.153844 0.011791682 0.097156554 0.06724285 0.38486344 0.038890623 -0.3249877 0.5283596 -0.07259728 0.2033049 0.20161445 0.17112531 0.59444094 -0.01983927 0.13294333 0.039861668 -0.08235726 0.5734513 0.009038815 -0.17500916 -0.13454866 -0.2981022 0.11924775 0.3157982 -0.27959356 -0.2792794 -0.5240706 -0.0695821 -0.47592357 -0.1733224 0.33480746 0.0069638663 -0.06455327 0.44261205 0.27237728 0.35246083 0.30721426 0.26330128 -0.14629386 0.14375868 -0.3308322 0.0019428593 -0.68859947 -0.100869276 0.24746247 -0.2604011 -0.3876742 -0.3887047 0.207182 0.15412448 -0.3559721 0.2648236 -0.28209576 0.4251994 -0.005546528 -0.2283209 0.15579407 -0.07821841 0.29373518 0.23378551 0.17301928 -0.117136866 -0.238985 0.22721902 -0.12239775 -0.21994367 -0.57815975 0.073782004 -0.1032362 0.09244975 0.052430864 0.1538019 0.35844404 -0.16452152 -0.46701986 -0.37255237 0.24513061
1511 0.5749237 -0.10688863 -0.035869326 -0.370171 -0.21703191 -0.4073231 -0.6333279 0.17124547 -0.2566484 0.1836941 0.034105334 0.30206177 -0.101454064 -0.17711163 0.23115358 -0.07929054 -0.59683233 0.47722235 -0.115995124 -0.53872997 -0.10635567 0.8146768 0.18061462 0.32207528 -0.27006024 -0.024140302 -0.41053116 0.027809381 0.57181185 0.06416806 -0.38036445 -0.26303542 0.26352897 -0.080387354 -0.72643256 -0.069599584 -0.2923993 -0.3139149 0.15504527 0.004130188 0.021923736 0.00832867 0.050090265 -0.41049367 0.3079689 0.22492054 -1.1269343 0.29593974 0.017558176 0.16949987 0.20821066 -0.15783253 -0.013523652 0.04730925 0.19372964 0.1336566 0.16530848 0.4593723 0.048811946 -0.051061872 -0.29277477 -0.31617635 0.055793025 0.85222924 0.15790433 -0.3037674 -0.3772464 0.011724056 -0.13568927 0.07160609 -0.013099476 -0.79271483 0.019670805 0.34053653 0.44283897 -0.06918395 -0.08888114 -0.117802516 -0.47647685 -0.50665945 0.26081273 0.1732873 0.13321973 0.012012217 0.2957238 0.084614046 0.35199985 0.122442275 -0.4578479 0.22549862 -0.094744004 0.15803932 0.26995802 0.6402033 0.09294593 0.17778927 -0.48123303 -0.07419776 0.36412892 -0.15472552 -0.16584238 -0.19155467 -0.025271324 -0.18322171 -0.19320275 0.0132353455 0.25926474 -0.2932661 -0.5825341 0.58899355 0.1531985 -0.02383317 -0.30713776 -0.34150136 -0.39023298 -0.027624983 0.3113124 0.17699051 -0.6305543 -0.007954509 0.11775063 -0.1179074 -0.11671373 0.009804245 -0.1020608 -0.2911678 0.36066902 -0.03787134
265 -0.06809301 -0.31643248 -0.0888757 0.19650435 0.09030569 0.13363013 0.34551054 0.106248595 0.16272613 -0.113755144 0.17843394 -0.14508878 0.065412365 0.104715064 -0.14047427 0.27088696 0.11704312 0.12830353 -0.2774951 0.09728832 -0.29859397 -0.25444663 -0.11827979 -0.16862936 -0.0813121 -0.4096953 0.3550762 -0.020760857 -0.06137967 -0.34511858 0.54771674 -0.30205417 0.6094386 0.32610068 -0.051063858 -0.15709536 -0.16944388 0.081973545 0.12500072 0.14635725 0.086486675 -0.049823266 -0.16243173 0.020141473 0.15418817 -0.27577615 -0.106220216 -0.4246078 0.18695134 -0.046502046 -0.31844842 -0.08461131 -1.0227001 0.09569104 -0.012322454 0.18622135 0.05633456 0.31829336 0.17911169 -0.038140014 0.08177954 0.22714399 -0.04493727 0.62924933 -0.0975377 0.22848657 0.3452107 -0.016228173 -0.33152992 0.57809794 0.33175766 -0.35268724 -0.07724755 -0.25574344 -0.4166779 -0.090216756 0.24368398 0.34719875 0.02365334 -0.54958403 0.03542805 -0.09722096 0.0680879 0.30640143 0.12375429 0.061044626 -0.119700864 -0.054638997 -0.45242542 0.560647 0.52947056 0.09570446 0.038975 0.026822211 0.15152386 -0.13539837 -0.07990088 0.019317169 -0.423029 0.39028564 -0.19934322 0.41761324 0.016015725 -0.13464136 -0.17426038 -0.33213896 -0.07521847 0.035011157 0.37164915 0.34018475 -0.19397242 0.0851156 0.1099226 0.122712724 -0.24865116 0.16305698 0.22693382 -1.1058958 0.039719623 -0.4114542 1.1703554 -0.20948154 -0.059672914 0.090310305 0.24929918 0.25678462 0.1625915 -0.3368601
958 -0.1672447 -0.122413814 -0.13041967 -0.3151906 -0.38168842 -0.48349872 -0.2504525 0.32486153 -0.19082633 -0.15312286 -0.07608424 0.36882803 0.7795237 -0.16936384 0.7842223 -0.028063796 -0.17449595 -0.28822616 0.80386156 0.16580081 -0.1439774 0.877383 -0.2069198 0.1056229 0.19932985 -0.42908922 0.5372096 -0.20144144 0.3119683 0.78460664 -0.47173113 -0.1073377 0.29237437 -0.03853672 0.60146374 -0.26176664 -0.10200056 -0.017014192 -0.04933602 -0.2933559 -0.30005127 -0.13477568 0.23626693 -0.13885777 0.06880694 0.19905958 -1.4549834 -0.27553076 0.17355703 0.49757752 -0.07467255 -0.50655615 -0.3646293 0.29629117 0.30530652 -0.05932608 -0.6162187 0.29281688 0.3145783 0.06575041 -0.4814751 -0.1563398 -0.051646415 -0.21155407 -0.29631907 -0.20726396 -0.19068873 -0.5015617 0.04154628 -0.026054045 0.47833782 -1.5718356 0.69283795 -0.28718126 -0.022700066 -0.33787253 0.28514126 -0.12515588 0.24630636 -0.09102796 0.18991485 -0.06599707 0.019886248 -0.000752414 0.020446517 -0.17112714 0.014340879 -0.36425856 0.0643377 0.022070695 0.60645956 0.09460554 0.03904479 0.28156546 -0.12748487 -0.12645663 0.3106099 0.014102805 0.36316532 0.45966485 -0.32650107 -0.3661091 0.033823024 0.18853526 -1.0741681 -0.35015604 -0.28150976 -0.82751185 -0.15473568 0.3512395 0.31113365 -0.4110355 0.029798718 0.19248255 0.060515247 -0.081810094 0.49435887 -0.120061226 0.11279309 0.35889322 -0.028758308 -0.34949175 0.1491158 -0.3687665 0.090734124 0.4629948 0.33700174 -0.28881085
2339 0.50419664 0.12033214 0.3801642 -0.053228047 -0.233018 0.19740911 0.13838372 -0.14037086 -0.18193096 0.29136908 0.0900743 0.32353562 -0.3445306 0.40287337 -0.3158021 0.07587644 -0.08994138 0.34213966 0.5444945 -0.69408405 -1.1663165 -0.0059136623 -0.25520018 -0.38412973 -0.6112827 0.1598787 0.21792994 0.17182195 -0.4618033 0.123947315 0.4251385 -0.05399689 -0.6406789 0.7334657 0.106640175 0.49034697 0.1259812 0.11493842 0.08820896 0.7048649 0.16279998 -0.13207813 -0.2257196 -0.07879752 -0.016576836 -0.08905901 -2.035828 -0.117878854 0.05053621 0.08011379 0.3580502 0.2808602 -0.4559583 -0.079480134 -0.038909886 -0.22959857 0.20020452 0.19744852 -0.09640567 -0.07522806 -0.176275 -0.100584105 0.23456347 0.53168637 -0.3594834 0.23894356 0.28030235 -0.077009246 -0.26397237 -0.1217421 -0.29539487 -0.5726573 0.1637604 0.040326584 -0.4590006 -0.15327767 0.19280113 -0.37955692 -0.037576843 -0.01613177 -0.007338057 -0.51445776 -0.4028328 -0.039484784 0.1214717 0.17758426 0.044241324 -0.11527607 0.17228353 -0.21737105 -0.06899765 0.3037565 -0.06384412 0.18144752 0.15905136 -0.035334975 -0.2923818 -0.43792465 0.07441573 -0.1948157 0.07294011 0.082568005 -0.077138565 0.21405917 -0.31507653 -0.08879035 -0.6675778 0.253571 0.046960328 0.23527563 0.46833485 -0.09589629 -0.35084465 -0.45140573 -0.2404147 -0.05022494 0.21283962 0.5427507 0.11305463 0.23403533 -0.01765867 -0.36199215 -0.89554995 -0.2418468 -0.2679101 0.5431315 0.45015326 -0.6480578
