2405 128
1397 0.0 1.694485 0.0 0.0 0.0 0.0 0.0 0.0 0.0 0.0 0.0 0.0 0.0 0.3769483 1.2053447e-09 0.0 5.650558e-36 0.21453695 0.0 5.7828754e-24 0.103355415 0.12348807 0.0 0.0 0.0 0.0 0.0 0.0 0.0 0.0 0.0 0.0 0.0 0.0 0.8940196 0.0 0.0 0.0 6.965017e-07 3.2142723 0.0 2.1446486 0.0 0.0 0.0 5.6658247e-14 0.0 0.0 0.0 0.0 0.0 0.05813873 8.581943e-27 7.5597404e-07 0.0 0.0 7.611813e-31 0.0 0.0 0.0 0.0 0.0 0.0 8.370458e-15 0.0 0.0 0.0 0.0 0.0 0.0 0.0 0.0 0.0 0.0 0.0 0.0 0.0 0.0 0.0 0.0 1.630869 0.0 0.0 0.0 0.01966885 0.0 0.0 0.0 0.062332116 0.0 0.0 0.0 0.0 0.0 0.0 0.0 0.064385615 0.0 0.030409638 0.0 0.032076146 0.0 0.0 0.0 0.0 0.0 0.0 2.4079907 0.0 0.0 0.0 0.0 1.9480598e-05 0.0 0.0 0.0 0.0 0.0 0.0 0.0 0.0 0.06870785 0.0 0.0 0.0 0.03370714 0.0 0.0
1470 0.0 1.6462312 0.0 0.0 0.0 1.8669141e-11 0.0 8.196066e-23 0.0 0.0 0.36720952 0.0 0.0 0.0 0.1448514 0.0 0.0 0.20822252 0.0 0.0 0.22621007 0.3464633 0.0 0.0 0.0 0.0 0.0 0.0 0.0 0.0 0.0 0.0 0.0 0.0 0.0 0.17550208 0.0 0.0 0.18925387 3.227498 0.0 0.0 0.0 0.0 0.0 0.0 0.0 0.0 0.0 0.45130137 0.0 0.0 0.0 1.1974298e-26 0.0 0.0001331013 2.1147576e-25 0.0 0.0 0.0 0.0 0.0 0.0 0.8128485 0.0 0.0 0.0 0.0 0.0 0.0 0.0 0.0 0.0 0.0 0.0 0.0 0.0 0.0 0.0 0.0 5.1837494e-24 0.0 0.0 0.0 0.81853545 0.0 0.0 0.0 0.0 0.0 0.0 0.0 0.0 0.0 0.0 0.0 0.036601026 0.0 0.0 0.0 0.0 0.16548933 0.0 0.0 0.0 0.0 0.0 0.0061319773 0.0 0.0 0.0 0.0 6.86157e-09 0.0 0.0 0.0 0.0 0.0 0.0 0.0 0.0 1.6978076e-27 0.0 0.0 0.0 0.0 0.0 0.0
362 0.0 0.7112696 0.0 0.0 0.0 0.0 0.0 0.0 0.0 0.0 0.0 0.0 0.0 0.0 0.015511972 0.0 0.0 0.0 0.0 0.0 0.0 0.0 0.0 0.0 0.0 0.0 0.0 0.0 0.0 0.0 0.0 0.0 0.0 0.0 0.0 0.0 0.0 0.0 0.0 0.005470007 0.0 0.0 0.0 0.0 0.0 0.0 0.0 0.0 0.0 0.0 0.0 0.0 0.0 0.0 0.0 0.0 0.0 0.0 0.0 0.0 0.0 0.0 0.0 0.37992594 0.0 0.0 0.0 0.0 0.0 0.0 0.0 0.0 0.0 0.0 0.0 0.0 0.0 0.0 0.0 0.0 0.0076718037 0.0 0.0 0.0 0.0 0.0 0.0 0.0 0.13777201 0.0 0.0 0.0 0.0 0.0 0.0 0.0 0.0 0.0 0.0 0.0 0.0 0.0 0.0 0.0 0.0 0.0 0.0 0.0 0.0 0.0 0.0 0.0 0.0 0.0 0.0 0.0 0.0 0.0 0.0 0.0 0.0 0.028298762 0.0 6.898277e-06 0.0 0.0 0.0 0.0
226 0.0 0.19067653 0.0 0.0 0.0 0.0 0.0 0.0 0.0 0.0 3.3940911 0.0 1.0253062 2.0317829 1.492887e-05 0.0 4.8082954e-19 0.0 0.0 0.49291268 0.0 6.199847 0.0 0.0 0.0 0.0 0.0 0.0 0.0 1.8877547e-07 1.3881384e-27 1.4491072e-28 0.14084429 0.0 5.12752 2.1841141e-14 2.1655867 1.1378587e-16 0.15593897 1.2109519e-13 0.0 0.0 0.0 5.281099e-32 0.09795117 5.9594345e-07 0.0 9.332293e-28 0.0 0.0 0.0 0.0 0.0 3.0746608 0.0 0.0 0.0 9.339928e-11 0.0 1.2930575e-19 0.0 0.0 0.0 0.000109497974 0.0 6.3502176e-28 1.3083617e-19 0.0 0.0 0.0 0.00021437833 0.0 0.0 9.865875e-36 0.0 0.0 3.1545796e-34 7.536632e-06 0.022903034 0.0 0.0 0.0 3.418618e-15 0.0 0.0 0.0 0.0 0.0 8.18356e-29 0.0 0.0 0.0 2.7002741e-15 0.0 0.0 0.0 0.0 0.0 4.8167454e-14 0.0 4.4378847e-28 0.0 0.0 0.02572236 2.2695804 0.0 0.0 4.2747483 0.0 0.0 1.9043788e-19 1.5279857e-06 0.0 0.0 0.50392324 0.0 0.0 0.0 5.045239e-28 0.0 2.4249406 1.3976338e-15 1.7497294e-33 0.0 0.0 0.18127438 0.0 1.133447e-33
750 0.0 3.1105473 0.0 0.0 0.0 5.651588e-12 0.0 0.18533882 0.0 0.0 0.0 0.0 0.0 0.13255882 4.0433588e-15 0.0 0.0 0.12274161 0.0 0.0 0.14350922 0.0 0.0 0.0 0.0 0.0 0.0 0.0 0.0 0.0 0.0 0.0 0.0 0.0 0.0 0.0 0.0 0.0 0.0 2.8809712 0.0 0.0 0.0 0.0 0.0 0.0 0.0 0.0 0.0 0.90963775 0.0 0.0 9.012132e-28 0.0 0.0 0.0 0.043133352 0.0 0.0 0.0 0.0 0.0 0.0 0.6225571 0.0 0.0 0.0 0.0 0.0 0.0 0.0 0.0 0.0 0.0 0.0 0.0 0.039404098 0.0 0.0 0.0 1.6305609 0.0 0.0 0.0 1.7824753e-12 0.0 0.0 0.0 0.0 0.0 0.014393887 0.0 0.0 0.0 0.0 0.0 0.2506746 0.0 0.76751196 0.0 0.0 0.0 0.0 0.0 0.0 0.0 0.0 0.0 0.0 0.0 0.0 0.0 4.492766e-25 0.0 0.0 0.0 0.0 0.0 0.0 0.0 0.0 0.0 0.5222397 0.0 0.0 0.0 0.0 4.834666e-26
489 0.0 0.0015890074 6.1129785e-14 6.498006e-12 9.421143e-13 2.1120849e-08 1.6237518e-09 8.6864175e-13 1.5768195e-12 1.2033548e-10 4.4811514e-08 3.845723e-08 1.6766533e-12 4.4548295e-13 35.56864 2.0422071e-07 0.0 1.33619105e-05 0.010529397 0.0009658035 0.00028391503 1.2380721e-17 6.8746124e-09 1.134458e-26 2.9137284e-06 4.3944264e-32 6.3050084e-06 1.6194347e-13 0.0059446283 1.193984e-20 1.1890053e-19 1.1360543e-14 3.6420584e-05 6.804663e-06 0.0 2.2163543e-22 2.7228992e-15 1.5568503e-09 0.0 0.5604722 7.332004e-07 7.235493e-13 0.1484989 7.894848e-05 2.9104165e-06 0.0 7.133316e-09 1.4332812e-15 9.833763e-06 5.917099e-06 0.060526613 2.2206355e-10 8.5745637e-07 0.0 1.1712938e-09 0.00017526824 0.00022731177 1.5253032e-16 1.165774e-13 2.1199977 1.816245e-08 5.1288787e-12 6.288822e-09 5.116379e-15 5.6798973e-14 5.15066e-18 2.907552e-09 2.8425434e-06 0.0 2.6714628e-10 0.0636786 4.251734e-12 6.178963e-15 1.9602049e-26 2.7927774e-35 1.6502268e-10 5.699201e-13 2.3695619e-21 4.455147e-12 0.0 1.1409231 9.525698e-12 1.4968215e-07 2.0282245e-18 0.00042376766 0.01370141 0.0 2.7501952e-28 9.99618e-07 5.971253e-17 0.40465793 0.004623228 0.0 2.1861512e-12 1.7416575e-06 7.420583e-18 0.0013750908 0.0 9.26272e-08 2.6898052e-17 1.8062468e-17 0.009743419 2.641422e-05 4.219341e-15 0.0 0.043521628 1.5893876e-12 3.1726465e-11 8.616643e-16 1.27274925e-05 2.7840005e-13 0.0 0.019401753 9.2042996e-05 0.0 0.051256604 2.306838e-08 0.18574649 0.005760131 3.0002235e-07 3.6971983e-13 8.172645e-27 6.096281e-06 0.09205302 3.6492296e-05 1.0909846e-33 1.3690623e-22 0.0017425787
1462 0.0 0.27413538 0.0 0.0 0.0 0.0 0.010385151 0.0 0.0 0.0 0.09878633 0.0 1.7603315 0.0 0.0 0.0 0.0003507315 0.0 0.0 0.0 0.0 0.0 0.0 0.0 0.0 8.4358165e-22 1.24292455e-05 0.0 0.0 0.1252556 0.0 3.7119586e-22 1.0364977 0.0 2.4210101e-17 0.0 0.0 0.0 1.2816134e-15 1.4262193e-12 0.0 2.0215788 0.0 0.0 0.0 1.14668e-22 0.0 0.0 0.0 0.0 0.0 0.0 2.3794913 4.134629 0.0 0.0 0.0 0.34652176 0.0 0.0 0.0027706004 0.0 0.0 0.023820471 0.0 0.0 0.0 0.0 0.0 0.0 0.080794126 0.0 0.0 0.0 0.0 0.0 1.5221606e-14 0.0 0.0 0.0 0.0 0.0 0.0 0.0 0.0 0.0 0.0 0.0 0.0 0.0 0.0 0.0 0.0 0.0 0.0 0.0 0.0 0.0 0.0 0.0 0.70693713 0.0 0.0 0.0 5.103802 0.0 0.0 3.051054 0.0 0.0 1.4194365 1.392559e-06 0.0 0.0 1.2351585e-24 0.0 0.0 0.0 9.9769125e-08 0.0 7.559815e-23 2.612536e-19 0.0 0.0 0.0 0.0 0.0 0.0
1713 0.0 0.0 1.1430602e-18 0.0 0.0 0.0 0.0 0.0 0.0 0.0 0.0 0.0 0.0 0.0 1.14865574e-26 0.0 0.0 0.0 0.0 0.0 0.0 0.0 0.05373712 0.0 0.0 0.0 0.0 0.0 0.0 0.0 0.0 0.0 0.0 0.0 0.0 0.0 0.0 0.05095648 0.0 0.0 0.0 0.0 0.0 0.0 0.0 0.0 0.0 0.0 1.2700266e-10 0.0 0.006208906 0.0 0.0 0.0 0.0 0.0 0.0 0.0 0.0 0.0 0.0 0.0 0.0 0.0 0.0 0.0 0.0 0.0 0.0 0.0 0.0 0.0 0.0 0.0 0.0 0.0 0.0 0.0 0.0 0.0 0.0 0.0 0.0 0.0 0.0 0.0 0.0 0.0 0.0 0.0 1.7599508 0.0 0.0 0.017523574 0.0 0.0 3.0393066e-18 0.0 0.0 0.00048652594 0.0 0.0 0.0 0.0 0.0 0.0 0.0 0.0 0.0 0.0 0.0 0.0 0.0 0.0 0.0 0.0 0.0 0.0 0.0 0.0 0.0 0.0 0.0 0.0 0.0 0.0 1.6925697 0.087800324
393 4.175142e-07 5.2939265e-17 0.012809212 0.003018971 0.00352404 7.664781e-10 2.537956e-11 6.2530185e-09 2.7331459e-17 1.05375306e-16 4.4407283e-08 2.0552391e-13 5.401454e-35 0.00015397454 1.1582259e-05 1.037192e-09 0.0 0.00063391717 2.38482e-06 4.978593e-06 9.087371e-07 0.0068736305 4.7482225e-26 2.2039713e-13 6.839753e-17 1.1527276e-07 3.795826e-12 3.1426047e-05 0.0220814 2.690392e-19 0.00092369743 5.0503194e-14 0.0060820156 1.1365332e-09 9.7554045e-09 2.244914e-12 8.5298144e-11 34.549107 7.154043e-32 4.3760105e-07 0.0022506302 8.887262e-20 2.556826e-11 3.7699298e-08 0.00074798305 3.0139822e-09 0.0006222595 5.3112373e-32 0.40318385 0.012430954 2.9141058e-09 6.7383083e-12 3.921572e-13 2.3300662e-07 0.0036351427 0.0008052795 0.0011088554 3.9234265e-11 0.015091127 4.4230404e-14 5.5120655e-09 0.5948025 1.9902399e-19 1.1289885e-10 1.3682865e-07 0.014787649 1.4890452e-05 0.000813973 1.493232e-08 0.28953928 1.18089984e-20 2.8754136e-11 0.021517476 0.0008877971 0.00081468094 6.545408e-05 9.518134e-13 0.00030481798 2.23581e-05 0.15394977 1.5338642e-27 2.6881775e-05 0.24323419 0.035246905 3.690705e-16 1.2005849e-08 0.0009939983 4.922564e-27 4.094962e-09 1.5140754e-06 0.035280447 3.8117155e-11 0.69004595 1.3791253e-06 0.00173023 3.066252e-06 0.02715952 0.0046308325 2.6245823e-07 4.973433 5.212084e-07 7.794544e-26 3.8221296e-17 2.138963e-05 0.0 1.8524514 1.4741253e-05 2.028043e-14 3.2757198e-05 7.859612e-10 0.0 2.7511885e-20 0.010094181 6.1316625e-16 4.544349e-22 9.541007e-12 8.313894e-06 0.1757024 5.2280603e-11 2.844683e-12 7.738152e-09 1.692034e-09 8.534697e-07 9.830549e-06 3.3682712e-09 2.200692e-13 0.7615196 2.0499792e-05
445 1.0628727e-05 3.971854e-12 0.0008885028 4.5143786e-16 5.30534e-10 0.00023679005 1.801245e-16 0.041576236 2.1437104e-13 0.0013826455 3.1598582e-09 3.019535e-22 8.500606e-13 2.493798e-10 1.910528e-05 7.0782784e-07 3.7414245e-09 1.7070161e-09 0.00016183709 1.8711346e-07 2.0855591e-06 5.002326e-07 0.0 0.0016303958 5.5120613e-11 3.3854447e-22 9.844105e-08 3.032926e-10 0.002558309 6.244527e-17 1.2578513e-09 0.0017727892 8.627781e-06 0.0040126047 7.7195134e-14 3.0791554e-05 6.790266e-10 0.0028238914 3.3115672e-16 2.4207097e-12 7.029099e-13 6.664271e-17 5.3127565e-07 3.7074242e-17 0.0006090576 2.4244628e-06 3.1503764e-06 2.2407225e-08 6.442542e-12 7.9561966e-07 3.299937e-05 0.34917983 5.375554e-12 9.6460304e-17 2.6678872e-05 8.152897e-06 0.11804543 3.0814322e-12 1.1603223e-09 4.0603067e-05 4.6651155e-10 1.8272688e-12 2.488448e-12 4.0488638e-19 6.281891e-10 1.919784e-08 6.708444e-09 3.0752159e-09 9.451983e-09 0.29294053 8.712635e-08 2.536709e-12 6.2433295e-11 1.232544e-09 0.0045903903 6.370379e-22 5.8042997e-11 0.00016605362 2.1492095e-05 3.3786057e-07 0.49039376 9.064212e-08 0.2642097 0.000152906 2.4949263e-09 1.651407e-06 5.2414446e-09 1.389072e-11 4.994261e-05 7.29041e-13 1.6579558 4.017869e-08 0.082181334 6.020932e-07 0.0040702806 1.02657474e-07 0.0038505758 7.640039e-10 0.20958473 0.00075569726 4.4790858e-07 2.1293445e-09 1.9757222e-22 0.0015416847 2.3124745e-34 0.8561923 0.0038321787 1.3673062e-17 3.8888662e-10 2.2986046e-10 2.1312319e-08 2.3903999e-09 6.1761484e-06 6.0521777e-22 1.2033735e-20 1.6659235e-19 5.9606924e-09 0.3537895 1.2561072e-05 8.336869e-11 7.775613e-10 2.4512897e-07 0.006145605 0.030925546 0.010197738 4.2185192e-17 0.22056551 32.74867
696 0.0 1.4188931e-15 0.0 0.0 0.00018931615 1.2644985e-26 6.066058e-12 3.2109076e-19 2.1572069e-10 3.0270998e-11 1.9071474e-06 0.0 0.00083958544 0.0 2.7384111e-19 2.8263537e-18 4.9330744e-09 0.0 0.0 0.0 0.0 0.0 0.0 1.0590916e-19 1.5788436e-16 1.03714055e-13 0.00012223082 0.0 0.0 1.2309362e-18 0.0 0.0 0.0034643854 2.0391973e-31 0.01311686 0.0 0.0 5.826274e-16 1.6818459e-06 9.567874e-30 0.0 2.1481044e-06 0.0 2.1779643e-23 2.3802586e-06 8.519807e-27 0.0 0.5915547 0.0 0.0 1.1512717e-06 4.6247224e-13 0.8112605 0.00012091708 2.8837355e-20 4.40986e-22 2.3466855e-24 2.8596899e-08 0.0 1.1097279e-30 4.6034255e-26 0.0 0.0 1.11159096e-07 0.0 0.0 1.6044197e-14 0.0 0.0 8.915786e-20 0.0074271658 0.0 0.0 0.0 5.8202473e-31 9.838001e-19 0.0 6.432861e-22 0.0 0.0 0.0 0.0 1.1017446e-15 0.0 0.04586508 0.0 1.0201468 6.88232e-05 9.12351e-26 8.0381133e-23 2.5510767e-34 0.0 0.0 1.2670368e-15 0.0 3.800664e-14 9.924198e-06 0.0 2.0710938e-26 0.0 21.711437 0.0 0.0 1.5444789e-34 1.3057388e-12 1.6121106 0.0 3.6744023e-05 0.071999244 3.5456062e-37 0.0011662899 1.6718771e-07 8.6769076e-05 0.0 3.974857e-25 0.0 9.412256e-16 1.1379713e-34 1.27491385e-05 4.0080867e-21 5.6042386e-11 0.027759384 5.499839e-34 0.0 0.04232334 1.0741084e-13 0.0 1.3964683e-18
1610 0.0 0.0 0.0 0.0 0.0 0.0 0.0 0.0 0.0 0.0 0.0 0.0 0.0 0.0 0.0 0.0 0.0 0.0 0.0 0.0 0.0 0.0 0.0 0.0 0.0 0.0 0.0 0.0 0.0 0.0 0.0 0.0 0.0 0.0 0.0 0.0 0.0 0.0 0.0 0.0 0.0 0.0 0.0 0.0 0.0 1.1521693e-06 0.0 0.0 0.0 0.0 0.0 0.0 2.3069568 0.0 0.0 0.0 0.0 0.0 0.0 0.0 0.0 0.0 0.0 0.0 0.0 0.0 0.0 0.0 0.0 0.0 0.0 0.0 0.0 0.0 0.0 0.0 0.0 0.0 0.0 0.0 0.0 0.0 0.0 0.0 0.0 0.0 0.0 0.0 0.0 0.0 0.0 0.0 0.0 0.0 0.0 0.0 0.0 0.0 0.0 0.0 0.09759332 0.0 0.0 0.0 0.0 0.0 0.0 2.207859 1.4344842e-19 0.0 0.0 0.0 0.0 0.0 0.0 0.0 0.0 0.0 0.0 0.0 0.0 1.9629492e-22 0.0 0.0 0.0 0.0 0.0 0.0
889 0.0 0.0 0.0 0.0 2.3788507 0.0 0.0 0.0 0.0 0.0 0.0 0.0 0.0 0.0 0.0 0.0 0.0 0.0 0.0 0.0 0.0 0.0 0.0 0.0 9.300379e-31 0.0 0.051391006 0.0 0.0 0.0 0.0 0.0 0.17615272 0.0 0.0 0.0 0.0 1.5218518e-23 0.0 0.0 0.0 0.0 0.0 0.0 0.0 0.0 0.0 0.0 0.0 0.0 0.0 0.0 2.3325005 0.0 0.0 0.0 0.0 0.0 0.0 0.0 0.0 0.0 0.0 0.0 0.0 0.0 0.0 0.0 0.0 0.0 0.0 0.0 0.0 0.0 0.0 0.0 0.0 0.0 0.0 0.0 0.0 0.0 0.0 0.0 0.0 0.0 0.0 0.0 0.0 0.0 0.0 0.0 0.0 0.0 0.0 0.0 0.0 0.0 0.0 0.0 0.4824262 0.0 0.0 0.0 0.0 0.0 0.0 0.0 0.0 0.0 0.0 0.0 0.0 0.0 0.0 0.0 0.0 0.0 0.0 0.0 0.0 0.0 0.0 0.0 0.0 0.0 0.0 0.0
1615 0.0 0.0 3.296953e-36 0.0 0.0 0.015519703 0.0 0.0 0.0016218433 7.747465 1.4749001e-25 0.0 0.0 0.0 0.0 0.0 0.0 0.0 0.0 0.0 3.939803e-12 0.0 0.0 0.0 0.0 0.0 0.0 0.0 0.0 0.0 0.0 0.0 0.571393 0.0 0.0 0.0 0.0 1.4027392e-23 0.0 0.0 0.07773108 0.0 0.0 0.0 0.0 0.0 0.0 0.0 0.0 0.0 0.5921423 0.0 2.9461107 0.0 0.0 0.0 0.0 0.0 0.0 4.5171213e-15 0.0 0.0 0.0 0.037012182 1.2153493e-13 0.0 0.0 0.0 0.0 0.0 0.0 0.0 0.0 0.0 0.0 0.0 0.0 0.0 0.0 0.0 0.0 0.0 0.0 0.0 0.0 0.0 0.0 0.0 0.0 0.0 1.7551603 0.0 0.0 0.0 0.0 0.0 0.0 0.0 0.0 0.0 0.49255055 0.0 0.0 0.0 0.0 0.0 0.0 0.0 0.0 0.115151614 0.0 0.0 4.08247e-27 0.0 0.0 0.0 0.0 0.0 0.0 0.0 0.0 0.17768238 0.0 0.0 0.3256025 0.0 0.0 1.2182358e-11
708 3.8713072e-17 4.6072994e-12 1.693725e-08 0.0 6.8271825e-24 2.8118648e-16 0.0 5.564784e-25 7.667169e-05 3.1368007e-05 4.078238e-33 1.5821224e-28 0.0 2.0376039e-16 1.1069518e-13 1.7516309 0.0 0.0030945798 1.7065805e-08 0.0 0.55034703 0.0 3.6335436e-26 0.0 0.0 3.2208826e-11 4.70313e-21 2.2959005e-35 0.0 0.0 4.2632773e-09 0.00012799256 9.857137e-19 0.0 5.978482e-32 0.0 4.65558e-23 2.873097e-07 0.0 0.24278383 1.5141764e-29 0.0 3.931568e-31 0.0 0.0 0.0 1.9021468e-16 0.17204185 2.8389782e-09 1.2389537e-09 1.2675339e-31 3.685177e-36 0.44642332 0.0 9.354216e-06 0.0 6.714834e-08 0.0 0.032053113 1.621461e-13 0.0 4.032617e-20 2.6565034e-25 1.0284315e-18 9.525794e-31 2.589556e-22 1.7352302e-05 0.0 0.0 1.3459861 1.8905775e-09 6.0340296e-25 0.14751334 0.0 4.909074e-18 0.0 1.0125903e-13 0.0 0.0 2.1102944e-06 1.0078008 1.04028175e-07 7.9450955e-22 2.0461537e-20 7.003744e-35 0.0 0.0 3.636376e-16 7.966538e-13 0.043675885 1.3901827 0.0 0.00087701407 0.0 0.00029439834 3.9785608e-37 0.023354558 0.0 1.462253e-12 0.00025507837 8.629629e-05 0.0 5.4068973e-05 1.4531256e-06 0.0 1.1168324 3.994728e-15 0.0 0.0004102594 0.040689643 0.0 0.0 27.397827 1.2085796e-34 0.0 0.0 1.1158352e-20 0.1599003 2.7513844e-10 0.0 0.0 2.9328e-27 6.822694e-25 4.8360543e-32 8.64484e-20 0.0 1.672651 1.3524044e-13
713 3.3306594e-06 0.0 1.3123885e-11 0.14496134 2.3842986e-07 4.4617705e-06 0.0 0.0 4.5967045e-05 10.182745 6.714299e-25 0.0 0.0 0.0 6.028708e-37 2.9786672e-33 0.0 0.0 0.0 0.0 0.0 0.0 0.0 0.0 0.0 0.0 0.13437991 0.0 0.0 0.0 0.3311613 0.0 1.32738355e-14 0.0 0.0 0.0 0.0 0.0 0.0 0.0 0.0 0.0 0.0 0.0 0.083396256 0.0 9.621873e-19 4.0953197 0.0 0.0 2.2828254e-23 0.0 2.0628908 0.0 0.0 1.11823845e-26 9.462162e-13 0.0 0.0 0.0 0.0 0.0 0.0 0.0 0.0 0.0 1.0135032 0.0 3.067684e-30 4.1059006e-20 1.5319399e-18 0.31390175 6.4610967e-06 6.7143726e-14 0.0 0.0 0.0 0.0 3.0711475e-24 0.0 0.0 1.934559e-18 5.668047e-11 0.0 0.0 0.0 0.0 0.8638047 0.0 0.0 0.0 0.0 0.0 0.0 4.044031e-15 0.0 0.014073468 0.0 0.7400295 0.0 0.063706785 0.0 0.0 0.0 0.0 1.859437 0.0 0.0 0.60252154 6.924503e-30 0.0 0.0 0.4570685 0.0 0.0 0.0 0.0 0.0 0.0 0.0 0.0 0.0 2.9627712 0.0 2.5788226 0.0 0.0 7.0081097e-16
718 0.0 0.0 0.0 0.0 0.0 0.0 0.0 0.0 3.4310365 0.48519763 0.026823102 0.0 0.0 0.0 9.516098e-13 1.2875171e-20 0.0 0.0 0.0 0.0 0.0 0.0 0.0 0.0 0.0 0.0 0.0 0.0 0.0 0.0 0.0 0.0 0.0 0.0 0.0 0.0 0.0 0.0 0.0 0.0 0.064130895 0.0 0.0 0.0 2.8308034e-15 0.0 0.0 3.8208683 0.0 0.0 0.0 0.0 2.2439995 0.0 0.0 0.0 0.0 0.0 0.0 0.0 0.0 0.0 0.0 0.0 0.0 0.0 0.0 0.0 0.0 0.0 0.41533908 0.0 0.0 0.0 0.0 0.0 0.0 0.0 0.0 0.0 0.0 0.0 0.0 0.0 0.0 0.0 0.0 1.9744185e-08 0.0 0.0 0.0 0.0 0.0 0.0 0.0 0.0 2.299166e-05 0.0 0.0 0.012243128 0.19930775 0.0 0.0 0.0 0.0 1.8171294 0.0 0.0 0.000452009 0.40753016 0.0 0.0 0.5120953 0.0 0.0 0.0 0.0 0.0 0.0 0.0 0.0 0.0 0.0 0.0 1.0906948e-24 0.0 0.0 1.2165422e-35
1630 0.0 0.0 4.8713623e-08 0.06468123 0.0 0.0 0.0 0.0 7.194416e-15 6.777282 0.0 0.0 0.0 0.0 0.0 0.0 0.0 0.0 0.0 0.0 0.0 0.0 0.0 0.0 0.0 0.0 0.0 0.0 0.0 0.0 0.0 0.0 0.17269103 0.0 0.0 0.0 0.0 0.0 0.0 0.0 0.0 0.0 0.0 0.0 9.378892e-16 0.0 0.0 0.34507388 0.0 0.0 0.0 0.0 2.225775 0.0 0.0 0.0 9.901715e-12 0.0 0.0 0.0 0.0 0.0 0.0 0.0 0.0 0.0 0.0 0.0 0.0 0.0 0.0 0.0 0.0 0.0 0.0 0.0 0.0 0.0 0.0 0.0 0.0 0.0 0.0 3.550327e-23 0.0 0.0 0.0 0.0 0.0 0.0 0.0 0.0 0.0 0.0 0.0 0.0 0.0 0.0 2.0910141e-34 0.0 1.6185255e-29 6.1134255e-27 0.0 0.0 0.0 0.0 1.2402594e-23 0.0 0.0 0.0 0.0 0.0 4.6236054e-33 0.0 0.0 0.0 0.0 0.0 0.0 0.0 0.0 0.0 2.1385462 0.0 0.0 0.0 0.0 2.8593681e-12
734 0.0 0.0 0.0 0.0 0.0 0.0 0.0 0.0 5.751465e-28 0.03968296 0.0 0.0 1.5718907 3.9611672e-24 0.0 0.0 0.0 0.0 0.0 0.0 0.0 0.0 0.0 0.22810781 0.0 0.0 0.0 0.0 0.0 0.0 0.02526699 0.0 0.0 2.6212377e-16 0.0 0.0 0.0 0.0 0.0 0.0 0.0 0.0 0.0 0.0 0.0 0.0 0.0 8.686119 0.0 0.0 0.0 0.0 2.0778098 0.0 0.0 0.0 7.2723414e-24 0.0 0.0 2.2986801e-30 0.0 0.0 0.0 5.88803e-28 0.0 0.0 0.0 0.0 0.007920837 0.0 0.0 0.0 0.0 0.0 0.1356804 0.0 0.0 0.0 0.0 0.0 0.0 0.0 0.08116896 0.0 0.0 0.0 0.0 3.982861e-22 0.0 0.0 0.0 0.0 0.0 0.0 0.0 0.0 2.8823723e-25 0.0 0.0 0.0 0.051256936 0.0 0.0 0.0 0.0 1.8330433 0.0 2.5448527 1.480412e-32 0.0 0.0 0.0 1.3081878e-24 1.1838867e-34 0.0 0.0 9.2005424e-11 0.057074964 0.0 0.0 0.0 0.88795674 0.0 0.0 1.9688132e-08 1.5871003 0.0 0.0
776 0.0 0.0 0.0 0.0 0.0 0.0 0.0 0.0 1.0961827 0.050575774 0.0 0.0 0.0 0.0 0.046341185 0.13202399 0.0 5.8826794e-05 0.0 0.0 0.0 0.0 0.0 0.0 0.0 0.0 1.4554351e-15 0.0 0.0 0.0 0.0 0.0 0.0 0.0 6.4905263e-09 0.0 0.0 0.0 0.0 0.0 0.104784116 0.0 0.0 0.0 7.9192245e-19 0.0 0.0 9.067643 0.0 0.0 0.0 0.027988365 2.37805 0.00018248135 0.0 0.0 0.0 0.0 0.0 0.0 0.0 0.0 0.0 0.0 5.7884697e-30 0.0 0.0 0.0 0.0 0.010463561 0.0 0.0 0.0 0.0 0.0 0.03476817 8.6144996e-35 0.00046531003 0.0 0.0 0.0 0.0 0.0 0.0 0.32694185 0.0 0.0 2.0924745e-28 0.0 0.0 0.0 0.0 2.3241632 0.0 0.0 0.0 3.7849155e-08 0.0 0.628468 0.0 1.2582492e-22 0.0 0.0 0.0 0.0 1.826153 0.0 0.0 1.1310198e-32 1.6471091e-28 0.0 0.14781179 0.005032523 2.1392978e-33 0.0 0.0 0.0 0.0 0.0 0.0 0.0 4.659385e-37 0.0 4.1823853e-29 0.0 0.0 0.0 3.9588322e-26
814 0.0 0.0 8.5948595e-06 0.0 1.1404463 0.0 0.0 0.0 0.9264174 0.7302821 0.0 0.0 0.0 0.0 0.0 0.113457665 0.0 0.0 0.0 0.0 0.0 0.0 0.0 0.0 0.0 0.0 0.0 0.0 0.0 0.0 0.0 0.0 0.0 0.0 0.0 0.0 0.0 0.0 0.0 0.0 0.0 0.0 0.0 0.0 0.0 7.564929e-11 0.0 8.589153 0.0 0.0 0.0 0.0 2.1770623 0.0 0.0 0.0 0.0 0.0 0.0 0.0 0.0 0.0 1.6476485e-27 4.2554574e-33 0.0 0.0 0.0 0.0 0.0 4.0637474e-10 0.0 0.0 0.0 0.0 0.0 0.0 0.0 0.0 0.0 0.0 0.0 0.0 0.0 0.0 0.0 0.0 0.0 0.0 0.0 0.0 0.0 0.0 0.0 0.0 0.0 0.0 2.3417354e-32 0.0 0.67273617 0.0 2.216292e-05 3.4425315e-10 0.0 9.7956486e-33 0.0 1.8046502 0.0 2.1090198 6.666071e-32 0.0 0.0 0.0 3.0374e-14 0.0 0.0 0.0 0.0 0.0 0.0 0.0 0.0 8.3045224e-23 0.0 0.0 6.222996e-26 0.0 0.0 0.0
818 0.0 0.0 0.0 0.0 1.3664913 0.0 0.0 0.0 0.0 0.017339472 0.0 0.0 0.0 0.0 0.0 0.0 0.0 0.0 0.0 0.0 0.0 0.0 0.0 0.6387538 0.0 0.0 0.0 0.0 0.0 0.0 2.7036179e-20 0.0 0.0 4.7303043e-27 0.0 0.0 0.0 0.0 0.0 0.0 0.0 0.0 0.0 0.0 0.0 0.0 0.0 9.874019 0.0 0.0 0.0 0.0 2.1241682 0.0 0.0 0.0 2.6002722e-18 0.0 0.0 1.5542469e-19 0.0 0.0 0.0 0.0 0.0 0.0 0.0 0.0 0.00011596142 0.0 0.08968936 0.0 0.0 0.0 0.10394849 0.0 0.0 0.0 0.0 0.0 0.0 6.893746e-27 0.042581316 0.0 0.0 0.0 0.0 6.008662e-33 0.0 0.0 0.0 0.0 2.4226973 0.0 0.0 0.0 7.9716503e-28 0.0 0.0 0.0 9.556173e-13 3.269918e-22 0.0 0.0 0.0 1.8328214 0.0 0.0 2.2574095e-17 0.0 0.0 0.0 1.4764484e-27 8.969369e-26 0.0 0.0 3.5399575e-18 0.045342825 0.0 0.9693938 0.0 9.559906e-31 3.0961132e-08 0.0 1.7931438e-19 0.0 0.0 6.436236e-23
1401 0.0 0.0 0.0 0.0 0.0 0.0 0.0 0.0 0.0 0.0 0.7613355 0.0 0.2823253 2.0301472e-14 1.9961125e-33 0.0 4.9554055e-35 0.0 0.0 0.0 0.0 2.1811404 0.0 0.0 0.0 0.0 1.509422e-15 1.5659554e-32 0.0 0.0 0.0 1.1024434e-33 3.3501999e-22 0.0 1.8607673e-24 0.11386171 0.0 0.0 3.290097e-31 3.507113e-26 0.0 2.2370527 0.0 0.0 0.0 9.013595e-34 0.0 0.0 0.0 0.0 0.0 0.0 1.7136918e-08 9.370128e-19 0.0 0.0 0.0 0.1287359 0.0 0.0 0.0 0.0 0.0 2.9093279e-34 0.0 0.0 0.0 0.0 0.0 0.0 0.11313017 0.0 0.0 1.762233e-14 0.0 1.3361807e-18 6.776646e-10 2.4657248e-11 0.0 0.0 0.001785796 0.0 0.010060486 0.0 5.9278795e-25 0.0 0.20803274 0.0 0.107053 0.03813947 4.3511833e-13 0.0 0.0 0.0 0.0 0.2502147 0.0 0.0 0.0 0.0 0.0 0.0 0.0 0.0 2.5327656 0.0 0.0 1.9161958e-11 0.0 0.0 0.0 3.2666387e-20 0.0 0.0 0.58278596 0.0 0.0 0.0 0.0 0.6380675 7.2502823 1.9145167e-37 8.833587e-25 0.0 8.2944285e-17 1.3164006 0.0 0.0
220 0.0 0.0 0.0 0.0 0.0 0.0 0.0 0.13408785 0.068625905 1.1197646e-07 2.493215e-20 0.0 0.0 0.4959671 0.0 0.0 2.8077705e-21 0.0 0.0 0.0 3.2752698e-09 1.4709281 0.0 0.0 0.0 0.003984223 0.0 0.0 0.0 0.0 0.7178392 0.0 2.5284978e-32 0.0 1.3861977e-31 6.0291376e-16 0.0 0.0007372815 2.7145738e-32 0.0 0.116735384 2.5808823e-17 0.0 5.839063e-25 0.0 0.23121794 0.0 0.021594968 0.0 0.0 0.0 0.0 0.028782636 0.31898835 0.0 0.0 0.0 0.0 0.0 0.0 0.0 0.0 0.0 8.825502e-12 0.0 0.0 0.0 0.0 0.0 0.0 0.0 0.0 0.0 0.0 0.0 0.0 0.0 6.670024e-08 0.0 0.0 0.0 5.180348e-19 0.0 0.0 0.0 0.0 0.0 0.0 0.0 0.0 0.0 0.0 0.0 0.0 0.0 0.0 0.0 0.0 0.0 0.0 0.0 0.0 0.0 0.0 0.45365152 2.9029211e-16 0.0 0.03007837 1.591793e-30 0.15336728 0.0 0.0 0.12755263 0.0 0.00065477716 0.0 0.0 0.0 0.0 6.293297e-24 2.4689355 0.0 0.0 0.0 0.0 1.5501184 0.0 0.26221994
1412 1.6472254e-18 4.814722e-19 1.1373815e-14 0.0 0.0 1.2172813e-08 1.9077994e-08 0.0 0.0 0.0 3.4660322e-06 2.899598e-15 0.43568498 0.0072334576 1.5803725e-32 6.9683546e-29 3.7148392 0.0 0.0 1.9763321e-11 1.1153485e-27 0.09761819 2.1062063e-12 0.0 0.0 0.4104763 0.001523049 8.0858905e-30 7.554822e-31 0.00084953295 9.0199083e-26 3.5806926e-29 0.027008513 0.0008079247 0.13827078 2.0784228e-07 7.5880765e-17 6.3923346e-11 0.09145774 3.225627e-14 1.7633225e-28 1.2014428e-07 6.113953e-36 2.9742637e-09 2.9545663e-10 5.9373746 0.0 2.6975182e-19 5.757662e-13 2.3685869e-09 3.5565547e-13 1.5797905e-05 0.0002805901 0.5017811 3.744959e-36 2.4031552e-20 9.504697e-18 0.05113256 5.49419e-05 6.881715e-15 7.506426e-09 0.0 0.0 26.103016 5.6920732e-11 1.03317134e-07 0.0 0.0 0.0 4.268697e-23 3.3457359e-15 1.5519117e-16 0.0 0.010209583 0.0 0.009043688 2.0488424e-25 6.5042027e-06 0.0010723377 0.0 7.6857003e-34 3.3168086e-05 2.3299148e-08 0.0 7.0289635e-10 3.5151603e-05 1.06795486e-19 0.0 4.9346437e-19 0.0 9.137115e-26 9.736367e-20 2.74097e-11 2.3254616e-13 0.0 0.0012617826 2.7831154e-36 5.27369e-19 9.731195e-23 0.0 0.0002877615 3.45858e-25 0.0 9.0357733e-20 0.32945716 0.0 0.0 0.10243245 7.429604e-14 0.0 2.0130615 3.6950412 1.5511803e-18 0.0 0.0014288564 0.0 3.052576e-11 0.0 0.0001818673 5.1371993e-12 7.25247e-07 0.17742008 9.004819e-15 1.342123e-24 8.919595e-31 0.81321305 1.5638574e-13 0.0003088227
1413 0.0 0.0 0.0 0.0 0.0 0.15716301 0.0 0.0 0.0 0.0 2.0019135 0.0 0.0 1.25586356e-11 0.0 0.0 9.828693e-09 0.0 0.0 0.0 3.3644825e-34 6.2072034 0.0 0.0 0.0 4.1788698e-37 2.9946492e-31 0.0 0.0 4.1356692e-32 2.981922e-23 0.0040768296 0.53333795 0.0 9.972023e-22 2.3212916e-12 1.211123e-33 4.219452e-21 0.0 1.6669684e-27 0.0 1.9451597 0.0 0.0 0.0 5.7554453e-06 0.0 0.0 0.0 0.0 0.0 0.0 0.0 1.6687149 0.0 0.0 0.0 1.4625048e-32 0.0 0.0 0.0 0.0 0.0 3.5868378e-10 0.0 0.0 0.0 0.0 0.0 0.00046799312 0.13563918 0.0 0.0 0.0 0.0 0.0 0.017273 0.059666064 0.0 0.0 0.0 0.0 0.0 0.0 0.0 0.0 0.0 0.0 8.7165757e-16 0.0 0.0 0.0 0.0 5.9248055e-09 0.0 0.54103786 0.18363993 0.0 0.0 0.0 0.16350737 0.0 0.0 8.366017e-37 8.0816806e-16 0.0 0.0 1.5160062e-21 0.0 0.0 0.0 0.18017098 0.0 0.0 0.36662146 0.0 0.0 0.0 4.370957e-34 2.447149e-10 4.8034205 1.5608761e-19 0.0 0.0 0.0 0.71823597 0.0 2.3453166e-17
228 0.0 0.0 0.0 0.0 0.0 0.0 0.009171744 4.536334e-31 0.0 1.096323e-12 15.496155 0.0 1.1796703 1.1886236e-09 0.0 0.0 0.005883271 0.0 0.0 0.0 0.0 6.0172725 2.0379126e-10 0.0 0.0 0.2885009 0.0 0.47707894 0.0 6.051052e-08 2.0458927e-26 0.014524786 1.767268e-08 0.0 5.028767 1.3049791e-08 3.9476454e-24 0.0010505338 0.00033103806 1.0587371e-25 0.0 1.3981405 3.02737e-21 1.3161195e-30 0.0 0.7718715 0.0 0.0 0.0 0.0 0.0 3.5922495e-17 4.911247e-13 0.008805308 0.0 0.0 0.0 0.00015969145 0.0 5.682786e-07 0.0 0.0 0.0 0.14269622 0.30977842 0.0 0.0 0.0 0.0028334016 1.164562e-18 0.045488585 0.0 0.0 0.0 0.0 0.0 1.855639e-06 0.6519703 0.0 0.0 0.0 0.0 4.0477573e-24 8.177517e-28 0.0 0.0 0.0 0.0 3.2420309e-34 3.2626676e-33 2.1485645e-14 0.0 2.5844525e-21 0.0 0.0 1.5397397e-08 4.1543012e-18 0.0 1.3408434e-18 0.0 4.2437923e-37 0.0 0.0 0.0 0.0007451917 1.0011304e-06 0.0 9.089932e-10 0.0 0.0 1.6868536 1.5687817e-11 0.0 0.0 0.58355165 0.0 0.0 0.0 0.0 0.0 3.1772077 1.0208326e-15 0.0 0.0 1.263884e-08 0.00083476 1.7096172e-31 0.01115182
233 0.0 0.0 0.130188 0.0 0.0 0.1359962 0.0 0.0 0.0 0.0 5.407606e-13 0.0 2.5114167 0.00021513102 0.0 0.0 0.0 0.12239648 0.0 2.7209747e-36 0.0 7.0983977 0.0 0.0 0.0 0.0 2.747822e-25 0.0 0.0 0.0 0.0 0.0 1.9670582e-36 0.0 0.13139707 1.2275142e-07 1.22346355e-29 7.908694e-18 8.607013e-19 2.2146993e-26 0.0 0.0 0.0 0.0 0.0 1.1090069e-31 0.0 0.0 0.0 0.0 0.0 0.0 9.665917e-37 1.2711469e-30 0.0 0.0 0.0 1.6421513e-10 0.0 6.3349435e-16 0.0 0.0 0.0 0.31076586 0.0 0.1046743 0.0 0.0 0.0 0.0 0.0 0.0 0.0 0.0 0.0420875 0.0 0.0 0.2222322 0.0 0.0 0.0 0.0 0.0 0.0 0.0 0.0 0.0 0.0 4.8178754e-07 0.0 0.0 0.0 0.0 0.0 0.0 0.0 0.0 0.0 0.0 0.0 0.0 0.0 0.0 0.0 2.975775e-10 0.0 0.0 9.297368e-13 0.0 0.0 0.0 0.0 0.0 0.0 0.8517244 0.0 0.0 0.0 0.0 0.0005406346 0.71344 0.24031636 0.0 0.0 0.11001701 1.0192524 0.0 1.9824243e-07
235 0.0 0.0 8.405203e-23 0.0 0.0 0.011975478 0.0 0.0 0.0 0.0 22.57728 0.0 1.6697417 0.0032259445 9.484719e-19 0.0 2.7195138e-06 0.0 0.0 0.0 0.0 6.2695704 0.035846826 0.0 0.15635528 3.193426e-22 0.00027342257 0.0 3.3152926e-05 1.0653861e-08 0.0 0.0 0.025651041 0.41053107 2.2500208e-07 7.179966e-16 1.0575377e-13 7.19015e-23 0.04425224 2.3676125e-16 0.0 1.1178083 0.0 2.4332086e-28 0.0 3.851644e-13 0.096164815 0.056708287 0.0 0.0 0.0 3.5671674e-26 1.7071685e-25 0.0010361418 0.0 0.0 0.0 0.022878429 0.0 1.2669873e-30 1.539279e-05 0.0 0.0 1.3257757e-06 3.7259838e-21 0.12693833 0.0 0.0 0.0 0.0 0.0 0.17401499 0.0 1.6060091e-36 0.0 0.0 0.0 3.931396e-05 0.0 0.0 1.1247393e-25 6.0982224e-30 2.3141305e-21 0.0 0.55805826 0.0 0.056331165 0.0 1.1299629e-16 6.571928e-25 0.0 0.0 5.2799924e-17 0.0 0.0 0.26263487 0.0 0.0 0.0 0.0 0.1518581 0.0 0.0 2.050179e-20 3.431246e-05 0.0 0.0002605221 2.4914517 0.0005517504 0.0 0.008717751 9.152741e-05 3.809273e-11 0.0 0.14943857 0.0 1.3886748e-29 0.0 0.23740742 2.2882446e-14 0.4309351 2.2267994e-09 4.1940078e-19 0.0 0.0 0.33017913 3.2118218e-22 8.275441e-33
1450 0.0 0.0 0.0 0.0 0.0 0.0 0.0 0.0 0.0 0.0 3.4191267e-23 0.0 1.8169404 1.8847517e-12 0.0 0.0 0.0 0.0 0.0 0.0 0.0 0.597041 1.3391575e-28 0.0 0.0 4.3265626e-28 0.11293645 0.0 0.0 0.0145667335 0.0 0.0 0.0 0.0 7.139265e-34 0.0 0.021398548 1.8886743e-14 0.0 0.0 0.0 0.0 0.0 0.0 0.0 0.0 0.0 0.0 0.0 0.0 0.0 0.00056176074 0.0 1.950341e-34 0.0 0.0 0.0 8.989324e-08 0.0 0.0 0.0 0.0 0.0 5.3160137e-19 0.0 0.0 0.0 0.0 0.0 0.0 0.0 0.0 0.0 0.0 0.0 0.0 0.0 0.7142455 0.0 0.0 0.0 0.0 0.021524953 0.0 0.0 0.0 0.0 0.0 0.0 0.0 0.0 0.0 0.0 0.0 0.0 0.0 0.0 0.0 0.0 0.0 7.1419846e-14 0.0 0.0 0.0 0.0 0.0 0.0 0.0 0.0 0.0 1.7409965 0.0 0.0 0.0 1.0668136e-29 0.0 1.7597317e-08 0.0 0.0 1.5367701e-05 5.5245724 0.00047390733 0.027300438 0.0 0.0 1.6446519 0.0015457126 0.0
236 0.0 0.43230382 0.13857342 0.0 0.0 1.0506335e-25 0.0 0.1683315 0.0 0.0 8.595342e-29 0.0 0.0 1.0084383 0.0 0.0 8.242021e-20 1.479468e-08 0.0 0.0 0.0 7.5929995 0.021087222 0.0 0.0 9.2571965e-35 1.1565429e-35 0.0 0.0 1.3295776e-32 0.0 0.0 9.606992e-29 0.0 0.046625692 2.8174138 0.0 2.1860099e-20 1.38700796e-11 0.0 0.0 0.0 0.0 0.017445005 0.0 0.021231486 0.0 0.0 0.0 0.0 0.0 1.788017e-36 0.0 1.3457271e-06 0.0 0.0 0.0 0.0 0.0 3.0159824e-30 0.0 0.0 0.0 4.8343307e-17 1.0912256e-12 0.0 0.0 0.0 0.0 0.012306356 1.9312111e-08 0.0 0.0 0.0 0.0 0.0 3.7460195e-34 0.18594286 0.0 0.0 0.0 0.0 2.6369295e-12 0.0 0.0 0.0 0.0 0.0 9.18783e-22 0.0 0.0 0.0 0.02711808 0.0 0.0 0.0 0.0 0.0 7.826372e-11 0.0 0.0 0.0 0.0 0.0 0.34467727 0.0 0.0 0.0 0.0 0.0 0.0 0.0 0.0 0.0 1.5086832e-10 0.0 0.0 0.0 0.0 6.933809e-08 0.7771033 3.359669e-30 0.0 0.0 0.095868945 0.83036053 0.0 0.07595086
1455 0.0 0.0 0.0 0.0 0.0 0.0 0.0 0.0 0.0 0.0 0.0 0.0 8.21628e-12 0.0 0.0 0.0 0.0 0.0 0.0 0.0 0.0 0.16249801 0.03825951 0.0 0.0 0.0 0.0 0.0 0.0002124228 0.0 0.0 0.0 0.33566558 0.0 0.0 0.0 0.0007353027 0.0 0.0 0.0 0.0 0.0 0.0 0.0 0.0 0.0 0.0 0.0 0.0 0.0 0.0 0.0816011 0.0 0.0 0.0 0.0 0.0 0.0 0.0 0.0024564383 0.0 0.0 0.0 0.00473488 5.992345e-14 0.0 0.0 0.0 0.0 0.0 0.0 0.0 0.0 0.0 0.0 0.0 0.0 5.0286384e-14 0.0 0.0 6.03739e-06 0.0 0.0 0.0 0.0 0.0 0.0 0.0 0.0 0.0 0.003646018 0.0 0.0 0.0 0.0 0.0 0.0 0.0 0.0 0.0 0.0 0.01968884 0.0 0.0 0.0 0.008797389 0.0 0.0 0.010605995 0.0 0.0 0.0 0.0 0.0 0.0 0.0 0.0 0.0 0.0 0.5237409 2.1192822 0.0 0.0 0.06052056 0.0 4.1903048e-05 0.0 0.0
1465 0.0 0.0 0.0 0.0 0.0 0.0 0.0055885534 0.0 0.0 0.0 0.27434263 1.2255095e-05 2.8784345e-06 4.5514884e-11 0.0 0.0 1.2811968 0.0 0.0 0.0 0.0 0.5300843 5.3769306e-27 0.0 0.0 0.39600778 1.46047e-10 0.0 0.0 1.3505321e-07 1.7203509e-31 1.1526624e-30 0.018238228 0.0 4.852538 4.589057e-31 8.0042085e-19 0.0 1.9097576 0.0 0.0 0.068384625 0.0 3.0330376e-15 0.0 3.3036294 0.0 0.0 0.0 0.0 0.0 3.0830236e-08 9.659309e-15 3.816666 3.1845952e-19 0.0 3.9522496e-10 0.035259522 0.2866178 0.0 3.471492e-24 0.0 0.0 0.5490115 0.0 8.114683e-15 0.0 0.0 0.0 0.0 0.1452189 2.1739303e-11 0.0 0.0 0.0 0.7973605 2.375959e-22 2.286649e-16 0.0 0.0 0.0 0.6014643 2.901425e-17 0.0 0.0 0.0 0.0 0.0 0.0 0.0 0.0 0.0 4.9894746e-16 0.0 0.0 0.0 0.0 0.0 0.0 0.0 0.0048286323 0.0 0.0 0.0 1.1308216e-05 0.0 0.0 0.38920337 0.0 0.0 1.1482608 5.7467704 7.776882e-31 0.0 3.893385 0.0 2.1470151e-13 0.0 0.00030110925 0.023555608 2.1797152 4.397531 0.0 0.0 0.50912136 1.366747 4.7413604e-08 8.140784e-09
1466 0.0 0.0 0.0 0.0 0.0 0.0 0.0 0.21531604 0.0 0.0 0.00979591 0.0 0.028763331 0.36456817 0.0 0.0 8.304912 0.0 0.0 0.0 0.0 0.23234142 0.0 0.0 0.0 0.0 0.0 0.0 0.0 8.567491e-13 0.0 0.0 0.0016919615 0.0 2.0814273 0.0 0.0 0.0 2.1878655 0.0 0.0 0.39021516 1.5289156 0.0 0.0 0.000926615 0.0 0.0 0.0 0.0 9.282857e-12 2.3788788 2.2859874 7.044789 0.0036782878 0.0 0.03784469 5.5646807e-12 0.0 0.0 0.0 0.0 0.0 1.3104562 0.0 0.0 0.0 0.0 0.0 0.0 0.0 0.0 0.0 0.0 0.0 0.0 0.0 1.211588e-15 0.015894713 0.0 0.0 0.0 2.148968e-34 0.0 7.827378e-29 0.0 0.0 0.0 5.500682e-34 0.0 0.0 0.0 0.0 0.0 0.0 0.0 0.002992623 0.0 0.0 0.0 6.01801e-11 0.0 0.0 0.33524507 1.5913948 0.0 0.0 0.6366619 0.0 0.0 0.47020197 1.06818825e-05 0.0 0.0 1.9160363e-12 0.0 0.0 0.0 1.2403306e-08 7.7474164e-35 5.473704 3.8417842 0.0 0.0 0.0 1.3214647 0.0 0.0
1468 0.0 0.0 0.0 0.0 0.0 0.0 0.0 0.0 0.0 0.0 8.1664615e-14 0.0 1.8304018 1.7776429e-10 0.0 0.0 9.330062e-34 0.0 0.049795162 2.4512085e-31 0.0 1.8220296 0.0 0.0 0.0 2.7112928e-27 0.02070566 0.32847586 0.0 0.0065539605 0.0 0.0 0.0 0.0 0.27937108 0.3262032 1.7663561e-09 3.9089822e-13 6.508266e-16 0.055112135 0.0 1.3468239e-19 0.0 0.5979775 0.0 1.223785e-16 0.0 2.1858232e-06 0.0 0.0 0.0 2.8865776e-22 0.081994765 6.1568494 0.0 0.0 0.0 0.77023345 0.0 0.0 0.0 0.0 0.0 0.016328014 0.0 0.14530335 0.0 0.0 0.0 0.0 0.0 0.0 0.0 0.0 0.0 0.0 0.0 1.1979288e-31 0.0 0.0 0.0 9.95956e-05 0.033485435 0.0 0.0 0.0 0.0 0.0 2.4791175e-29 0.039976295 0.007108485 0.0 0.05742129 0.0 0.0 0.0 0.0 0.0 0.0 0.0 0.0 0.0 0.0 0.0 1.2309105e-11 0.0 0.0 1.8402805e-22 0.0 0.0 1.0133022 2.3815717e-24 0.0 0.0 4.6292832e-17 0.0 0.00036106628 0.0 0.0 0.0 5.8037915 0.00015279918 0.0 0.011602208 8.48418e-34 1.6889976 8.793193e-24 0.0
243 0.0 0.0 0.0 0.0 0.0 0.0 0.0 0.0 0.0 0.0 0.0 0.0 1.698343e-14 0.02163037 0.0 0.0 0.0 0.0 0.0 4.1617802e-29 4.5010264e-28 7.0568 0.0 0.0 0.0 5.064333e-25 1.4528831e-25 0.0 0.0 1.1782553e-27 2.9024304e-36 0.0 2.1031555e-11 0.0 0.00074703275 1.0936839e-21 0.0 4.2601098e-07 3.358559e-20 1.6523402e-13 0.0 0.0 0.0 0.0 0.0 0.0 0.0 0.0 0.0 0.0 0.0 0.0 2.1796136e-27 0.0 0.0 0.0 0.0 2.2690573e-32 0.0 0.0 0.0 0.0 0.0 0.0047237026 0.0 0.0 0.0 0.0 0.0 0.0 0.0 0.0 0.0 0.0 0.0 0.0 0.0 0.0011575437 0.0 0.0 0.0 0.0 0.0 0.0 0.0 0.0 0.0 0.0 0.032241773 0.0 0.0 0.0 5.224671e-16 0.0 0.0 0.0 0.0 0.0 0.0 0.0 0.0 0.0 0.0 0.0 1.0385107e-19 0.0 0.0 0.0 0.0 0.0 3.2292382e-14 0.0 0.0 0.0 2.114417e-33 0.0 0.0 0.0 7.4534197e-28 0.02422965 0.37258747 8.192905e-15 0.0 0.0 0.0 1.1404443 0.0 3.4214257e-27
245 0.0 0.0 0.0 0.0 0.0 0.0 0.0 0.0 0.0 0.0 0.13668296 0.0 2.120025 1.099758e-07 0.0 0.0 8.8096026e-24 0.0 0.0 0.0 0.0 6.901088 0.0 0.0 0.0 1.4307977e-21 1.2514333 0.0 0.0 0.23395865 0.0 0.0 1.4789352e-35 0.0 1.6027648e-12 1.1857235e-12 0.0 2.3864298e-14 1.02242716e-19 2.8299753e-29 0.0 1.9159852 0.0 1.8883551e-16 0.0 1.2412275e-28 0.0 0.0 0.0 0.0 0.0 0.0 2.358405e-08 3.3840804e-24 0.0 0.0 2.671057e-13 0.6793256 0.29986426 0.0 4.0469897e-17 0.0 0.0 4.2821824e-08 0.0 6.362549e-26 0.0 0.0 0.0 0.0 0.0 0.0 0.0 3.189969e-12 0.0 1.00429746e-29 0.0 1.0295154e-08 0.0 0.0 0.0 0.9590486 0.0 0.0 0.0 0.0 0.0 0.0 2.739291e-21 0.0 0.0 0.0 7.3329914e-34 0.0 0.0 0.0 0.0 1.1007701e-25 0.0 0.0 5.2079076e-33 0.0 0.0 0.0 2.7825336 0.0 0.0 0.0804028 0.0 0.0 0.0 1.1198142e-20 0.05980659 0.0 0.8067864 0.0 0.03312835 0.0 0.43418652 0.0 1.9029282 4.9437554e-13 0.0 0.0 2.9686282e-31 0.90119135 2.6626438e-16 0.0
1535 0.0 0.14535378 0.0 0.0 0.0 0.0 0.0 0.31019476 0.0 0.0 0.0 0.0 0.0 0.17852102 0.0 0.0 0.0 0.000113703034 0.0 0.0 0.0 0.0 0.0 0.0 0.0 0.0 0.0 0.0 0.0 0.0 0.0 1.7581051e-05 0.0 0.0 0.0 0.0 0.0 0.0 0.0 1.2010565e-21 0.0 0.0 0.0 0.0 0.0 0.0 0.0 0.0 0.0 0.0 0.0 0.0 2.535967 0.0 0.0 0.0 0.0 0.0 0.0 0.0 0.0 0.0 0.0 0.0 0.0 0.0 2.013443e-36 0.0 0.0 0.0 0.0 0.0 7.635134e-05 0.0 0.0 0.0 0.038567442 0.0 0.0 0.0 0.0 0.0 0.0 0.018280024 0.0 0.0 0.0 0.041098382 0.0 0.9213835 1.7987459 0.0 0.0 0.0 0.0 0.0 0.25633547 0.0 0.6903912 0.0 0.0 0.0 0.0 0.0 0.0 0.0 0.0 0.0 0.0 0.0 0.0 0.0 1.3337185e-19 0.0 0.0 0.0 0.0 0.0 0.0 0.0 0.0 0.0 0.0 0.0 0.0 0.0 0.0 0.0003343376
780 0.0 0.0 0.0 0.0 0.0 0.0 0.0 0.019560233 0.0 0.0 0.0 0.0 0.0 0.0 0.0 0.0 0.0 0.0074708275 0.0 0.0 0.0 0.0 0.0 0.0 0.0 0.0 0.0 0.0 0.0 0.0 0.020093273 5.918533e-14 0.0 0.0 0.0 0.0 0.0 0.0 0.0 0.0 0.0 0.0 0.0 0.0 0.0 0.0 0.0 0.0 0.0 0.0 0.0 0.0 0.0 0.0 0.0 0.0 0.0 0.0 0.0 0.0 0.0 0.0 0.0 0.0 0.0 0.0 0.0 0.0 0.0 0.0 0.0 0.0 0.0 0.0 0.0 0.0 0.0 0.0 0.0 0.0 0.0 0.0 0.0 0.0 0.0 0.0 0.0 0.0 0.0 0.0 0.0033446185 0.0 0.0 0.0 0.0 0.0 0.0 0.0 0.078227766 0.0 0.47825953 0.0 0.0 0.0 0.0 0.0 0.0 0.0 0.0 0.0 0.0 0.0 0.0 0.0 0.0 0.0 0.0 0.0 0.0 0.0 0.0 0.0 0.0 0.0 0.0 0.0 0.0 0.116308615
1550 0.0 0.0 0.0 0.0 0.0 0.0 0.0 0.006997705 0.0 0.0 0.0 0.0 0.0 0.0 1.0659689e-24 0.0 0.0 3.6259453e-13 0.0 0.0 0.0 0.0 0.0 0.0 0.0 0.0 0.0 0.0 0.0 0.0 0.021271018 4.721865e-17 0.0 0.0 0.0 0.0 0.0 3.02122e-29 0.0 0.0 0.0 0.0 0.0 0.0 0.0 0.0 0.0 0.0 0.0 0.0 0.0 0.0 0.0 0.0 0.0 0.0 0.0 0.0 0.0 0.0 0.0 0.0 0.0 0.0 0.0 0.0 0.0 0.0 0.0 0.0 0.0 0.0 0.0 0.0 0.0 0.0 0.0 0.0 0.0 0.0 0.0 0.0 0.0 0.0 0.0 0.0 0.0 0.0 0.0 0.0 1.7543646 0.0 0.0 0.0 0.0 0.0 3.7269316e-28 0.0 0.060250204 0.0 0.47400168 0.0 0.0 0.0 0.0 0.0 0.0 0.0 0.0 0.0 0.0 0.0 0.0 0.0 0.0 0.0 0.0 0.0 0.0 0.0 0.0 0.0 0.0 0.0 0.0 0.0 0.0 0.08454108
2273 0.0 0.28171793 0.0 0.0 0.0 0.0 0.0 0.049417727 0.0 0.0 0.18783416 0.0 0.0 0.8419679 0.028569648 7.0885826e-29 0.0 0.0 0.0 0.0 0.0 0.0 0.0 0.0 0.0 0.0 0.0 0.0 0.0 0.0 1.2440663e-34 0.0 0.0 0.0 0.0 0.0 0.0 0.0 0.0 0.078068286 0.0 0.0 1.2514605e-19 0.0 0.0 0.0 0.0 0.0 0.0 0.0 0.0 6.7449657e-16 0.0 0.0 0.0 0.0 2.0372284e-15 0.0 0.0 0.0 0.0 0.0 0.0 0.0 0.0 0.0 0.0 0.0 0.0 0.0 0.0 0.0 0.0 0.0 0.0 0.0 0.0 0.0 0.0 0.0 0.0 0.0 0.0 0.6785857 0.0 0.0 0.0 0.0 0.0 0.0 0.0 0.0 2.5192013 0.0 0.0 0.0 0.0 0.0 5.66776 0.0 0.23405437 0.0 0.0 0.0 0.0 0.0 7.1225946e-13 0.0 0.0 3.9629557e-23 0.0 0.0 1.8629087e-37 0.0 0.0 0.0 0.0023212794 0.0 0.0 0.0 0.0 0.0 0.0047449647 0.0 0.0 0.0 0.0 0.03180067
1616 0.0 0.0 0.0 0.0 0.0 0.0 0.0 0.0 0.0 5.6029563 0.0 0.0 0.0 0.0 0.0 0.0 0.0 0.0 0.0 0.0 0.0 0.0 0.0 0.0 0.0 0.0 0.0 0.0 0.0 0.0 0.0 0.0 0.0 0.0 0.0 0.0 0.0 0.0 0.0 0.0 0.0 0.0 0.0 0.0 0.0 0.0 0.0 0.0 0.0 0.0 0.0 0.01069007 0.0 0.0 0.0 0.0 7.241222e-15 0.0 0.0 0.0 0.0 0.0 0.0 0.0 0.0 0.0 0.0 0.0 0.0 0.0 0.0 0.0 0.0 0.0 0.0 0.0 0.0 0.0 0.0 0.0 0.0 4.2693877e-34 0.0 0.0 0.0 0.0 0.0 0.0 0.0 0.0 0.0 0.0 0.0 0.0 0.0 0.0 0.0 0.0 1.1805564e-17 0.0 2.7610294e-14 0.021320878 0.0 6.946524e-21 0.0 0.0 0.0 0.0 0.0 0.0 0.0 0.0 0.0 0.0 0.0 0.0 0.0 0.0 0.0 0.0 0.0 0.0 0.0 0.0 0.0 0.0 0.0 9.566547e-05
2158 0.0 0.0 0.0 0.0 0.0 0.0 0.0 0.0 0.0 5.4779115 0.0 0.0 0.0 0.0 0.0 0.0 0.0 0.0 0.0 0.0 0.038696922 0.0 0.0 0.0 0.0 0.0 0.0 0.0 0.0 0.0 0.0 0.0 0.0 0.0 0.0 0.0 0.0 0.0 0.0 0.0 0.0 0.0 0.0 0.0 0.0 0.0 0.0 0.0 0.0 0.0 0.0 2.1662143e-28 0.43178377 0.0 0.0 0.0 0.0 0.0 0.0 0.0 0.0 0.0 0.0 0.0 0.0 0.0 0.0 0.0 0.0 0.0 0.0 0.0 0.0 0.0 0.0 0.0 0.0 0.0 0.0 0.0 0.0 0.0 0.0 0.0 0.0 0.0 0.0 0.0 0.0 0.0 3.372647e-32 0.0 0.0 0.0 0.0 0.0 0.0 0.0 0.0 0.0 1.1076154 0.050537758 0.0 0.0 0.0 0.0 0.0 0.0 0.0 0.0 0.0 0.0 0.0 0.0 0.0 0.0 0.0 0.0 0.0 0.0 0.0 0.0 0.0 0.0 0.0 0.0 0.0 0.0
1624 0.0 0.0 0.0 0.0 0.0 0.0 0.0 0.0 0.0 6.4348297 0.0 0.0 0.0 0.0 0.0 0.0 0.0 0.0 0.0 0.0 0.0 0.0 3.3488696e-21 4.7636034e-33 0.0 0.0 0.0 0.0 0.0 0.0 0.0 0.0 0.0 0.0 0.0 0.16009691 0.0 2.2808044e-06 0.0 0.0 0.0 0.0 0.0 0.0 0.0 0.0 0.0 0.0 0.0 0.0 0.25637996 8.252979e-22 0.0 0.0 0.0 0.0 3.0105655e-29 0.0 0.0 0.0 0.0 0.0 0.0 0.0 0.9181375 0.0 0.0 0.0 0.0 0.0 0.0 0.0 0.0 0.0 0.0 0.0 0.0 0.0 0.0 0.0 0.0 0.4552119 0.0 0.0 0.0 0.0 0.0 0.0 0.0 0.0 1.7705723 0.0 0.0 0.0 0.0 0.0 0.18274999 0.0 0.0 0.0 9.307564e-15 1.8935236e-34 0.0 0.0 0.0 0.0 0.0 0.0 0.0 0.0 0.0 0.0 0.0 0.0 0.0 0.0 0.0 0.0 0.0 0.0 0.0 0.0 0.0 0.0 0.0 0.0 0.0 2.790858e-27
2165 0.0 0.0 0.0 0.0 0.0 0.0 0.0 0.0 0.0 1.5613608 0.0 0.0 0.0 0.0 1.03928745e-22 0.0 0.0 0.0 0.0 0.0 0.14432554 0.0 0.0 0.0 0.0 0.0 0.0 0.0 0.0 0.0 0.0 0.0 0.0 0.0 0.0 0.0 0.0 0.0 0.0 0.0003616095 0.0 0.0 0.0 0.0 0.0 0.0 0.0 0.0 0.0 0.6396848 0.0 0.0 3.0010235 0.0 0.0 0.0062151877 0.0 0.0 0.0 0.0 0.0 0.0 0.0 0.0 0.0 0.0 0.0 0.0 0.0 0.0 0.0 0.0 0.0 0.0 0.0 0.0 0.0 0.0 0.0 0.0 0.0 0.0 0.0 0.0 0.0 0.0 0.0 0.0 0.0 0.0 0.0 0.0 0.0 0.0 0.0 0.0 0.0 0.0 0.0 0.0 1.1522677 0.24766453 0.0 0.0 0.0 0.0 0.0 0.0 0.0 0.0 0.0 0.0 0.0 0.0 0.0 0.0 0.0 0.0 0.0 0.0 0.0 0.0 0.0 0.0 0.14265457 0.0 0.0 0.0
2167 0.0 0.0 0.0 0.0 0.0 0.0 0.0 0.0 0.0 1.5145366 0.0 0.0 0.0 0.0 0.0 0.0 0.0 0.0 0.0 0.0 0.035565704 0.0 0.0 0.0 0.0 0.0 0.0 0.0 0.0 0.0 0.0 0.0 0.0 0.0 0.0 0.0 0.0 0.0 0.0 0.0 0.0 0.0 0.0 0.0 0.0 0.0 0.0 0.0 0.0 0.0 0.0 0.0 2.8496532 0.0 0.0 0.0 0.0 0.0 0.0 0.0 0.0 0.0 0.0 0.0 0.0 0.0 0.0 0.0 0.0 0.0 0.0 0.0 0.0 0.0 0.0 0.0 0.0 0.0 0.0 0.0 0.0 0.0 0.0 0.0 0.0 0.0 0.0 0.0 0.0 0.0 0.0 0.0 0.0 0.0 0.0 0.0 0.0 0.0 0.0 0.0 1.6795859 0.0 0.0 0.0 0.0 0.0 0.0 0.0 0.0 0.0 0.0 0.0 0.0 0.0 0.0 0.0 0.0 0.0 0.0 0.0 0.0 0.0 0.0 0.0 0.0 0.0 0.0 0.0
1631 0.0 0.0 0.0 0.0 1.3160198 0.0 0.0 0.0 0.0 6.120585 0.0 0.0 0.0 0.0 0.0 0.0 0.0 0.0 0.0 0.0 0.0 0.0 0.0 0.0 0.0 0.0 0.0 0.0 0.0 0.0 0.0 0.0 0.0 0.0 0.0 0.0 0.0 0.0 0.0 0.0 0.0 0.0 0.0 0.0 0.0 0.0 0.0 0.0 0.0 0.0 0.0 6.469769e-14 0.0 0.0 0.0 0.041214544 7.370629e-30 0.0 0.0 0.0 0.0 0.0 0.0 0.0 0.0 0.0 0.0 0.0 0.0 0.0 0.0 0.0 0.0 0.0 0.0 0.0 0.0 0.0 0.0 0.0 0.0 0.0 0.016649328 0.0 0.0 0.0 0.0 0.0 0.0 0.0 0.0012901279 0.0 0.0 0.0 0.0 0.0 0.0 0.0 0.0 0.0 5.020788e-19 0.051761374 0.0 0.0 0.0 0.0 0.0 0.0 0.0 0.0 0.0 0.0 0.0 0.0 0.0 0.0 0.0 0.0 0.0 0.0 0.0 0.0 0.0 0.0 3.8182986e-31 0.0 0.005064974 1.98879e-21
1640 0.0 0.0 0.0 0.0 0.0 0.18983552 0.0 0.0 0.0 6.061746 0.0 0.0 0.0 0.0 0.0 0.0 0.0 0.0 0.0 0.0 0.0 0.0 0.0 0.0 0.0 0.0 0.0 0.0 0.0 0.113504976 0.0 0.0 0.25836092 0.0 0.0 0.0 0.0 0.0 0.0 0.0 0.0 0.0 0.0 0.0 0.0 0.0 0.0 0.0 0.0 0.0 2.2398898e-19 0.0 0.0 0.0 0.0 0.0 5.612404e-29 0.0 0.0 0.0 0.0 0.0 0.0 0.0 0.0 0.0 0.0 0.0 0.0 0.0 0.0 0.0 0.0 0.0 0.0 0.058785375 0.0 0.0 0.0 0.0 0.0 0.0 0.0 0.0 0.0 0.0 0.0 0.0 0.12336226 0.0 0.0 0.0 0.0 0.0 0.0 0.0 0.20182702 0.0 0.0 0.0 2.3081515e-16 1.0758709 0.0 0.0 0.0 0.0 0.0 0.0 0.0 0.0 0.0 0.0 0.0 0.0 0.0 0.0 0.20224914 0.0 0.0 0.0 0.0 0.0 0.0 0.0 0.0 0.0 0.0 0.007446942
1659 0.0 0.0 0.013115892 0.19583409 0.0 0.0 0.0 0.0 0.0 6.335014 0.0 0.0 0.0 0.0 0.0 0.0 0.0 0.0 0.0 0.0 0.0 0.0 0.0 0.0 0.0 0.0 0.0 0.0 0.0 0.0 0.0 0.0 0.0 0.0 0.0 0.0 0.0 0.0 0.0 0.0 0.0 0.0 0.0 0.0 0.0700068 0.0 0.0 0.0 0.0 0.0 0.0 0.019075073 0.0 0.0 0.0 0.0024327324 0.27507848 0.0 0.0 0.0 0.0 0.0 0.0 0.0 0.0 0.0 0.0 0.0 0.0 0.0 0.0 0.0 0.0 0.0 0.0 0.0 0.0 0.0 0.0 0.0 0.0 0.0 3.2909378e-07 6.519539e-06 0.0 0.0 0.0 0.0 0.0 0.0 0.0 0.0 0.0 0.0 0.0 0.0 0.0 0.0 8.661409e-29 0.0 1.8493143e-25 2.246886e-10 0.0 0.0 0.0 0.0 0.0 0.0 0.0 0.0 0.0 0.0 0.0 0.0 0.0 0.0 0.0 0.0 0.0 0.0 0.0 0.0 0.0 0.0 9.1299586e-36 0.0 0.0 0.0065669394
1662 0.0 0.0 0.0 0.0 0.0 0.0 0.0 0.0 0.0 5.423561 0.0 0.0 0.0 0.0 0.0 0.0 0.0 0.0 0.0 0.0 0.0 0.0 0.0 0.0 0.0 0.0 0.0 0.0 0.0 0.0 0.0 0.0 0.0 0.0 0.0 0.0 0.0 0.0 0.0 0.0 0.0 0.0 0.0 0.0 0.0 0.0 0.0 0.0 0.0 0.0 0.0 2.22083e-18 0.0 0.0 0.0 0.0 0.0 0.0 0.0 0.0 0.0 0.0 0.0 0.0 0.0 0.0 0.0 0.0 0.0 2.1807764 0.0 0.0 0.0 0.0 0.0 0.0 0.0 0.0 0.0 0.0 0.0 0.0 0.0 0.0 0.0 0.0 0.0 0.0 0.0 0.0 1.7442337 0.0 0.0 0.0 0.0 0.0 4.0122158e-32 0.0 0.0 0.0 6.0288896e-15 6.789557e-05 0.0 0.0 0.0 0.0 0.0 0.0 0.0 0.0 0.0 0.0 0.0 0.0 0.0 0.0 0.0 0.0 9.526399e-33 0.0 0.0 0.0 2.0389526 0.0 0.0 0.0 0.0 9.645662e-35
2280 0.0 0.0 0.0064843358 0.0 0.0 0.0 0.0 0.0 0.0 2.1130624 0.0 0.0 0.0 0.0 0.0 0.0 0.0 0.0 0.0 0.0 0.04653902 0.0 0.0 0.0 0.0 0.0 0.0 0.0 0.0 0.0 0.0 0.0 0.0 0.0 0.0 0.0 0.0 0.0 0.0 0.0 0.0 0.0 0.0 0.0 0.0 0.0 0.0 0.0 0.0 0.0 0.0 1.5383588e-27 0.40598446 0.0 0.0 0.0 0.0 0.0 0.0 0.0 0.0 0.0 0.0 0.0 0.06897571 0.0 0.0 0.0 0.0 0.0 0.0 0.0 0.0 0.0 0.0 0.0 0.0 0.0 0.0 0.0 0.0 0.0 0.0 0.0 0.0 0.0 0.0 0.0 0.0 0.0 0.0 0.0 0.0 0.0 0.0 0.0 0.0 0.0 0.0 0.0 1.1411508 0.0 0.0 0.0 0.0 0.0 0.0 0.0 0.0 0.0 0.0 0.0 0.0 0.0 0.0 0.0 0.0 0.0 0.0 0.0 0.0 0.0 0.0 0.0 0.0 0.0 0.0 0.065594256
2307 0.0 0.0 0.0 0.0 0.0 0.0 0.0 0.0 0.0 1.5400796 0.0 0.0 0.0 0.0 0.0 0.0 0.0 0.0 0.0 0.0 0.049868617 0.0 0.0 0.0 0.0 0.0 0.0 0.0 0.0 0.0 0.0 0.0 0.0 0.0 0.0 0.0 0.0 0.0 0.0 0.0 0.0 0.0 0.0 0.0 0.0 0.0 0.0 0.0 0.0 0.0 0.0 1.02796854e-13 0.40171444 0.0 0.0 0.0 0.0 0.0 0.0 0.0 0.0 0.0 0.0 0.0 0.0 0.0 0.0 0.0 0.0 0.0 0.0 0.0 0.0 0.0 0.0 0.0 0.0 0.0 0.0 0.0 0.0 0.0 0.0 0.0 0.0 0.0 0.0 0.0 0.0 0.0 4.466842e-08 0.0 0.0 0.0 0.0 0.0 0.0 0.0 0.0 0.0 1.3164024 0.0 0.0 0.0 0.0 0.0 0.0 0.0 0.0 0.0 0.0 0.0 0.0 0.0 0.0 0.0 0.0 0.0 0.0 0.0 0.0 0.0 0.0 0.0 0.0 0.0 0.0 6.3385775e-19
16 0.0 0.0 1.1351261e-26 0.17106768 1.985265e-08 0.0 0.0 0.0 0.022319922 0.0 5.137804e-21 0.0 0.0 0.0 0.0 0.0 0.0 0.0 0.0 0.0 3.267619e-29 0.0 0.0 0.6009881 0.0 0.0 0.0 0.0 0.0 0.0 0.073907934 0.0 0.0 4.4889565 0.0 0.0 1.7255408e-09 0.0 0.0 0.0 0.0 0.0 0.4848831 0.0 0.0 0.0 1.3646396e-33 0.024289837 8.231594e-09 0.29367682 0.0 0.0 0.0 0.0 0.0 0.0 0.0 0.0 0.0 0.0 0.0 0.0 0.0 0.0 0.0 0.27874583 0.0 6.300603e-17 0.013709451 0.0 0.0 0.0 0.0 0.0 0.1869516 0.0 0.0 0.0 0.0 0.0 0.0 0.0 0.114257306 0.0 0.0 0.0 0.0 0.0 2.439607e-12 0.0 0.0 0.0 0.0 0.3256852 0.0005278828 0.0 0.113045305 0.0 0.0 5.2734376e-05 0.48271132 0.0 0.0 0.0 0.0 0.0 0.0 0.0 0.0 0.0 0.0 0.0 0.0 0.0 0.0 0.0 0.2046885 0.054083493 1.6023657 0.0 0.0 0.0 0.0 2.811e-28 0.0 0.0 1.6915566 1.8508942e-07
11 0.0 0.0 0.0 0.2468284 0.0 8.795432e-12 0.0 0.0 0.0 0.0 0.0 0.0 0.0 0.0 0.0 0.0 0.0 0.0 0.0 0.0 7.704095e-10 0.0 0.0 0.0 0.0 0.0 0.0 0.0 0.0 0.0 0.0 0.0 0.0 2.5502002 0.0 0.0 6.460012e-11 0.0 0.021804085 0.0 0.0 0.0 0.5548876 0.0 0.0 0.0 0.0 0.0 0.0 0.33493125 0.0 0.0 0.0 0.0 0.0 0.0 0.0 0.0 0.0 0.0 0.0 0.0 0.0 1.02663295e-24 0.0 0.0 0.0 0.0018486164 0.0 0.009122402 0.0 0.0 0.0 0.0 0.0 0.0 0.0 0.0 6.7718027e-15 0.0 0.0 0.0 0.0 0.0 0.0 0.0 2.1850917 0.0 0.014760426 0.0 0.0 0.0 0.0 0.37688676 0.010317286 0.0 0.0 0.0 0.0 0.0 1.3508821e-07 0.0 0.0 0.0 0.0 0.0 0.0 0.0 0.30347836 0.0 0.0 0.0 0.0 0.0 0.0 0.0 0.0 0.0 0.1963411 0.0 0.0 0.0 0.0 1.1850294e-22 0.0 0.0 0.0 0.0
48 0.0 0.0 5.830921e-30 0.0 0.0 0.0 0.0 0.0 0.0 0.0 0.0 0.0 0.0 0.0 0.0 0.0 0.0 0.0 0.0 0.0 1.7606755e-14 0.0 0.0 0.0 0.0 0.0 0.0 0.0 4.1201878e-07 0.0 0.0 0.0 0.0 2.542363 0.0 0.0 0.0 1.731116e-21 1.0657085e-24 0.0 0.0 0.0 0.0 0.0 0.0 0.0 0.0 0.0 0.0 0.0 0.0 0.0 0.0 0.0 0.0 0.0 0.0 0.0 0.0 0.0 0.0 0.0 0.0 0.0 0.0 0.0 0.0 0.0 0.0 0.0 0.0 0.0 0.0 0.0 0.0 0.0 0.0 0.0 0.0 0.0 0.0 0.0 0.0 0.0 1.4894072 0.0 0.0 0.0 0.0 0.0 0.0 0.0 0.0 0.0 0.0 0.0 0.0 0.0 0.0 0.0 0.0 0.0 0.0 0.0 0.0 0.0 2.5205206e-06 0.0 0.2554839 0.0 0.0 0.0 0.0 0.0 0.0 0.0 0.0 0.0 1.5371335 0.0 0.0 0.0 0.0 0.0 0.0 0.0 0.0 0.034025628
68 0.0 0.0 0.0 0.0 0.0 3.219052e-32 0.0 0.0 1.6799557e-21 0.0 1.0635465e-11 0.0 0.0 0.0 1.00252095e-07 0.0 3.315549e-06 0.0 0.0 0.0 0.0 0.0567506 0.0 0.0 0.0 2.6263847e-25 0.03644338 3.6381657e-12 0.01524624 3.0994882e-34 0.0 0.0 6.857644e-29 0.00042555248 0.0058638137 0.0 0.0 0.0 1.9448476e-11 0.0 0.0 1.9754969 0.0 0.0 3.0885583e-09 5.1130055e-12 0.005044958 0.0 0.0 0.0 0.0 1.7198151e-35 3.1261283e-17 0.0 0.0 0.0 3.0469322e-35 0.04447761 3.2966383e-08 0.0 0.0 0.0 0.0 0.015412806 0.0 1.24678605e-08 0.0 0.0 0.0 1.9766809 0.0 0.0 0.0 9.1669e-12 0.0 1.5929655e-33 0.0 8.567637e-20 0.18222687 0.0 3.5806113e-33 0.23139851 9.1472804e-26 0.0 4.047031e-07 7.223459e-15 0.66141886 0.0 1.5892981e-22 0.0 0.0 0.0 0.0 0.0 0.0 0.0 0.0 0.0 1.7018153e-22 0.0 5.0102025e-09 0.0 0.0 0.0 0.8637455 0.0 0.0 2.2347684e-30 0.0 0.0 0.017222088 0.00025378112 1.5816168e-33 0.0 0.05336349 0.0 1.0812256e-29 0.0 19.656258 0.0 0.0 8.581711e-24 0.0 0.0 0.0 0.0 0.0 8.202759e-13
67 0.0 0.0 0.0 0.0 0.0 0.0 0.0 0.0 0.0 0.0 0.0 0.0 0.0 0.0 0.0 0.0 0.0 0.0 0.0 0.0 0.01579645 0.0 0.0 0.0 0.0 0.0 0.0 0.0 0.0 0.0 0.0 0.0 0.0 2.3504467 0.0 0.0 0.0 0.04627371 0.034927506 0.0 0.0 0.0 0.0 0.0 0.0 0.0 0.0 0.0 0.0 0.0 0.0 0.0 0.0 0.0 0.0 0.0 5.987159e-14 0.0 0.0 0.0 0.0 0.0 0.0 3.3566892e-11 0.0 0.0 0.0 0.0 0.0 0.0 0.0 0.0 0.0 0.0 0.0 0.0 0.0 0.0 1.7442259e-19 0.0 0.0 7.228133e-36 0.0 0.0 0.07019256 0.0 0.0 0.0 0.0 0.0 1.7533989 0.0 0.0 5.409242e-24 0.0 0.0 0.0 0.0 0.0 0.0 0.0 0.0 0.0 0.0 0.0 0.0 0.0 0.0 0.33694366 0.0 0.0 0.0 0.0 0.0 0.0 0.0 0.0 0.0 0.35882825 0.0 0.0 0.0 0.0 0.0 0.0 3.6123216e-11 0.0 4.488309e-28
88 0.0 0.40923053 0.0 0.0 0.37900648 0.0 0.0 0.318786 0.0 0.0 0.2007645 0.0 0.0 0.0 0.0 0.0 0.0 0.0 0.0 0.0 0.0 0.0 0.0 3.1210048 0.0 1.1170672e-06 0.0 0.0 0.0 0.0 0.0 0.0 0.048167624 3.1567925e-11 0.0 0.0 3.785013e-27 0.2069282 0.0 0.0 1.647424e-32 0.0 0.0 0.0 0.0 0.0 0.31677258 0.0 3.5487228e-25 0.0 0.0 0.0 0.0 0.0 0.0 0.0 6.609264e-29 0.0 0.31078723 5.2192476e-37 0.0 0.0 0.0 0.0 0.78243154 1.2995562e-09 0.0 0.0 0.0 0.0 0.0 0.0 0.0 0.0 0.0 0.3799572 0.0 0.0 0.0 0.0 2.515874e-30 0.106284276 0.0 0.0 0.0 0.0 1.8777362 0.0 0.0 0.0 0.0 0.0 0.0 0.0 0.0 0.0 0.32461506 0.0 0.0 5.198439e-07 1.1018776e-11 0.112707935 0.0 0.0 0.0 0.0 0.0 0.0 1.0865773e-18 0.0 0.0 0.0 0.0009339312 1.865963e-33 0.0 0.0 3.0459008 0.0 5.10443 0.0 0.0 0.0 0.0 0.0 0.0 0.013958412 1.7026517 0.0
116 0.0 0.0 0.0 0.0 0.0 0.061654635 0.0 0.0 0.0 0.0 1.48304e-16 0.0 0.0 0.0 0.022145111 0.0 0.0 0.0 0.0 0.0 3.6721917e-07 0.0 0.0 0.0 0.0 0.0 0.0 0.0 0.0 0.0 0.0 0.0 0.0 2.0707724 0.0 0.0 0.0 0.0 0.0 0.0 0.0 0.0 0.0 0.0 0.0 0.0 0.0 0.0 0.0 0.0 0.0 0.025748707 0.0 0.0 0.0 0.0 0.0 0.0 0.0 5.234165e-26 0.0 0.0 0.0 0.0 0.0 9.108592e-16 0.0 4.2561352e-16 0.0 2.7836783e-34 0.0 0.0 0.0 0.0 0.0 0.0 0.0 0.0 0.0 0.0 8.433901e-14 0.0 0.0 0.0 0.0 0.0 1.9089769 0.0 0.0 0.0 0.0 0.0 2.2836637 0.026019005 0.0 0.7693712 0.59394234 0.0 0.0 0.0 5.817337e-28 0.0 0.0 0.0 0.0 0.0 0.0 0.0 0.02536737 0.0 0.0 0.0 2.1322302e-32 0.0 0.0 0.0 0.0 0.0 2.838667 0.0 0.0 0.0 0.0 0.0 0.0 0.0 0.0 1.8586934e-26
119 3.2842145e-24 0.0 0.0 0.0 7.525167e-11 0.0 0.0 0.0 0.088940084 0.0 0.0 0.0 0.0 0.0 3.0574042e-36 0.0 0.0 0.0 0.0 0.0 1.0214456e-26 0.0 0.0 6.136587e-09 0.0 5.9457012e-36 0.0 1.1183956e-19 0.0 0.0 0.0 2.8193382e-13 0.0 0.00297145 0.0 7.902965e-36 5.8972535e-33 3.2435218e-11 0.0 0.0 0.0 0.0 8.721981e-35 0.0 0.0 0.0 0.00011012837 1.1247723e-05 0.0 0.0 0.0 0.0 1.8647798 0.0 0.045454368 0.0 8.852536e-20 0.0 0.0 0.0 0.0 0.0 1.2788476e-29 0.0 0.0 2.8475228e-22 4.8203535e-23 0.0 0.04581032 4.9387888e-29 5.826679e-18 0.0 0.0 0.0 0.005733133 0.0 0.027113937 0.0 0.0 0.0 0.0 0.0 4.0692304e-23 0.0 0.0 0.0 0.0 0.0 2.6891697e-20 0.16652167 1.7207596 0.0 0.0 2.9940063e-18 5.384321e-37 8.261762e-23 1.5863386e-09 0.22636653 2.8562173e-29 0.0 4.0327265e-08 0.0 6.329216e-21 0.0 0.0 5.5861393e-29 0.0 0.0 14.844025 4.0560795e-09 0.0 0.0 5.4532206e-06 0.0 0.0 0.0 1.1647286e-22 1.3820264e-09 1.9450096e-13 0.0 0.0 3.506512e-30 1.811774 0.0 0.0 0.0 0.0 1.1865004e-19
493 0.0 5.5383485e-18 3.210527e-29 1.8953924 0.0 0.0 0.17600614 0.0 0.0 0.0 0.0 0.0 0.0 0.0 0.0 0.0 0.0 5.4912363e-30 0.0 0.0 3.4833522 0.0 0.0 0.77182627 0.0 0.0 0.0 0.33913133 0.0 0.0 0.0 0.0 0.0 0.1449005 0.0 2.3183877 2.0922384 0.0022677153 0.0 0.0 2.5715042e-17 0.0 3.4121938 0.0 0.0 0.0 0.0 0.0 0.0 6.789521e-09 1.3954695e-24 4.9835753e-32 0.0 0.0 0.0 0.0 0.2224568 0.0 0.0 0.0 3.4304434e-15 0.0 0.0 0.0 0.0 0.1992627 0.044611488 0.8565678 0.0 0.0 0.0 0.0 0.0 0.0 0.0 0.0 0.0 0.0 0.0 0.0 0.0 0.0 0.0 4.392694e-27 0.0 0.0 0.0 0.0 0.8636624 0.0 0.0 9.761971e-36 0.0 2.900798 0.4618917 0.0 0.0 2.118913e-31 0.0 0.0 0.0 0.0 0.0 0.0 0.0 0.0 5.2100665e-07 0.0 0.34198302 0.0 0.0 0.0 0.0 0.0 0.0 0.0 0.0 0.05212858 1.8176405 0.0 0.0 0.0 0.0 1.7733797 0.0 0.0 0.0 0.0
167 0.0 0.0 0.0 0.0 0.0 0.0 0.0 0.0 0.0 0.0 0.26852882 0.0 0.0 0.0 0.0 0.0 0.0 0.0 0.0 0.0 0.0 0.0 0.0 0.0 0.0 0.0 0.0 0.0 0.0 0.0 0.0 0.0 0.0 3.3666635 0.0 0.0 0.0 2.9795787e-16 2.824283e-20 0.0 0.0 0.0 0.0 0.0 0.0 0.0 0.001732281 0.0 0.0 0.0 0.0 0.0 0.0 0.0 0.0 0.0 0.0901314 0.0 0.0 0.0 0.0 0.0 0.0 0.0 0.0 0.0 0.0 0.0 0.0 0.0 0.0 0.0 0.0 0.0 0.0 0.0 0.00025066192 0.0 0.0 0.0 0.0 0.0 0.0 0.0 5.451068e-22 0.0 0.0 0.0 0.0 0.0 1.752632 0.0 0.0 0.0 0.0 0.0 0.0 0.0 0.0 0.0 0.0 0.0 0.0 0.0 0.0 0.0 0.0 0.0 0.26160648 0.0 0.0 0.0 0.0 0.0 0.0 0.0 0.0 0.0 2.5171804 0.0 0.0 0.0 0.0 0.0 0.0 0.0 0.0 0.065722086
181 0.0 0.0 0.0 0.0 0.0 0.0 0.0 0.0 0.0 0.0 4.0603867e-32 0.0 0.0 8.606326e-18 0.0 0.0 0.0 0.0 0.0 0.0 1.2866096e-33 0.0 0.0 0.0 0.0 0.0 0.0 0.0 0.0 0.0 0.0 0.0 0.0 3.5016007 0.0 0.0 0.0 0.0 0.0 0.0 0.0 0.0 6.244051e-36 0.0 0.0 0.0 0.0 0.0 0.0 0.0 0.0 0.0 0.0 0.0 0.0 0.0 1.156604e-32 0.0 0.0 0.0 0.0 0.0 0.0 0.0 0.03860828 8.607486e-27 0.0 0.0 0.0 0.0 0.0 0.0 0.0 0.0 0.0 0.20218287 0.0 0.40023234 0.0 0.0 1.6546365 0.0 0.0 0.0 1.9761945e-37 0.0 0.0 0.0 0.0 0.0 0.0 0.0 0.0 0.0 0.012999307 0.03869321 0.0 0.0 0.0 0.0 0.0 0.0 0.0 0.0 0.0 0.0 0.0 0.0 0.57419395 0.0 0.0 0.0 3.9862292e-30 0.0 0.0 0.0 0.0 2.1459982 6.3997836 0.0 0.0 0.0 0.0 0.0 0.0 1.6343293 0.0 0.013451566
15 0.0 0.0 0.0 0.0 0.0 0.0 0.0 0.0 0.0 0.0 8.359264e-14 0.0 0.0 0.0 1.3779559e-19 0.0 0.0 0.0 0.0 0.0 0.027511712 0.0 0.0 0.0 0.0 0.0 0.0 0.0 0.0 0.0 0.0 0.0 0.0 4.5453224 0.0 0.0 0.0 7.1361377e-22 0.0 0.0 0.0 0.0 0.0 0.0 0.0 0.0 4.6255314e-05 0.0 0.0 0.0 0.0 0.0 0.0 0.0 0.0 0.0 0.0 0.0 0.0 1.6477637e-20 0.0 0.0 0.0 0.0 0.0 3.3104968e-14 0.0 0.0 0.0 0.0 0.0 0.0 0.0 0.0 0.0 0.0 0.0 0.0 0.0 0.0 1.6416346 0.0 0.0 0.0 0.0 0.0 0.0 0.0 0.0 0.0 0.0 0.0 0.0 0.0 0.0 0.0 0.1867964 0.0 0.0 0.0 0.0 0.0 0.0 0.0 0.0 0.0 0.0 0.0 0.20378253 0.0 0.0 0.0 5.88609e-32 0.0 0.0 0.0 0.0 0.0 1.3749956 0.0 0.0 0.0 0.0 1.10119e-28 0.0 0.0 0.0 1.8179266e-13
64 0.0 0.0 0.0 0.0 0.012524334 0.0 0.0 0.0 0.0 0.0 2.8760072e-09 0.0 0.0 0.0 0.15912034 0.0 0.0 0.0 0.0 0.0 0.0 0.0 0.0 0.14391227 0.0 0.0 0.0 0.0 0.0 0.0 0.0 0.0 0.0 5.1556864 0.0 0.0 0.0 1.834249e-22 0.0 0.010305096 0.0 0.0 0.0 0.0 0.0 0.0 0.015105657 0.0 0.0 0.0 0.0 0.0 0.0 0.0 0.0 0.0 0.0 0.0 0.0 0.0 0.0 0.0 0.0 0.0 2.354635e-32 0.012119226 0.0 0.0 0.0 0.0 0.0 0.0 0.0 0.0 0.0 0.0 0.0 0.0 0.0 0.0 0.0 0.0 0.0 0.0 0.0 0.0 0.0 0.0 0.0 0.0 0.0 0.0 0.0 0.0 0.0 0.0 0.16940425 0.0 0.0 0.0 0.0 0.0 0.0 0.0 0.0 0.0 0.0 0.0 0.0 0.0 0.0 0.0 0.0 0.0 0.0 0.0 0.15909687 6.716202e-34 5.603194e-07 0.0 0.0 0.0 0.0 0.0 0.0 0.0 0.0 3.884505e-07
66 0.0 0.0 0.0 0.24639189 0.0 9.98398e-32 0.0 0.0 0.0 0.0 0.0 0.0 0.0 0.0 5.476491e-05 0.0 0.0 0.0 0.0 0.0 2.6490594e-32 0.0 0.0 0.0 0.0 0.0 0.0 0.0 0.0 0.0 0.0 0.0 0.0 3.4836335 0.0 0.0 4.3621767e-18 0.0 2.4864959e-24 0.0 0.0 0.0 0.52892363 0.0 0.0 0.0 6.429522e-11 0.0 0.0 0.31580767 0.0 0.0 0.0 0.0 0.0 0.0 2.5943817e-18 0.0 0.0 0.0 0.0 0.0 0.0 0.0 0.0 1.1850657e-06 0.0 0.015255884 0.0 0.0 0.0 0.0 0.0 0.0 0.0 0.49303168 0.0 0.0 0.0 0.0 0.0 0.0 0.0 0.0 0.24664842 0.0 2.483841 0.0 6.200026e-09 0.0 0.0 0.0 0.0 0.32761633 0.0044842944 0.0 0.09169281 0.0 0.0 0.0 1.7414412e-34 0.0 0.0 0.0 0.0 0.0 0.0 0.0 0.18487872 0.0 0.0 0.0 0.0 0.0 0.0 0.0 0.0 4.0228636e-27 3.0209758 0.0 0.0 0.0 7.054065e-35 6.022275e-29 0.0 0.0 0.0 4.877957e-06
73 0.0 0.0 0.0 0.0 0.0 0.0 0.0 0.0 0.0 0.0 2.1429148e-33 0.0 0.0 1.5759008e-17 0.06209652 0.0 0.0 0.0 0.0 0.0 0.0 0.0 0.0 0.0 0.0 0.0 0.111041285 0.0 0.0 0.0 0.0 0.0 0.0 4.6909385 0.0 0.0 0.0 0.0 0.0 0.0 0.0 0.0 0.0 0.0 0.0 0.0 2.294248e-09 0.0 0.0 0.0 0.0 0.0 0.0 0.0 0.0 0.0 9.2179777e-17 0.0 0.0 0.0 3.6200655e-15 0.0 0.0 7.9915737e-35 0.39854774 0.0 0.0 0.0 0.0 0.0 0.0 0.0 0.0 0.0 0.0 0.0 8.375092e-37 0.001524719 0.0 0.0 3.3527838e-19 0.0 0.0 0.0 0.29343244 0.0 1.9404999 0.0 0.0 0.0 1.7593356 0.0 0.0 0.0 0.0 0.525658 0.09641835 0.0 0.0 0.0 3.4718285e-27 0.0 0.0 0.0 0.0 0.0 0.0 0.0 0.0 0.0 0.0 0.0 0.0 0.0 0.0 0.0 0.0 1.8527586e-22 2.1231494 0.0 0.0 0.0 0.0 0.0 0.0 1.6346409 0.0 0.0
92 0.0 0.0 0.0 0.0 0.0046731723 0.0 0.0 0.0 0.0 0.0 1.1768796e-17 0.0 0.0 0.0 2.5958527e-22 0.0 0.0 0.0 0.0 0.0 0.0 0.0 0.0 0.12903176 0.0 0.0 0.0 0.0 0.0 0.0 0.0 0.0 0.0 5.1103716 0.0 0.0 0.0 1.0146853e-27 0.0 0.022515018 0.0 0.0 0.0 0.0 0.0 0.0 0.0018189262 0.0 0.0 0.0 0.0 0.0 0.0 0.0 0.0 0.0 0.0 0.0 0.0 2.0921805e-22 0.0 0.0 0.0 0.0 1.2083902e-28 1.5066352e-08 0.0 0.0 0.0 0.0 0.0 0.0 0.0 0.0 0.0 0.0 0.0 0.0 0.0 0.0 1.6415491 0.0 0.0 0.0 0.0 0.0 0.0 0.0 0.0 0.0 0.0 0.0 0.0 0.0 0.0 0.0 0.17769621 0.0 0.0 0.0 0.0 0.0 0.0 0.0 0.0 0.0 0.0 0.0 0.0 0.0 0.0 0.0 2.0197137e-29 0.0 0.0 0.0 0.111474015 5.876903e-31 0.933389 0.0 0.0 0.0 0.0 0.0 0.0 0.0 0.0 4.532604e-16
172 0.0 0.0 0.0 0.0 0.0 1.5253392e-18 0.0 0.0 0.0 0.0 0.0 0.0 0.0 0.0 0.21208587 0.0 0.0 0.0 0.0 0.0 0.0 0.0 0.0 0.0 0.0 0.0 0.0 0.0 0.0 0.0 0.0 0.0 0.0 3.9229283 0.0 0.0 0.0 0.0 5.2087615e-27 0.0 0.0 0.0 0.0 0.0 0.0 0.0 0.08509678 0.0 0.0 0.0 0.0 0.0 0.0 0.0 0.0 0.0 0.0 0.0 0.0 0.0 0.0 0.0 0.0 0.0 0.0 0.0 0.0 0.0 0.0 0.0 0.0 0.0 0.0 0.0 0.0 0.0 0.0 0.0 0.0 0.0 0.0 0.0 0.0 0.0 0.0 0.0 2.1537042 0.0 0.0 0.0 1.739292 0.0 0.0 0.0 0.0 0.0 0.17166753 0.0 0.0 0.0 0.0003647317 0.0 0.0 0.0 0.0 0.0 0.0 0.0 0.0 0.0 0.0 0.0 0.0 0.0 0.0 0.0 0.0 0.0 3.582657e-06 0.0 0.0 0.0 0.0 0.0 0.0 0.0 0.0 0.0
186 6.063842e-19 0.0 0.0 0.0 0.0 0.15687019 0.0779074 0.0 0.0 0.0 2.1513724e-24 0.0 0.0 0.0 0.0 0.0 4.1799926e-06 0.0 0.0 0.19632679 0.0 1.099869e-29 0.0 0.0 0.0 0.0 1.8813687e-05 0.0 0.0 0.0 0.0 0.0 5.4694585e-23 0.0 0.0 0.0 5.0119175e-36 9.963919e-31 0.0 0.0 0.0 0.0 0.0 0.0 0.0 7.463181e-28 0.0 0.0 0.0 0.0 0.0 6.534165e-34 0.0 0.0 0.0 0.0 1.8414362e-30 4.755436e-16 0.0 0.0 1.3803987e-29 0.0 0.0 0.0 1.1847715e-32 0.0 0.0 0.0 0.0 1.0446135e-08 0.0 0.0 0.0 0.0 0.0 0.0 0.5569509 0.0 0.0 0.0 0.0 0.0 0.0 0.0 4.6234646 0.0 0.0 0.0 0.0 4.9256283e-17 0.0 0.0 2.3425648 0.0 0.005945366 0.13224131 0.038893502 0.0 0.0 0.0 0.41916633 0.0 0.0 0.0 0.5603044 3.1998408e-32 0.0 2.2954166 0.0 0.0 0.0 4.5529873e-09 0.0 0.0 0.0 0.0 0.0 0.0 1.5381357e-08 0.0 0.0 0.0 0.0 0.0 2.4345332e-17 0.0 0.0 0.0
63 1.2470049e-14 0.0 0.0 0.0 0.0 0.0 0.0 0.0 0.0 0.0 0.0 0.0 0.0 9.353694e-18 0.0 0.0 0.0 9.0229046e-10 0.0 0.0 0.0 0.0 0.06456713 9.444096e-06 0.0 0.0 0.0 2.3284178e-31 0.46603876 0.0 0.17429742 0.0 0.20076989 3.6097798e-13 0.0 0.0 0.0 0.07140452 0.034616563 1.149469e-36 0.0 0.0 0.00449247 0.0 0.0 0.0 0.0 0.0 0.0 0.0 0.0 0.0 7.1002573e-13 4.4184816e-23 0.0 0.0 1.6798814e-25 0.4404614 5.9515215e-10 1.1358236e-21 0.0 0.0 0.0 0.0 0.0 2.4362433e-22 0.26313078 0.0 0.0 0.0 0.14877428 0.0 0.0 0.0 0.0 0.0 0.0 3.5685682e-29 0.0 0.0 1.6435394 3.996822e-14 0.0 0.0 11.490075 0.0 0.0 0.0 0.00021978848 1.1823994e-12 0.0 0.0 0.0 0.0 4.2945578e-26 7.7804026e-27 0.0 0.0 0.0 0.0 0.02936469 0.14003222 0.0 1.2451361 0.0 1.07668753e-16 7.641962e-05 0.0 0.21462172 0.0 0.0 0.0 0.0485542 0.0 0.0 0.0 0.045637053 0.0 0.16003777 0.22847195 0.0 0.0 0.0 0.0 0.0 1.7236693 2.0214817e-27 0.00024570257
436 0.5296614 0.04113132 0.0 0.0 0.0 0.0 0.0 0.0 0.0 0.0 0.0 0.0 0.0 0.0 0.0 0.0 0.0 3.3567908e-16 0.0 2.2574193 0.0 0.0 0.0 0.0 0.0 4.5918697e-23 0.0 0.0 0.0 0.0 0.0 0.0001591609 0.0 3.9369295e-16 0.0 0.0 0.0 4.793533e-28 0.18239026 0.0 0.0 0.0 0.0 1.5808162e-21 3.2533557e-30 0.0 0.0 0.0 0.0 0.0 0.0 0.0 1.7940142e-26 0.0 0.0 0.0 0.19726568 0.0 0.0 0.0 0.0 0.0 0.0 0.0 0.0 0.0 0.0 0.0 0.0 3.2638883e-25 0.0 0.0 0.0 0.0 0.0 0.0 5.4441977 0.0 0.0 0.0 0.0 0.0 3.9201173e-14 0.0 0.4726695 0.0 0.0 0.0 0.0 0.5898925 0.0 0.0 0.0 0.0 0.57317036 0.0 0.65730727 0.0 0.0 0.0 0.0 0.0 0.0 0.0 0.0 0.0 0.0 0.0 0.0 0.0 0.0 0.0 0.22233175 0.008981979 0.0 0.0 0.0 0.0 0.5180098 0.0 0.0 0.09668788 0.0 9.788553e-05 0.0 0.009009533 0.0 0.003142648
100 0.0 0.0 2.8293242e-14 0.0 0.0 0.0 0.0 0.0 0.0 0.0 2.0109185e-09 0.0 0.0 0.0 0.0 0.0 0.0 0.0 0.0 0.0 0.0 0.0 0.0 0.0 0.0 0.0 1.0386813e-24 0.0 0.0 0.0 0.0 0.0 0.0 7.3191296e-13 0.0 0.0 0.0 0.0 0.0 0.0 0.0 0.0 0.0 0.0 0.0 0.0 0.0 0.0 0.0 0.0 0.2977969 5.190978e-35 2.4182382 0.0 0.0 0.0 0.0 0.0 0.0 0.0 0.0 0.0 0.0 8.815972e-17 0.003464268 2.7211495e-06 0.0 0.0 0.0 3.4739714e-15 0.0 0.0 0.0 0.0 0.0 0.0 0.0 0.0 0.0 0.0 9.674852e-24 0.0 0.0 0.0 6.1878724 0.0 0.08232314 0.0 0.0 1.8756724e-33 7.997071e-11 0.0 0.0 0.0 0.0 2.8084831 5.4411038e-11 0.0 0.0 0.0 4.8662306e-26 0.0 0.0 0.0 0.0 0.0 0.0 0.0 0.0 0.0 0.0 0.0 0.0 0.0 0.0 0.0 0.0 0.0 0.0 0.0 0.0 0.0 0.0 0.0 0.888984 0.0 0.0 0.0
101 0.0 0.0 0.0 0.0 0.0 0.102259435 0.0 0.0 0.0 0.0 1.9941248e-17 0.0 0.0 0.0 1.9729396e-36 0.0 0.0 0.0 0.0 0.0 0.0 0.0 0.18618944 0.0 0.0 4.5955766e-17 3.186421e-26 0.0 0.0 0.0 0.0 0.0 0.0 0.0 0.0 0.0 0.0 0.0 0.0 3.5853956e-20 0.0 0.0 0.0 0.0 0.0 0.0 0.0 0.0 0.0 0.0 0.0 2.6965988e-11 2.2935818e-25 0.0 0.0 0.0 0.0 0.0 0.0 1.09468775e-20 0.0 0.0 0.0 3.3516274e-32 0.0 1.4039718e-26 0.0 0.0 0.0 0.019557728 0.0 0.0 0.0 0.0 0.0 0.0 8.225208e-35 0.0 0.0 0.0 0.0 0.0 0.0 0.0 7.9190493 0.0 2.1270547 0.0 0.0 0.0 0.0 0.0 0.0 1.6573605e-11 0.0 0.90670806 5.1416527e-26 0.0 0.0 0.0 0.17789204 0.0 0.0 0.0 0.0 0.0 0.0 0.0 0.0 0.0 0.0 0.0 0.0 0.0024324981 0.0 0.0 0.0 0.0 4.6182513e-14 0.0 0.0 1.6860662e-26 0.0 0.0 0.0 0.0 0.0 0.0
107 0.0 0.0 0.0 0.0 0.0 2.0816166 0.0 0.0 0.0 0.0 0.0 1.2141357e-14 0.0 2.1743103e-20 0.0 0.0 0.0 0.0 0.0 0.0 0.0 0.5755082 0.0 0.57160056 0.0 0.0 0.0 0.0 0.0 0.0 0.0 0.0 0.050893515 0.0 0.0 0.0 0.0 0.11810657 0.0 0.0 0.0 0.0 0.0 0.0 0.0 0.0 0.0 0.0 0.0 0.0 0.0 3.5955789e-19 0.061928127 0.0 0.0 0.0 0.0 0.0 0.0 0.0 0.0 0.0 0.0 1.4187738e-11 1.7090255 7.4083197e-38 0.1628646 0.0 0.0 0.0 0.08595625 0.0 1.1036494e-12 0.0 0.0 0.0 5.251031e-06 0.0115259895 0.0 0.0 0.0 0.0 0.0 0.0 0.013245923 0.0 0.0 0.0 0.142907 0.0 0.0 0.0 0.0 0.0 0.0 5.5562725 1.7768753e-11 0.0 0.0 0.0 0.006971745 0.0011042833 0.0 0.0 0.0 0.0 0.0 0.0 0.14731291 0.0 0.0 0.0 0.014059987 1.6257932e-24 0.0 0.0 0.0 0.0 0.0 0.0 0.0 7.1604844e-12 0.0 0.0 5.237939e-13 1.4889616 0.0 3.3209455e-24
458 0.0 3.9544334e-10 5.374972e-08 0.0 7.006989e-14 9.198833e-14 6.087503e-07 2.7790556e-10 1.5511966e-06 4.3838004e-23 1.3509434e-06 0.0 0.0 3.3884867e-11 8.6645047e-14 0.1288003 0.027239155 3.581093e-11 0.0 0.0 2.5775105e-05 0.0 0.0 0.0 0.021713577 8.74846e-33 3.0972437e-30 7.3383677e-10 0.0 0.0 0.0 5.544556e-22 0.00013851558 8.978693e-11 0.0 0.0 0.0 1.3238376e-07 1.4317912e-09 1.6016578e-05 0.0 0.0 0.0 0.0 0.0 0.010308355 3.181991e-22 0.09109302 3.8473836e-08 7.0165935e-09 0.0017299689 2.6316424e-14 6.1209794e-23 0.0 1.0354678e-15 0.0 2.55357e-07 5.6567027e-09 1.8598101e-35 5.4359255e-31 0.0 0.0 5.488591e-12 0.0 1.2671622e-12 0.017758638 1.0075237e-22 0.0 0.0 1.2125 9.087329e-17 0.0 0.0 0.0 0.0 9.523563e-37 2.2706806e-29 1.6370008e-33 0.0 2.3903743e-09 0.0 7.1759487e-09 0.0 2.3571112e-05 0.00016514462 0.0 2.22761e-09 0.0 2.7081237e-11 0.0 1.5501859 0.0 7.1300725e-25 0.0 2.5166913e-12 1.9342432e-26 25.478779 0.0 0.0033266065 2.2371709e-05 1.7398287e-10 1.492996e-25 0.00047983677 9.568789e-12 1.1595057e-10 1.3650314 2.7962766e-36 1.3132278e-30 0.045447845 1.3008358e-17 0.0 0.0 2.1400003e-11 0.0 0.014110284 0.0 0.056992486 0.0 6.1060586e-30 6.628662e-24 0.0020852068 2.231347e-17 0.56518745 0.0 0.0 0.0 1.3520461 1.2726112e-11
1443 0.0 0.0 0.0 0.0 0.0 0.0 0.018248137 0.0 0.0 0.0 1.2453772e-13 0.0 0.14339137 3.4242906e-24 0.0 0.0 1.2820303 0.0 0.0 0.0 4.63385e-14 3.3859853e-12 0.0 4.357217e-37 0.0 0.59540856 1.1051115 0.0 0.0 3.2349744e-06 0.0 0.0 4.8237617e-08 0.8672244 0.00013783765 1.1892782e-08 0.0 0.0 10.4275675 0.0 0.0 0.02206397 0.0 0.0 0.0 0.00013190301 0.0 3.1637262e-19 0.0 0.0 0.0 2.2902787 2.554828 1.15596e-16 0.0 0.0 7.42708e-20 0.6067832 0.2061583 0.0 0.23548494 0.0 0.0 1.3682494e-07 0.0 5.824098e-21 0.07995536 0.0 0.0 0.0 2.3915575e-13 4.6619372e-24 0.0 0.0 0.0 0.02042904 2.3913156e-36 2.2615221e-13 0.044811178 0.0 0.0 0.7596998 1.4604483e-05 0.0 0.46392012 0.0 0.0 0.0 0.0 0.0 0.0 0.0 1.0713887e-08 0.0 0.0 0.006016782 4.60628e-10 0.0 0.0 0.0 7.2022614e-12 0.0 0.0 0.0 0.004697964 0.0 0.0 0.011846479 0.0 0.0 1.8423754 6.610394 6.759195e-07 0.0 0.017683564 0.0 0.000107610605 0.0 8.0008835e-23 0.0 4.569498e-33 6.4297095e-11 0.0 0.0 0.0 1.599396 1.8328109e-06 4.3216288e-11
1445 0.0 0.29214108 3.8085063e-21 0.0 0.0 0.0 0.0 0.0 5.8663234e-11 0.0 0.000109240464 0.0 0.8663024 7.168501e-06 0.012194628 0.0 4.4614735 0.0 0.0 6.562658e-12 1.766336e-24 2.2166265e-30 0.0 1.8253724e-25 0.0 6.6310696e-17 0.0 0.3760105 0.0 2.408955e-24 0.0 0.0 0.0022246663 0.0 2.3474872 0.0 2.3178056e-20 0.0 1.8507318 1.3615329e-09 0.0 4.4686615e-07 0.0 0.0 0.0 5.027485 0.0 0.36547685 0.0 0.0 0.0 1.01688664e-10 1.8454777e-29 0.00067855953 2.222071e-35 0.0 0.0 2.3897313e-11 0.0 0.0 0.0 0.0 0.0 0.0067409705 0.0 0.0 0.0 0.0 0.0 0.0 0.001123436 0.0 0.0 0.0 0.0 0.0 1.3389009e-24 0.0 0.08684692 0.0 0.0 0.0 1.8709078e-26 0.0 0.17858364 0.0 0.0 0.0 1.8186835e-23 0.0 0.0 0.0 0.0 3.3784548e-32 0.0 0.0 2.5170884e-13 0.0 0.0 0.0 0.97982234 0.0 0.0 0.0 0.5263848 0.0 0.0 2.6796254e-08 1.6594818e-36 0.0 1.8489162 2.8909543 2.243921e-26 0.0 0.022421122 0.0 0.0 0.0 3.4340688e-25 1.9738254e-25 9.488676e-11 11.624957 0.0 6.4710964e-10 0.09135637 1.0206559 0.0 4.9289355e-14
133 0.0 0.0 0.0 0.0 0.0 0.0 0.0 0.0 0.0 0.0 0.0 0.0 0.0 0.0 0.0 0.0 0.0 0.18414195 0.0 0.0 0.0 0.0 0.0 0.0 0.0 0.0 0.0 0.0 0.0 0.0 0.29400012 0.0 0.0 0.0 0.0 0.0 0.0 0.0 1.9704514e-05 0.0 0.0 0.0 0.0 0.0 0.0 0.0 0.0 0.0 0.0 0.0 0.0 0.0 2.3848512 0.0 0.0 0.0 6.5356235e-06 0.0 0.0 0.0 0.0 0.0 0.0 0.0 1.0995032e-28 0.0046397327 0.026553923 0.0 0.0 0.0 0.0 0.0 0.0 0.0 0.0 0.0 0.0 0.0 0.0 0.0 0.0 0.0 0.0 0.0 6.403529 0.0 0.0 0.0 0.0 0.0 0.0 0.0 0.0 0.0 0.0 0.0 0.012769519 0.0 0.0 0.0 7.210331e-16 0.0 0.0 0.0 0.0 0.0 0.0 0.0 0.0 0.0 0.0 0.0 0.0 7.02467e-35 0.0 0.0 0.0 0.0 1.8201304e-19 0.0 0.0 4.3149714e-29 0.0 0.0 0.0 0.0 0.0 0.16831005
1567 0.0 0.0 0.0 0.0 0.0 0.0 0.0 0.0 0.0 0.0 0.0 0.0 0.0 0.0 0.0 0.0 0.0 0.16550127 0.0 0.0 0.0 0.0 0.0 0.0 0.0 0.0 0.0 0.0 0.0 0.0 0.0 0.0 0.0 0.0 0.0 0.0 0.0 0.0 0.0 0.0 0.0 0.0 0.0 0.0 0.0 0.0 0.0 0.0 0.0 0.0 0.0 0.0 0.0 0.0 0.0 0.0 0.0 0.0 0.0 0.0 0.0 0.0 0.0 0.0 0.0 0.0 0.0 0.0 0.62910765 0.0 0.0 0.0 0.0 0.0 0.0 0.0 0.029216543 0.0 0.0 0.0 0.0 0.0 0.0 0.0 0.0 0.0 0.0 3.236716 0.0 0.0 0.0003056636 0.0 0.0 0.0 0.0 0.0 0.0 0.0 0.0 0.0 0.0 0.0 1.7852296e-10 0.0 0.0 0.0 0.0 0.0 0.0 0.0 0.0 0.0 0.0 0.0 0.0 0.0 0.0 0.015521798 0.0 0.0 0.0 0.0 0.0 0.0 1.1778245e-13 0.0 0.0 0.0
890 0.0 0.0 0.0 0.0 0.0 0.0 0.0 0.0 0.0 1.9250445e-05 0.0 0.0 0.0 3.3043113e-16 0.0 0.0 0.0 0.0 0.0 0.0 0.0 0.0 0.0 0.0 0.0 0.0 0.0 0.0 0.0 0.0 0.0 0.28776383 0.0 0.0 0.0 0.0 0.0 2.7959015e-26 0.0 0.0 0.0 0.0 0.0 0.0 0.0 0.0 0.28839937 0.0 0.0 0.0 0.0 0.015808392 2.413337e-08 0.0 0.59287286 0.0 0.0 0.0 0.0 0.0 0.0 0.0 0.0 0.0 0.0 0.0 1.3242618e-07 0.0 8.082964 0.0 0.0 0.3418025 0.0 0.0 0.0 0.0 2.1159086 0.0 0.0 0.0 5.933051e-34 1.5352058e-31 9.377011e-23 0.0 0.0 0.0 0.0 1.765524 0.0 0.0 3.964779e-10 0.0 0.0 0.0 0.0 0.0 0.0 0.0 0.0 0.0 0.0 0.0 0.0 0.0 0.0 0.0 0.0 0.0 0.3752214 0.0 0.0 0.0 0.0 0.0 0.0 0.0 0.0 0.0 0.0 0.0 0.0 0.0 0.0 0.0 0.0 0.0 0.0 0.037027974
1592 0.0 0.0 0.0 0.0 0.0 0.0 0.0 0.0 0.0 0.0 0.0 0.0 0.0 0.0 0.0 0.0 0.0 2.9411027e-09 0.0 0.0 0.0 0.0 0.0 0.0 0.0 0.0 0.0 0.0 0.0 0.0 0.0 0.0 0.0 0.0 0.0 0.0 0.0 0.0 0.0 0.0 0.0 0.0 0.0 0.0 0.0 0.0 0.0 0.0 0.0 0.0 0.0 0.0 0.0 0.0 0.0 0.0 0.0 0.0 0.0 0.0 0.0 0.0 0.0 0.0 0.0 0.0 0.0 0.0 0.15632842 0.0 0.0 0.0 0.0 0.0 0.0 0.0 3.525881e-28 0.0 0.0 0.0 0.0 0.0 0.0 0.0 0.0 0.0 0.0 5.8522806 0.0 0.0 0.0 0.0 0.0 0.0 0.0 0.0 0.0 0.0 0.0 0.0 0.0 0.0 0.0 0.0 0.0 0.0 0.0 0.0 0.0 0.0 0.0 0.0 0.0 0.0 0.0 0.0 0.0 0.0 0.0 0.0 0.0 0.0 0.0 0.0 0.0 0.0 0.0 0.0
1597 0.0 0.0 0.0 0.0 0.0 0.0 0.0 0.0 0.0 0.0 0.0 0.0 0.0 0.0 0.0 0.0 0.0 4.61487e-06 0.0 0.0 0.0 0.0 0.0 0.0 0.0 0.0 0.0 0.0 0.0 0.0 0.0 0.0 0.0 0.0 0.0 0.0 0.0 0.0 0.0 0.0 0.0 0.0 0.0 0.0 0.0 0.0 0.0 0.0 0.0 0.0 0.0 0.0 0.0 0.0 0.0 0.0 0.0 0.0 0.0 0.0 0.0 0.0 0.0 0.0 0.0 0.0 3.0345989e-15 0.0 0.36822525 0.0 0.0 0.0 0.0 0.0 0.0 0.0 6.528129e-06 0.0 0.0 0.0 0.0 0.0 0.0 0.0 0.0 0.0 0.0 5.503142 0.0 0.0 0.006182757 0.0 0.0 0.0 0.0 0.0 0.0 0.0 0.0 0.0 0.0 0.0 0.0 0.0 0.0 0.0 0.0 0.0 0.0 0.0 0.0 0.0 0.0 0.0 0.0 0.0 0.0 0.01634498 0.0 0.0 0.0 0.0 0.0 0.0 0.0 0.0 0.0 0.0
1601 0.0 0.0 0.0 0.0 0.0 0.0 0.0 0.0 0.0 0.0 0.0 0.0 0.0 0.0 0.0 0.0 0.0 0.10318119 0.0 0.0 0.0 0.0 0.0 0.0 0.0 0.0 0.0 0.0 0.0 0.0 0.0 0.0 0.0 0.0 0.0 0.0 0.0 0.0 0.0 0.0 0.0 0.0 0.0 0.0 0.0 0.0 0.0 0.0 0.0 0.0 0.0 0.0 0.0 0.0 0.26332438 0.0 0.0 0.0 0.0 0.0 0.0 0.0 0.0 0.0 0.0 0.0 0.0 0.0 1.9585031 0.0 0.0 0.0 0.0 0.0 0.0 0.0 0.0032526224 0.0 0.0 0.0 0.0 0.0 0.04184768 0.0 0.0 0.0 0.0 3.8284516 0.0 0.0 0.0 0.0 0.0 0.0 0.0 0.0 0.0 0.0 0.0 0.0 0.0 0.0 0.0 0.0 0.0 0.0 0.0 0.0 0.33033967 0.0 0.0 0.0 0.0 0.0 0.0 0.0 0.0 0.0 0.0 0.0 0.0 0.0 0.0 0.0 8.542341e-23 0.0 0.0 0.0
1398 0.0 0.0 0.0 0.0 0.0 0.0 0.0 0.0 0.0 0.0 0.0002481822 0.0 0.51935947 0.0 0.0 0.0 3.6823084 0.0 0.0 0.0 0.0 0.0 0.0 0.0 0.0 5.990137e-26 0.0 0.0 0.0 4.9574484e-26 0.0 0.0 0.10081486 0.0 1.0683697 0.0 0.0 0.0 7.3322296 7.340227e-33 0.0 0.4231356 0.0 0.0 0.0 5.833599e-11 0.0 2.288295e-36 0.0 0.0 0.0 1.2202188e-28 0.0 0.00010873488 0.0 0.0 0.09288516 2.9924637e-12 0.0 0.0 0.0 0.0 0.0 1.2181777e-14 0.0 0.0 0.0 0.0 0.0 0.0 1.2709064e-07 0.0 0.0 0.0 0.0 0.0 1.0705318e-28 0.0 0.0 0.0 0.0 0.0 6.2254845e-12 0.0 2.897367e-28 0.0 0.0 0.0 0.0 0.0 0.0 0.0 0.0 0.0 0.0 0.0 0.0 0.0 0.0 0.0 2.3302953e-17 0.0 0.0 1.0456754e-05 1.7450613 0.0 0.0 0.38202137 0.0 0.0 0.00011105351 4.2355 0.0 0.0 0.26634747 0.0 0.0 0.0 0.67707396 0.0 9.037251e-33 5.9649715e-17 0.0 0.0 2.2334658e-21 2.789505e-35 0.0 3.5583455e-30
1005 0.0 0.0 0.0 0.0 1.4579009e-13 0.0 0.0 0.0 0.0 0.28054827 5.0994526e-29 0.0 0.0 0.0 0.0 0.033074528 7.3925024e-26 0.0 0.0 0.0 0.0 0.0 0.0 0.0 0.0 0.0 0.0 0.034956362 0.0 0.0 0.0 0.0 0.0 0.0 0.0 0.0 0.0 4.951718e-13 0.21485348 0.0 0.0 0.0 0.0 0.0 0.0 0.16024339 0.0 0.5905834 0.0 0.0 0.0 0.0 2.3072958 0.0 0.0 0.0 1.3055805e-29 3.5261774e-15 0.0 2.0911834 0.0 0.0 0.0 1.5065025e-26 0.0 0.0 0.0 0.0 0.0 0.0 0.0 0.0 0.0 0.0 0.0 0.0 0.0 0.0 0.0 0.0 1.6171762 0.0 0.0 0.0 0.0 0.0 0.0 2.2908316e-22 0.0 3.2703454e-27 1.7679594 0.0 0.0 0.0 0.0 0.0 0.0 0.0 0.0 0.0 1.9306282e-34 0.0 0.0 0.0 0.24223185 0.0 0.0 2.266685 0.0 0.0 1.4631874e-21 0.0 3.5602875e-20 0.0 1.5607073e-17 0.0 0.1457834 0.0 0.0 0.0 0.0 0.17265743 0.0 0.0 6.6466613 5.19042e-11 0.0 0.0
695 0.0 0.0 0.0 0.0 0.0 0.0 0.0 0.0 0.0 0.0 0.0 0.0 0.0 0.0 0.0 0.0 0.0 0.0 0.0 0.0 0.0 0.0 0.0 0.0 0.0 0.0 0.0 0.0 0.0 0.0 0.0 0.0 0.0 0.0 0.0 0.0 0.0 0.0 0.0 0.0 0.0 0.0 0.0 0.0 0.0 0.0 4.7509347e-36 0.0 0.0 0.0 0.0 0.0 5.2407307e-20 0.0 0.0 0.03085219 0.0 0.0 0.0 0.0 0.0 0.0 0.0 0.0 0.0 0.0 0.0 0.0 0.0 0.0 3.50713e-33 0.0 0.0 0.0 0.0 0.0 0.0 0.0 0.0 0.0 0.0 0.0 0.028042747 0.0 0.0 0.0 0.0 0.0 0.0 0.0 0.0 0.0 0.0 0.0 0.0 0.0 2.2734325e-32 0.0 0.0 0.0 0.0 0.0 0.0 0.0 0.0 0.0 3.0029098e-21 0.0 4.790768e-24 0.0 0.0 0.0 0.0 0.0 0.0 0.0 0.0 0.0 0.0 0.0 0.0 0.0 2.1714694 0.0 6.703479 0.0 0.0 6.807459e-27
700 0.0 0.0 0.0 0.0 1.2756195 8.763347e-31 0.0 0.0 0.0 0.38607147 0.0 0.0 0.0 0.0 0.0 0.069074854 0.0 0.0 0.0 0.0 0.0 0.0 0.0 0.0 0.0 0.0 0.0 0.0 0.0 0.0 0.0 0.0 0.0 0.0 0.0 0.0 0.0 0.0 0.0 0.0 0.0 0.0 0.0 0.0 0.0 0.0 0.0 0.13906567 0.0 0.0 3.9041068e-28 0.0 1.051915e-16 0.0 0.0 0.0 0.0 0.0 0.0 0.0 0.0 0.0 0.0 0.0 0.0 0.0 0.0 0.0 0.0 0.0 2.5269858e-19 0.0 0.0 0.0 0.0 0.0 0.0 0.0 0.0 0.0 0.0 0.035751473 0.0 0.0 0.0 0.0 0.0 0.0 0.0 0.0 0.0 0.0 0.0 0.0 0.0 0.0 0.0 0.0 0.0 0.0 8.769131e-09 0.0 0.0 0.0 0.0 1.4942852e-30 3.9744954e-30 0.0 0.0 0.0 0.0 0.0 7.373762e-18 0.0 0.0 0.0 0.0 0.0 0.0 0.0 0.0 0.0 2.2547932 0.0 5.3623066 0.0 1.1208666e-10 6.03973e-33
714 0.0 0.0 0.0 0.0 0.0 0.0 0.0 0.0 0.0 0.0 0.0 0.0 0.0 0.0 0.15385255 0.0 0.0 0.0 0.0 0.0 0.0 0.0 0.0 0.0 0.0 0.0 0.0 2.1051319 0.0 0.0 0.0 0.0 0.0 0.0 0.0 0.0 0.07626302 1.7358428e-36 0.0 0.0 0.0 0.0 0.0 0.0 0.0 1.1597782e-34 0.0 0.016849916 4.2630523e-17 0.0 0.0 0.0 0.0 0.0 0.0 0.0 0.0 0.0 0.0 2.125545 0.0 0.0 0.0 0.0 0.0 0.0 0.0 0.0 0.0 0.0 0.47380018 0.0 0.0 0.0 0.0 0.0 0.0 0.0 0.0 0.0 0.0 0.0 0.0 0.0 0.0 0.0 0.0 0.0 0.08951729 0.0 0.0 0.0 0.0 0.0 0.0 0.0 0.0 0.0 0.0 6.237174e-05 0.14328215 0.0 0.0 0.0 0.0 0.0 0.0 0.0 4.8328624e-10 0.0 0.0 0.0 0.0 0.0 0.0 0.0 2.4204047 0.0 0.0 0.0 0.0 0.0 0.0 0.0 1.1541656 0.0 1.6946495 6.6302023e-06
722 0.0 0.0 0.0 0.0 0.0 0.0 0.0 0.0 0.0 0.0 0.0 0.0 0.0 0.0 0.0 0.0 0.0 0.29902163 0.0 0.0 0.0 0.0 0.0 0.0 0.0 0.0 0.0 0.0 0.0 0.0 0.0 0.0 0.0 0.0 0.0 0.0 0.0 0.0 0.0 0.0 0.0 0.0 0.0 0.0 0.0 0.0 0.0 0.0 0.0 0.0 3.1525348e-32 0.0 2.8707147e-13 0.0 0.0 0.0 3.6483082e-18 0.3358152 0.0 0.0 0.0 0.0 0.0 0.0 0.0 0.0 0.0 0.0 0.0 0.0 5.4067026e-20 0.0 0.0 0.0 0.0 0.0 0.0 0.0 0.0 0.0 0.0 0.0 0.0 0.0 0.0 0.0 0.0 0.71386033 0.0 0.0 0.0 0.0 0.0 0.0 0.0 0.0 0.0 0.0 0.0 0.0 4.745212e-30 0.0 0.0 0.0 0.0 0.0 0.0 0.0 0.0 0.0 0.0 0.0 0.0 0.0 0.0 0.0 0.0 0.0 0.0 0.0 0.0 0.0 0.0 0.0 6.1372433 0.0 0.0 1.4360623e-18
663 0.0 0.0 0.09080609 0.0 0.0 1.4274899 0.0 0.0 0.0 0.92132056 0.0 4.707034e-15 0.0 0.0 0.0 0.0 0.0 2.0930783e-23 0.0 0.0 0.0 0.0 0.0 0.0 0.0 0.0 0.0 0.0 0.0 0.0 0.0 0.0 0.0 0.0 0.0 2.4893917e-12 0.0 0.0 0.0 0.0 0.0 0.0 0.0 0.0 0.0 0.0 0.0 3.1063716e-28 0.0 0.0 0.0 0.0006701554 0.0 0.0 0.0 0.0 0.0 0.0 0.034585394 0.0 0.0 0.0 0.0 0.0 1.1559695 3.5764945e-31 0.00016489161 0.0 0.0 0.0 2.5880852e-25 0.0 0.023100443 0.0 5.4982525e-25 0.0 0.0 8.6228765e-34 0.0 0.0 0.0 0.0 0.0 0.0 0.4547719 0.0 0.0 8.6485726e-33 0.0 0.0 0.0 0.0 1.1210283e-12 0.0 0.0 0.107077576 0.0 0.0 0.0 0.0 0.72423446 0.8157883 0.0 0.0 0.0 0.0 0.0 0.0 0.0 0.0 0.0 0.0 3.103421e-32 0.0 0.0 0.0 0.0 2.803335e-29 0.0 0.0 0.0 0.0 0.0 0.78218526 7.703082 0.0 0.0 5.8512057e-09
788 0.0 0.0 0.0 0.0 1.9839723e-35 0.0 0.0 0.0 0.0 0.0 0.0 0.0 1.8802708 0.0 0.0 0.0 0.0 0.0 0.0 0.0 0.0 0.0 0.0 0.0 0.0 0.0 0.0 0.0 0.0 0.0 0.0 0.0 0.0 0.0 2.605019e-34 0.0 0.0 0.0 0.0 0.0 0.0 0.0 0.0 0.0 0.0 0.0 0.0 0.0 0.0 0.0 0.0 0.0 3.2251105e-26 1.0957868e-36 0.0 0.0 1.555243e-24 0.0 0.0 0.0 0.0 0.0 0.0 0.0 0.0 1.7514812e-21 0.0 0.0 0.0 0.0 7.1329037e-23 0.0 0.0 0.0 0.0 0.0 0.0 0.0 0.0 0.0 0.0 0.0 0.0 0.0 0.0 0.0 0.0 0.0 0.0 0.0 0.0 0.0 0.0 0.0 0.0 0.0 0.0 0.0 0.0 0.0 0.0 0.0 0.0 0.0 0.0 0.0 0.0 0.0 0.0 0.0 0.0 0.0 0.0 0.0 0.0 0.0 0.0 0.0 0.0 0.0 0.0 0.0 0.0 0.0 6.7405615 0.0 0.0 9.587794e-24
1018 0.0 0.0 0.0 0.0 0.0 0.0 0.0 0.0 0.0 0.0 0.33698326 0.0 0.0 0.0 0.0 0.0 0.0 0.0 0.0 0.0 0.0 0.0 0.0 0.0 0.0 0.07707212 0.0 0.0 0.0 0.0 0.0 0.0 0.0 0.0 0.0 0.0 0.0 0.0 0.0 0.0 0.0 0.0 0.0 0.0 0.0 2.8581178e-32 0.0 0.0 0.0 0.0 0.0 0.023695534 0.0 0.0 0.0 0.0 0.0 0.0 0.0 1.7249825e-10 0.0 0.0 0.0 1.9507914e-13 0.0 0.0 0.0 0.0 0.0 0.014190054 0.2201917 0.0 0.0 0.0 0.0 0.0 0.0 0.0 0.0 0.0 0.0 0.0 0.0 0.0 0.0 0.0 0.0 0.0 0.0 0.0 0.00492802 0.0 0.0 0.006300184 0.0 1.3369957 0.0 0.0 0.0 0.0 0.21048987 0.0 0.0 0.0 0.0 0.0 0.0 0.0 0.0 0.0 0.0 0.0 0.0 0.0 0.0 0.0 0.0 0.0 0.0 0.0 0.0 0.0 0.0 0.0 1.0538759 0.0 0.0 0.16791199
509 6.1078284e-15 4.485908e-07 0.0 8.2125715e-36 0.0 9.802774e-13 6.050151e-30 1.1346346e-31 2.961273e-16 3.7712982e-27 0.0 3.4085473e-10 8.200571e-27 4.498486e-08 8.331515e-07 2.1243492e-24 0.000122044905 4.120861e-12 1.9493876e-25 0.0 3.018285e-29 0.0 0.0 0.00014695346 0.0 4.379779e-25 0.0 7.038386e-08 0.0 3.632913e-21 1.504359e-31 9.360358e-18 3.6136022e-13 0.0 5.747991e-22 3.5089903e-07 0.0 7.95056e-22 0.0 1.6456205e-19 2.8993146e-13 0.0 1.872588e-12 0.001399714 7.607108e-17 1.5585122e-13 6.486279e-28 3.0560293e-26 3.9868e-23 2.1960403e-22 0.060610212 5.0184226e-22 0.0 0.0 0.0012890478 1.3417361e-14 4.8467154e-08 0.0 5.6400276e-16 2.1008022 0.0 2.4410486e-11 7.996923e-08 1.7713258e-15 5.160473e-36 3.673718e-12 6.60697e-10 6.7155303e-37 0.0 3.5346497e-22 21.758759 0.0 0.0 0.0 1.3648785e-06 3.4892584e-24 2.0572991e-13 0.0 0.0 1.7459385e-19 1.5318397 2.9292558e-14 6.0949037e-12 1.5580694e-12 4.353218e-22 0.0 0.0 0.0 9.7564605e-09 0.0 9.49893e-19 3.1852796e-31 9.943689e-37 0.0 3.999621e-11 8.706948e-22 2.0170981e-07 2.404733e-25 5.3904536e-26 2.2927173e-21 6.725366e-11 0.015918585 0.0 0.0 0.0006488268 6.371779e-33 0.0 4.794211e-14 2.176798e-15 8.0866704e-07 2.8620967e-10 4.1102427e-07 2.2363129e-06 4.408776e-23 0.0 2.871797e-09 1.3314538e-09 4.114652e-23 0.0 1.8857752e-13 6.0867504e-20 1.3271132e-22 5.750239e-09 2.216018 0.004326648 0.0 0.0 1.7884054e-06
811 0.0 0.0 0.0 0.0 9.037268e-31 0.0 0.0 0.0 0.0 0.0 0.0 0.0 0.0 0.0 8.191397e-27 0.0 0.0 0.0 0.0 0.0 0.0 0.0 0.0 0.0 0.0 0.0 0.0 0.0 0.0 0.0 0.0 0.0 0.0 0.0 0.0 0.0 0.0 0.0 0.0 0.0 0.0 0.0 1.2576797e-17 0.0 0.0 0.0 0.0 0.0 0.0 0.0 0.38831368 0.0 0.0 0.0 0.0 0.0 6.3876464e-20 0.0 0.0 0.0 0.0 0.0 0.0 0.0 0.0 0.0 0.0 0.0 0.0 0.0 2.0525721e-36 0.0 0.0 0.0 0.0 0.0 0.0 0.0 0.0 0.0 0.0 0.0 0.0 0.0 0.0 0.0 0.0 0.0 0.0 0.0 1.7483212 0.0 0.0 0.0 0.0 0.0 3.283344e-31 0.0 0.0 0.0 0.0 0.0 0.0 0.0 0.0 0.0 0.0 0.0 0.0 0.0 0.0 0.0 0.0 0.0 0.0 0.0 0.0 0.0 0.0 0.0 0.0 0.0 0.0 0.0 6.7619963 0.0 0.0 8.299645e-31
1481 0.0 0.0 0.0037832547 0.0 1.2194803 0.0 0.0 0.0 0.0 0.0 0.0 0.0 1.6568799 0.0 0.0 0.0 0.0 0.0 0.0 0.0 0.0 0.0 0.0 0.0 0.0 0.0 0.0 0.0 0.0 0.0 0.0 0.0 0.0 0.0 0.0 0.0 1.3387738e-05 0.0 0.0 0.0 0.0 0.0 0.0 0.0 0.0 0.0 0.0 3.580294 0.0 0.0 0.0 0.0 0.0 0.0 0.0 0.0 0.0 0.0 0.0 0.0 0.0 0.0 0.0 2.5336351e-31 0.0 0.0 0.0 0.0 0.0 0.0 0.1770121 0.0 0.0 0.0 0.0 0.0 0.0 0.0 0.0 0.0 0.0 0.0 0.0 0.0 0.0 0.0 0.0 0.0 0.0 0.0 0.0 0.0 0.0 0.0 0.0 0.0 0.0 0.0 0.0 0.0 5.979802e-15 2.2626799e-07 0.0 0.0 0.0 0.0 0.0 2.7758977 0.24821624 0.0 0.0 0.0 0.0 0.0063373763 0.0 0.0 0.0 0.0 0.0 0.0 0.0 1.5920539 0.0 0.0 0.634907 0.0 0.0019790619 8.605051e-18
1891 0.0 0.0 0.0 0.0 0.0 0.0 0.0 0.0 0.0 0.0 0.0 0.0 0.0 0.0 0.75319445 0.0 0.0 0.0 0.0 0.0 0.0 0.0 0.0 0.0 0.0 0.0 0.0 0.117134824 0.0 0.0 0.0 0.0 0.0 0.0 0.0 0.0 0.042053092 0.0 0.0 0.0 0.0 0.0 0.0 0.0 0.0 0.0 0.0 0.0 0.0 0.0 0.21413013 0.0 0.0 0.0 0.0 0.0 0.0 0.0 0.0 0.0 1.0468193 0.0 0.0 0.0 0.0 0.0 0.0 0.0 0.0 0.0 0.0 0.0 0.0 0.0 0.0 0.0 0.0 0.0 0.0 0.0 1.7479765 0.0 0.0 0.0 0.0 0.0 0.24459948 0.0 0.077877864 0.0 0.0 0.0 0.0 0.0 0.0 0.60950214 0.0 0.0 0.0 0.0 0.0 0.0 0.0 0.0 0.0 0.0 0.0 0.0 0.0 0.0 0.0 0.0 0.0 0.0 0.0 0.0 0.0 0.0 0.0 0.0 0.0 0.0 0.15296717 0.0 0.0 0.0 0.0 0.13071798
390 0.0 0.0 0.0 0.0 0.0 1.1840293e-07 0.0 0.167336 0.0 3.979198e-13 0.0 0.0 0.0 0.0 9.566699e-29 0.0 0.0 0.0 0.0 0.0 0.0 0.0 0.0 0.0 3.4762188e-23 0.0 0.0 0.0 0.0 0.11146785 0.0 0.0 0.0 0.0 0.0 0.0 0.0 1.1292868e-16 0.0 0.0 0.0 0.0 0.33120608 0.0 0.0 0.0 0.0 0.0 0.0 0.0 0.019339737 0.0 0.0 0.0 0.0 1.0587351e-26 0.05377127 0.0 0.0 0.013890411 0.0 0.0 0.0 0.0 0.0 0.0 0.0 0.0 0.0 1.3907819e-31 1.0024129e-36 0.0 0.0 0.0 0.0 0.0 0.0 0.0 0.012927196 0.0 0.0 0.09616337 0.0 0.0 0.0 0.0 0.0 0.0 0.15149726 0.0 1.7498685 0.0 0.0 1.6414817e-11 0.0 0.0 7.4838403e-31 0.0 0.0 0.0 0.0 0.970714 0.0 0.0 0.0 0.0 0.0 0.0 0.0 0.0 0.0 0.0 0.0 1.4877724e-20 0.0 0.0 0.0 0.058525693 0.0 0.0 0.0 0.48630604 0.03464973 2.4470367 0.0 0.0 0.0 4.1868813e-33
277 0.0 0.0 2.0148058 7.290038e-19 0.0 0.0 1.1512371e-12 2.0400887 0.0 0.16516508 0.0 0.0 0.0 1.8570028e-24 4.4574424e-20 0.0 0.0 0.0 0.0 0.0 0.0 0.0 0.0 0.0 0.0 1.5050521e-21 0.0 0.0 0.0 0.0 0.0 3.2488305e-09 0.0 4.638678e-27 0.0 0.0 2.2127852 0.0 0.0 0.0 0.0 0.0 2.963072 0.0 1.2407404e-26 0.0 0.74820316 0.04287852 0.0 5.3562368e-36 0.7641843 0.0 0.0 0.0 0.09178381 0.0 0.6776713 0.0 0.0 2.4432294 0.0 0.0 0.0 1.604473e-05 0.0 0.0 0.0 0.0 0.0 2.1860735 3.4841135e-13 0.0 6.133227e-11 0.0 0.0 0.0 0.0 0.0 0.0 0.0 1.4940485 0.0 0.0 0.0 0.0 0.0 0.0 2.0551682e-23 1.953867e-09 0.8059588 1.6921633 0.0 0.0 0.0004195993 0.0 0.0 1.4465613 0.0 0.0 4.379852e-14 0.06203004 0.0 0.0 0.0 0.0 0.0 0.0 0.0 7.307925e-14 0.73815626 0.0 0.0 0.0 0.0 0.0 0.0 1.5471609e-30 0.0 0.0 0.0 0.0 0.0006328887 2.762539 5.686787 0.0 0.0 1.5996895 2.041242e-13
434 0.0 0.0 1.8669781e-36 0.0 0.0 0.0 0.0 1.4325739 0.029576927 0.0 0.0 0.0 0.0 0.0 0.08854348 0.0 0.0 0.0 0.0 0.0 0.0 0.0 0.0 0.0 0.0 0.09787667 0.0 0.0 0.0 0.0 0.0 0.0 0.0 0.0 0.0 0.0 0.0 5.6266305e-26 0.0 0.0 0.0 0.0 5.5020463e-30 0.0 0.0 0.0 0.0 6.010937e-32 0.0 0.0 0.39350596 0.0 0.0 0.0 0.0 1.100061 1.6901864e-22 0.0 0.0 2.289624 0.0 0.0 0.0 0.0 0.0 0.0 0.0 0.0 0.0 0.0 3.875036e-06 0.0 0.0 0.0 0.0 0.0 0.0 0.0 0.0 0.0 1.490641 0.101114005 0.0 0.0 0.0 0.0 0.0 0.0 0.0 0.0 0.0 0.035806257 0.0 3.9344622e-36 0.0 0.0 1.1310486e-23 0.0 0.0 0.013303015 0.0 1.940376e-09 0.0 5.201256e-06 0.0 0.0 0.0 0.0 0.0 0.21116433 0.0 0.0 0.00013548652 0.1507882 0.0 0.0 6.3211992e-31 1.2271376e-31 0.0 0.033080243 0.0 0.26336613 4.377386e-25 8.703942 6.4033025e-06 0.0 0.0 0.040527035
960 0.0 0.0 5.584079e-19 0.0044247755 0.029123614 0.00018942542 0.03953739 0.0 0.0 0.30199748 0.0 0.0 0.0 0.0 0.0001612602 0.0 0.0 0.0 0.0 0.0979501 0.024948698 0.0 0.0 0.0 0.3665637 0.0 0.0 3.678925e-29 0.0 0.49293825 0.0 0.0 0.0 0.0 0.0 0.0 2.1686764 0.0 0.0 5.4758902e-11 0.055653386 0.0 0.0 0.0 0.047441434 0.0 0.0 1.0270308e-05 0.0 0.12322881 7.3277556e-21 0.013982304 2.337856e-11 0.0 0.0 0.0 0.0 0.0 5.174642e-23 0.0 0.0 0.0 0.0 0.0 5.253056e-07 3.4699368e-09 1.0149837e-16 0.0 0.0 0.0 5.693635e-15 0.0 1.435246e-08 0.0 0.0 7.9508916e-25 0.0 0.0 0.0 0.0 0.0 0.0 0.0 0.0 0.030601544 0.0 0.03322497 6.5405878e-21 2.6984749e-06 0.0 4.890269e-28 0.0 0.0 0.0 0.0 0.083714426 0.16735813 0.0 0.0 0.0 0.0 12.759936 0.0 0.0 0.0 0.0 0.0 0.030841934 0.0 0.0 0.0 0.0 0.0 0.0 0.0 0.00019187227 0.0 2.8978976e-33 3.070081e-07 0.0 0.0 0.0 0.0 2.187455e-29 2.2057262e-23 0.0 0.0 0.12156748
475 0.0 0.35192347 0.0 1.1465485 0.0 0.074252814 0.110177234 0.0 0.0 0.0 0.0 0.20729831 0.0 0.0 6.616443e-23 0.0 0.0 0.0 0.0 0.0 0.0 0.0 0.0 0.0 0.0 2.3778849 1.1961e-08 0.0 0.0 0.0 0.0 0.0 0.0 0.0 0.0 0.0 0.0 9.478228e-32 0.0 0.0 0.16017675 0.0 3.6902313 0.0 0.0 0.0 2.6992005e-08 0.0 2.848871e-26 0.0 4.0972303e-18 0.0 0.0 0.0 0.0 0.5205114 0.0 0.0 0.0 1.9667494 6.920218e-35 0.0 0.0 0.0 0.0 0.0 0.0 0.0 0.0 0.0 0.8098597 0.0 0.0 0.0 0.0 0.0 0.0 0.0 0.0931391 0.0 1.5049965 0.0 0.0 0.0 0.0 0.0 0.0 0.0 2.1517763e-30 0.0 1.745941 0.0 0.0 0.0 0.0 0.0 0.0 0.0 0.0 0.0 0.0 0.002179515 0.0 0.0 0.0 0.0 0.0 0.0 0.0 0.0 0.0 0.0 0.0 0.0 0.0 0.0 0.0 1.6613152e-08 0.0 0.0 0.0 0.0 0.0 6.8507795 0.0 0.0 0.0 5.2026595e-16
346 0.0 0.0 0.0 3.444664e-12 0.0 0.0 0.0 0.0 0.0 0.21914232 0.0 0.0 1.7488827 0.0 0.08372583 0.0 0.0 0.0 0.0 0.0 0.079382725 0.0 0.0 0.0 0.0 0.0 0.0 0.025798691 0.0 0.0 0.0 0.0 0.0 0.0 0.0 0.0 4.2709183e-16 2.328406e-05 0.0 0.0 0.0 0.0 0.0 0.0 0.0 0.0 0.35898525 0.0 0.0 0.2860492 0.0 0.0 0.0 0.0 0.0 6.0292916e-29 0.0 3.66127e-06 0.0 0.0 0.0 0.0 0.0 0.0 0.0 0.0 0.0 0.0 0.0 0.0 0.0 0.0 0.0 0.0 0.0 0.0 0.0 0.0 0.22165926 0.0 0.0 0.85289574 0.0 0.0 0.16973941 0.0 0.0 0.0 0.0 0.0 0.0 0.0 0.0 1.2581024 0.0 0.0 0.0 0.0 0.0 0.0 0.0 4.6227e-24 0.0 0.015582983 0.0 0.0 0.0 3.131903 0.0 0.0 0.0 0.0 0.0 0.0 0.0 0.0 0.0 0.039983336 0.0 0.0 0.0 0.0002935725 1.1758149e-18 1.9310173 0.2093693 0.0 0.0 0.0
1716 0.0 0.0 8.241527e-27 0.0 0.0 0.0 0.0 3.04337e-29 0.0 5.126808e-24 0.0 1.6915383e-16 0.0 0.0 1.0851948e-25 0.062309813 0.0 0.0 0.0 0.0 0.0 0.0 0.0 0.0 0.0 0.0 0.0 0.0 0.0 0.0 0.0 0.0 0.0 0.0 0.0 0.0 0.0 2.1240464e-07 0.0 0.0 0.0 0.0 0.0 0.0 0.0 0.0 1.8932347 1.6067956e-26 0.0 0.0 0.0 0.0 0.0 0.0 0.0 0.0 1.3615631e-10 0.0 0.0 7.932992e-24 0.0 0.0 6.562026e-35 0.0 0.0 0.0 0.0 0.0 0.0 2.3814945 8.2726437e-29 0.0 0.0 0.0 6.7790294 0.0 0.0 0.0 8.160647e-06 0.0 0.0 0.0 0.0 0.0 0.0 0.0 0.0 0.0 0.0 0.0 0.0 0.0 0.0 0.0 0.0 0.0 4.5467287e-13 5.3610125 1.0531915 0.0 0.0 2.971575e-34 0.0 0.0 0.0 0.0 0.0 0.0 1.3045276e-27 0.0 0.0 0.0 0.5478749 0.0 0.0 0.0 0.0 1.5335257 0.0 0.0 0.0 0.0 0.0 0.0 0.0 0.0 0.0 1.4251857e-20
1717 1.6637689e-05 0.0 1.7061068e-14 0.3592075 1.2798948e-21 0.0 0.0 1.0188862e-23 0.0 9.462629e-29 0.0 0.0 0.0 0.0 2.0489296e-13 4.6278892e-12 0.0 5.897577e-29 0.0 0.0 1.5392112e-28 0.0 0.0 2.9881788e-28 0.0 7.0296485e-25 2.2194128e-25 0.0 4.8254316e-07 0.0 0.0 0.0 0.0 8.6160726e-05 0.0 0.0 0.0 6.9366205e-14 0.0 0.0 0.0 0.0 0.0 0.0 0.0 0.0 24.048964 0.0 1.339597e-06 2.1283542e-16 0.0 0.0 0.0 0.0 9.633131e-06 3.201036e-06 8.673907e-08 0.0 0.0 4.6484705e-23 0.0 0.0 0.0 0.0 5.110849e-31 1.6008849e-26 9.4314885e-07 0.0 1.1230364e-09 6.6885978e-15 7.8884265e-21 0.0 1.1772685e-30 0.0 0.76643544 0.0 5.2134675e-13 0.0 0.0 4.5305407e-28 1.6128521 3.016817e-36 0.8496296 0.0 0.0 0.0 0.0 0.0 0.0 0.0 1.7453719 0.0 0.0 1.9122141e-19 0.0 0.0 3.9142993e-08 0.124718174 8.2574615e-23 0.0012196332 0.0 0.0 0.0 1.9369474e-34 0.0 1.539743 0.0 0.0 0.015855286 3.9345504e-16 0.0 0.0 4.4382348e-14 0.0 0.0 0.0 3.843648e-23 0.47015738 3.102357e-10 0.0 0.0 0.0 0.98819846 3.100818e-11 1.1764505e-32 0.0 1.646152 1.7902913e-08
1718 5.7048244e-21 0.0 2.625232e-26 0.1467932 0.0 0.0 0.0 0.0 0.01920375 0.0 0.0 0.0 0.0 0.0 0.0 1.2582443e-30 0.0 5.5256252e-14 0.0 0.0 0.0 0.0 0.0 0.29746538 0.0 0.0 0.0 0.0 0.0 0.0 0.052433718 0.0 0.0 8.734686e-23 0.0 0.0 0.0011110269 4.163798e-31 0.0 0.0 0.0 0.0 0.0 0.0 0.0 0.0 0.011728768 1.0243893e-07 1.2629209e-05 0.0 0.0 0.019295543 0.0 0.0 3.105672e-05 0.0 1.8198295e-26 0.0 0.0 0.0 0.0 0.0 0.0 0.0 0.0 0.0 0.0 0.0 7.59495e-28 0.0 0.0 0.0 0.0 0.0 5.6889005 0.0 0.0 0.0 0.0 1.9938653e-17 0.0 0.0 1.8380863e-06 0.0 0.0 0.0 0.0 0.0 0.0 0.0 0.0 0.0 0.0 0.0 0.0 0.0 0.0 4.9422307 0.0 6.8811896e-05 0.4407038 0.0 0.0 0.0 0.0 5.8936836e-19 0.0 0.0 0.0 0.0 0.0 0.0 0.0 0.0 0.0 0.0 0.060867514 1.9681611 0.0 0.0 0.0 0.0 0.0 0.0 0.0 0.0 1.707602 1.1698935e-08
400 0.0 6.49435e-21 1.2690957e-09 4.7663396e-23 0.0 0.0 3.6333486e-34 1.2089909e-09 0.0 0.0 0.0 0.033993833 0.0 0.0 2.1017214e-12 0.0 0.0 2.6838328e-36 0.0 2.4001507e-05 5.0854884e-34 0.0 0.0 0.0 0.0 0.0 0.0 0.0033079858 0.0 0.0 3.692351e-37 7.218898e-07 2.5737345e-26 0.52937186 2.5958887e-21 0.0 0.0 6.1406913e-10 0.075563185 1.4343182 0.039297108 0.0 1.1353966e-21 0.0 2.8545244e-14 0.0 1.3355832e-23 0.0 2.8074962e-11 0.0 0.0004429264 8.4561886e-20 1.0779586e-20 0.0 9.851002e-20 0.110037245 25.879757 0.0 0.10286413 2.757613e-21 0.17533503 0.52053905 0.0 9.8175216e-23 1.288596e-14 0.0 0.020850377 0.075012736 0.0 0.2564213 4.9962285e-08 2.7037244e-22 5.2385464e-14 0.0 3.6606056e-07 0.0 0.023566399 0.0 9.138301e-13 0.0 0.0 0.30404207 1.5955214e-19 0.0 0.0003069844 0.0 0.00058530417 0.0 1.0456494e-14 9.643988e-12 1.150161 2.17935e-26 6.2913035e-29 0.00021114347 0.094225824 1.8535874e-29 9.404376e-14 0.3663739 0.00050311326 0.0021290751 0.0 0.0 0.0 0.0 0.0 1.8738539 0.024966503 0.0 0.0 0.0 0.0 2.809493e-33 1.7510008e-09 0.0 0.0 0.0 6.013748e-09 2.067148e-35 1.5631054e-11 0.0 4.577075e-20 0.0 5.324463e-10 2.5344365e-10 0.0 0.0 1.6868654 2.5744993e-07
410 0.0 0.0 0.0 0.0 0.0 0.1588482 0.0 1.9818376 0.0 0.0 0.0 0.0 0.0 0.0 0.0 0.0 0.0 0.0 0.0 0.0 0.0 0.0 0.0 0.13772552 0.0 0.7023395 0.0 0.0 0.0 0.0 0.0 0.0 0.0 0.28806046 0.0 0.0 0.00036750332 1.1873749e-20 0.0 0.0 0.0 0.0 0.0 0.0 0.0 0.0 8.3535006e-23 0.0 8.945068e-14 0.0 0.0 0.0 0.0 0.0 0.25388584 0.0 0.63490725 0.033426926 0.0 0.0 0.0 0.0 0.0 0.0 0.0 0.0 0.0 0.0 0.0 2.1922953 0.0 0.0 0.0 0.0 0.36482832 0.0 0.0 0.0 0.0 0.0 0.0 0.0 0.0 0.0 0.0 0.0 0.0 0.0 4.957166e-22 0.0 1.6998764 0.0 2.4090014 0.0 0.0 0.069466874 1.0529138 0.7145396 1.876078e-24 1.0119427e-06 0.0 0.03483257 0.0 5.1179275e-34 0.0 1.9293242 0.0 0.0 1.9571185e-19 7.936473e-21 0.0 0.0 1.3413543e-26 0.0 0.0 0.0 0.20806465 2.3439884 0.0 0.0 0.0 0.0 2.284769 0.5287293 0.0028823977 0.003649404 1.6613721 1.9737624e-30
2159 0.0 1.767019e-35 0.0 0.0 0.11666142 0.0 0.0 0.0 3.3360836e-37 0.68793863 0.0 0.0 0.0 0.0 0.0 0.0 0.0 0.0 0.008150911 0.0 0.0 0.34688973 0.0 0.0 0.0 0.0 0.0 0.0 0.0 0.0 1.2547184e-34 0.0 0.0 0.0 0.0 0.0 0.0 6.740583e-17 0.0 0.0 0.2392209 0.0 0.0 0.0 0.0 0.0 0.0 2.426983 0.045536164 0.0 1.2286398 0.0 0.0 0.0 1.9839117e-12 0.0 0.69138634 0.0 0.0 0.0 0.0 0.0 0.4929132 0.0 0.0051183975 0.0 1.8363191 0.0 0.0 0.0 1.5361046e-30 0.23261732 0.0 0.0 1.5073684e-13 0.0 0.0 0.0 0.6041268 0.0 1.6564592 0.0 0.0 0.0 0.0 0.0 0.0 0.0 9.795419e-07 0.0 1.7139709 0.0 0.0 0.0 0.0 0.0 2.1528888e-31 0.451081 7.478926 0.0 0.33878642 0.0 0.0 2.402211 0.0 1.9327679 0.0 0.0 0.0 0.0 0.0 0.0 5.9941097e-09 0.0 0.0 0.0 0.031419713 0.03526408 0.15920976 0.0 0.0 0.0 0.0 0.0 5.6426564e-29 0.0 0.0 1.3733027e-35
1745 0.0 0.0 0.0 0.0 0.0 0.0 0.0 0.0 0.009887772 0.0 0.0 0.0 0.0 0.0 6.110461e-30 0.0 0.0 0.0324767 0.0 0.0 0.0 0.0 0.0 0.26114523 0.0 0.0 0.0 0.0 0.0 0.0 0.044852596 0.004336951 0.0 0.0 0.0 0.0 0.0 2.9829146e-11 0.0 0.0 0.0 0.0 0.0 0.0 0.0 0.0 0.5210204 5.4799194e-16 0.0 0.0 0.0 0.0 0.0 0.0 7.832614e-26 0.0 0.09795153 0.0 0.0 0.0 0.0 0.0 0.0 0.0 0.0 0.0 0.0 0.0 1.0426447e-33 0.0 1.1345404e-26 0.0 0.0 0.0 7.698871 0.0 0.0 0.0 0.0 0.0 0.0 0.0 0.0 0.0 0.0 0.0 0.0 0.0 0.0 0.0 1.7400672 0.0 0.0 0.0 0.0 0.0 0.0 3.5524638 0.0 0.0 0.38454932 0.0 0.0 0.0 0.0 0.0 0.0 0.0 2.3981514e-33 0.0 0.0 0.0 0.07109873 0.0 0.0 0.0 0.04733371 1.9216937 0.0 0.0 0.0 0.0 0.0 0.0 0.0 0.0 0.0 2.0849868e-24
1765 0.0 0.0 9.344374e-32 0.0 0.0 0.0 0.0 0.0 0.0 0.0 0.0 0.0 0.0 0.0 0.0 0.0 0.0 0.0 0.0 0.0 0.0 0.0 8.814975e-31 0.0 0.0 0.0 0.0 0.0 0.0 0.0 0.0 0.0 0.0 0.0 0.0 0.0 0.0 8.616326e-18 0.0 0.0 0.0 0.0 0.0 0.0 0.0 0.0 0.00018766298 0.0 1.9248731e-09 0.0 0.0 0.0 0.0 0.0 9.604658e-12 4.912083e-30 3.48389e-34 0.0 0.0 0.0 0.0 0.0 0.0 0.0 1.0094812 0.0 0.0 0.0 0.0 2.2576294 0.0 0.0 0.0 0.0 1.53386 0.0 0.0 0.0 4.4613638e-24 5.586815e-34 0.0 0.0 0.0 0.0 0.0 0.0 0.0 0.0 0.0 0.0 1.7568477 0.0 0.0 0.0 0.0 0.0 0.0 7.6136074 0.0 2.3409618e-06 0.0 0.0 0.0 0.0 0.0 0.0 0.0 0.0 0.5960329 0.0 0.0 0.0 0.0 0.0 0.0 0.0 0.0 2.204497 0.0 0.0 0.0 0.0 0.0 0.0 0.0 0.0 1.6910408 0.0008300152
1799 0.0 0.0 0.0 0.0 0.0 0.0 0.0 0.0 0.0 0.0 0.0 0.0 0.0 0.0 0.0 0.0 0.0 0.0 0.0 0.0 0.0 0.0 0.0 0.0 0.0 0.0 0.0 0.0 0.0 0.0 0.0 0.0 0.0 0.0 0.0 0.0 0.013657919 3.5872972e-24 0.0 0.0 0.0 0.0 0.0 0.0 0.0 0.0 9.246614e-13 0.0 0.0 0.0 0.0 0.0 0.0 0.0 0.0 0.0 0.0 0.0 0.0 0.0 0.0 0.0 0.0 0.0 0.0 0.0 0.0 0.0 0.0 0.0 0.10851401 0.0 0.0 0.0 5.790564 0.0 0.0 0.0 0.0 0.0 0.0 0.0 0.0 0.0 0.0 0.0 0.0 0.0 0.0 0.0 0.0 0.0 0.0 0.0 0.0 0.0 0.0 5.5445213 0.0 0.0 0.0 0.0 0.040746346 0.0 0.0 6.413526e-31 0.0 0.0 0.0 0.0 0.0 0.0 0.0 0.0 0.0 0.0 0.0 0.0 0.0 0.0 0.0 0.0 0.0 0.0 0.0 0.0 0.0 3.4787726e-18
1805 4.3269736e-30 0.0 0.0 0.0 0.0 0.0 0.0 0.0 0.0 0.0 0.0 0.0 0.0 0.0 0.0 0.0 0.0 0.0 0.0 0.0 0.0 0.0 0.0 0.0 0.0 0.0 0.0 0.0 0.0 0.0 0.0 0.0 0.0 0.0 0.0 0.0 0.0 0.21930666 0.0 0.0 0.0 0.0 0.0 0.0 0.0 0.0 0.117862806 0.0 0.0 0.0 0.0 0.0 0.0 0.0 3.3348746e-10 0.0 5.5918566e-32 0.0 0.0 0.0 0.0 0.0 0.0 0.0 0.0 0.0 0.0 0.0 0.0 0.0 0.0 0.0 0.0 0.0 2.601306e-07 0.0 0.0 0.0 0.0 0.0 0.0 0.0 0.0 0.0 0.0 0.0 0.0 0.0 0.0 0.0 0.0 0.0 0.0 0.0 0.0 0.0 0.0 8.641751 1.014809e-26 0.0 0.0 0.0 0.0 0.0 0.0 2.4453364e-13 0.0 0.0 0.6741035 0.0 0.0 0.0 0.0 0.0 0.0 0.0 0.0 1.986358 0.0 0.0 0.0 0.0 0.0 0.0 0.0 0.0 0.0 1.8210453e-06
1815 0.9562689 0.0 0.0 0.0 0.0 0.0 0.0 0.07665137 0.0 0.0 0.0 0.0 0.0 0.0 0.0 0.0 0.0 6.1987215e-10 0.0 0.0 0.0 0.0 0.0 0.0 0.0 0.0 0.0 0.0 0.0 0.0 0.0 0.0 0.0 0.0 0.0 0.0 0.003977294 9.912633e-22 0.0 0.0 0.0 0.0 0.0 0.0 0.0 0.0 1.0447491 0.0 0.0 0.0 0.0 0.015970545 7.105738e-15 0.0 0.00012282417 0.0 1.1804288e-07 0.0 0.0 0.0 0.0 0.0 0.0 0.0 0.0 0.0 0.0 0.0 0.0 2.2942905 2.3559958e-21 0.0 0.0 0.0 5.9487042 0.0 3.3586223e-29 0.0 0.0 0.0 0.0 0.0 2.6739357 0.0 0.0 0.0 0.0 0.0 0.0 0.0 1.7399244 0.0 0.0 0.0 0.0 0.0 0.18266386 5.322046 0.0 0.0 0.0 0.0 0.0 0.0 0.0 0.0 0.0 0.0 8.785528e-36 0.0 0.0 0.0 2.1217397e-10 0.0 0.0 0.0 0.0 0.0 6.286853e-15 0.0 0.0 0.0 0.0 0.0 3.0499726e-30 0.0 0.0 2.3942204e-26
1829 0.0 0.0 5.063499e-18 0.0 0.0 0.0 0.0 0.0 0.0 0.0 0.0 0.0 0.0 0.0 0.0 0.0 0.0 0.002155541 0.0 0.0 0.0 0.0 0.0 0.0 0.0 0.0 0.0 0.0 2.3738674e-25 0.0 0.0 0.0 0.0 0.0 0.0 0.0 0.0 1.2800266e-29 0.0 0.0 0.0 0.0 0.0 0.0 0.0 0.0 5.531569e-10 0.0 2.3272603e-05 0.0 0.0 0.0 0.0 0.0 0.0 7.478439e-17 0.0 0.0 0.0 0.0 0.0 0.0 0.0 0.0 0.0 0.0 0.0 0.0 0.0 0.0 0.0 0.0 0.0 0.0 5.771666 0.0 0.0 0.0 0.0 2.4532684e-10 0.0 0.0 0.0 0.0 0.0 0.0 0.0 0.0 0.0 0.0 0.0 0.0 0.0 0.0 0.0 0.0 0.0 5.2384276 0.0 3.2150501e-06 0.0 0.0 4.4203797e-31 0.0 0.0 5.47164e-20 0.0 0.0 3.227981e-11 0.0 0.0 0.0 0.0 0.0 0.0 0.0 0.0 9.531578e-12 0.0 0.0 0.0 0.0 0.0 0.0 0.0 0.0 1.7024661 7.277008e-18
1840 1.5270443 0.0 0.0 1.1424619e-16 0.0 0.0 0.0 0.0 6.607896e-20 0.0 0.0 0.0 0.0 0.0 0.0 0.0 0.0 0.0 0.0 0.0 0.0 0.0 0.0 0.24861966 0.0 0.0 0.0 0.0 0.0 0.0 0.0 0.0 0.0 0.0 0.0 0.0 0.0 2.671154e-19 0.0 0.0 0.0 0.0 0.0 0.0 0.09910292 0.0 0.09961305 1.190793e-11 8.373647e-11 0.0 0.0 0.0 0.0 0.0 3.167252e-08 0.0 0.0011611574 0.0 0.0 0.0 0.0 0.0 0.0 0.0 0.0 0.0 0.0 0.0 0.0 0.0 0.0 0.0 0.0 0.0 6.6216846 0.0 0.17105697 0.0 0.0 1.7935173e-24 0.0 0.0 2.8684545 0.0 0.0 0.0 0.0 0.0 0.0 0.0 1.3873968e-27 0.0 0.0 0.0 0.0 0.0 0.0 5.869901 0.0 3.474753e-05 0.37826923 0.0 0.0 0.0 0.0 0.0 0.0 0.0 1.8500396e-11 0.0 0.0 0.0 0.0 0.0 0.0 0.0 0.03312107 2.0017164 0.0 0.0 0.0 0.0 0.0 0.0 0.0 0.0 1.6921757 2.3899748e-14
1855 0.0 0.0 0.0 0.0 0.0 0.0 0.0 0.0 0.0 0.0 0.0 0.0 0.0 0.0 0.0 0.0 0.0 0.0 0.0 0.0 0.0 0.0 0.0 0.0 0.0 0.0 0.0 0.0 0.0 0.0 0.0 0.0 0.0 0.0 0.0 0.0 0.0 5.638556e-18 0.0 0.0 0.0 0.0 0.0 0.0 0.0 0.0 1.601799e-07 0.0 0.0 0.0 0.0 0.0 0.0 0.0 0.08951752 1.4833938e-35 1.6675766e-24 0.0 0.0 0.0 0.0 0.0 0.0 0.0 0.0 0.0 0.0 0.0 0.0 0.0 0.21193579 0.0 0.0 0.0 2.0447848 0.0 0.0 0.0 0.014446253 0.0 0.0 0.0 0.0 0.0 0.0 0.0 0.0 0.0 0.0 0.0 0.0 0.0 0.0 0.0 0.0 0.0 0.0 6.6445246 0.0 0.0 0.0 0.0 0.0 0.0 0.0 2.9550639e-24 0.0 0.0 6.419785e-26 0.0 0.0 0.0 4.1693485e-29 0.0 0.0 0.0 0.0 2.1074312 0.0 0.0 0.0 0.0 0.0 0.0 0.0 0.0 0.0 0.023548225
1865 0.0 0.0 0.0 0.0 0.0 0.0 0.0 0.0 0.0 0.0 0.0 0.0 0.0 0.0 0.0 0.0 0.0 0.0 0.0 0.0 0.0 0.0 0.0 0.0 0.0 0.0 0.0 0.0 0.0 0.0 0.0 0.0 0.0 0.0 0.0 0.0 0.0 3.7851192e-29 0.0 0.0 0.0 0.0 0.0 0.0 0.0 0.0 0.9412525 0.0 0.0 0.0 0.0 0.0 0.0 0.0 1.6789552e-16 0.0 3.4655204e-35 0.0 0.0 0.0 0.0 0.0 0.0 0.0 0.0 0.0 0.0 0.0 0.0 0.0 0.0 0.0 0.0 0.0 0.02949252 0.0 0.0 0.0 0.0 0.0 0.0 0.0 0.0 0.0 0.0 0.0 0.0 0.0 0.0 0.0 1.219295e-26 0.0 0.0 0.0 0.0 0.0 0.0 8.80062 0.0 0.0 0.0 0.0 0.0 0.0 0.0 0.0 0.0 0.0 1.7622601e-11 0.0 0.0 0.0 2.9322364e-25 0.0 0.0 0.0 0.0 1.8548863 0.0 0.0 0.0 0.0 0.0 0.0 0.0 0.0 0.0 3.97508e-08
1783 0.0 0.0 0.0 0.0 0.0 0.0 0.0 0.0 0.0 0.0 0.0 0.0 0.0 0.0 0.0 0.0 0.0 0.0 0.0 0.0 0.0 0.0 0.0 0.0 0.0 0.0 0.0 0.0 0.0 0.0 0.0 0.0 0.0 0.0 0.0 0.0 0.0 0.0 0.0 0.0 0.0 0.0 0.0 0.0 0.0 0.0 5.4295873e-07 0.0 0.0 0.0 0.0 0.0 0.0 0.0 0.0 0.0 5.00643e-07 0.0 0.0 0.0 0.0 0.0 0.0 0.0 0.0 0.0 0.0 0.0 0.0 0.0 0.0 0.0 0.0 0.0 3.6560771 0.0 0.0 0.0 0.015248542 0.0 0.0 0.0 0.0 0.0 0.0 0.0 0.0 0.0 0.0 0.0 0.0 0.0 0.0 0.0 0.0 0.0 0.0 1.1107093e-12 2.110506e-09 0.0 0.0 0.0 0.0 0.0 0.0 0.019538086 2.0404791e-33 0.0 0.22456427 0.0 0.0 0.0 0.0 0.0 0.0 0.0 0.0 2.309481 0.0 0.0 0.0 0.0 2.2438738 0.0 0.0 0.0 0.0 1.6786472e-10
902 0.0 0.0 0.0 0.0 0.0 1.1780808 0.0 0.093684085 0.0 0.0 0.0 0.0 0.0 0.0 5.1031975e-07 0.0 0.0 0.0 0.0 0.0 0.024018338 0.0 0.0 0.0 0.0 0.0 1.1294422 0.0 0.0 0.0 0.0 0.0 0.39608324 0.0 0.0 0.0 0.0 0.0 0.0 0.062408835 0.0 0.0 0.42759356 0.0 0.0 0.0 0.0 0.0 0.0 0.0 0.0 0.067295566 0.050423615 6.8052554e-15 0.0 0.0 0.0 0.0 0.0 0.0 0.0 0.0 0.0 0.0 0.0 0.1094169 2.834128e-27 0.0 0.0 1.4481034e-20 0.0 0.0 0.029577522 0.0 0.0 0.12355782 0.0 0.0 0.0 0.0 0.0058615394 0.0 0.0 0.0 0.0 0.0 0.0 1.6872003e-16 0.0 0.007870678 1.7753724 0.0 0.0 0.0 0.0 0.0 0.0 0.0 0.0 0.0 0.0 0.34900498 0.0 0.0 0.0 0.0054909936 0.0 0.0 0.0 0.1118619 0.0 0.0 0.0 0.0 0.0 0.0 0.0 6.7083934e-12 0.0 1.7081445 0.0 0.10936629 0.0 0.0 5.3110666e-18 0.0 0.0 0.13825843
1247 0.0 0.0005324124 0.0 0.0 0.1925764 0.15692885 0.0 0.0 0.0 0.0 0.0 0.28455526 2.32709 0.0 5.2021355e-22 0.0 0.0 0.0 0.0 0.0 2.5906208e-21 0.0 0.0 0.0 0.0 0.0 0.7557252 0.0 0.0 0.0 0.0 0.0 0.0 0.0 0.0 0.0 0.0 0.0 0.0 0.0 0.33663258 0.0 4.675764 0.0 0.0 0.0 0.0 0.0 0.0 0.0037960655 0.3685014 1.8551858e-23 0.0 0.0 0.0 0.0 0.0 0.0 0.0 3.5784883e-28 1.0028009e-23 0.0 0.0 0.0 0.0 0.0 0.0 0.0 0.0 0.10122813 0.0 0.0 0.0 0.0 0.0 0.0 0.0 0.0 0.0 0.0 0.023335477 0.0 0.0 0.0 0.0 0.0 0.0 0.0 1.2849985e-24 0.0 1.7767335 0.0 0.0 0.0 0.0 0.0 0.0 0.0 0.0 0.0 0.0 0.0 0.0 0.0 0.0 0.0 0.0 0.0 0.0 0.0 0.0 0.0 0.0 6.7455085e-21 0.0 0.0 0.0 2.5710776e-35 0.0 0.34962088 0.0 1.360697e-29 0.0 7.263046e-15 0.0 0.0 0.0 0.08537625
933 0.0 0.0 0.0 0.08408667 0.0 0.0 0.0 0.0 0.0 0.0 0.0 0.019256972 0.0 0.0 0.07060221 0.0 0.0 0.0 0.0 0.0 0.0 0.0 0.0 0.0 0.0 0.0 0.050897084 0.0 0.03976625 0.0 0.0 0.0 1.6807178 0.0 0.0 0.0 0.0 0.0 0.0 0.0 0.0 0.0 9.681532e-13 0.0 0.0 0.0 0.0 0.0 0.0 0.0 0.59319556 2.7801993 0.0 0.0 0.0 0.0 0.0 0.0 0.0 0.0 0.0 0.0 0.0 0.0 0.0 0.0 1.7744582e-12 0.0 0.0 0.0 3.215383e-33 0.0 0.0 0.0 0.0 0.0 0.0 0.0 0.0 0.0 0.0 0.0 0.02925671 0.0 0.0 0.0 0.0 0.0 0.0 0.0 0.0 0.0 0.0 0.0 0.0 0.0 0.0 0.0 0.0 0.0 0.079976395 0.27141732 0.0 0.0 0.0 0.0 0.0 0.0 0.0 0.0 0.0 0.0 0.17261517 0.0 0.0 0.0 0.0 0.0 0.0 3.6091416 1.2276098e-35 0.0 0.0 0.41098523 0.0 0.0 0.0 2.2696627e-08
682 0.0 0.2895783 4.2429096e-26 5.3197434e-31 7.4135316e-13 18.97285 0.0 3.1631882e-27 0.0 4.2992083e-06 1.3218477e-21 0.0 0.0 0.0 0.15584017 0.7415745 0.0 0.36877623 0.0 0.0 9.955832e-33 0.0 9.4870345e-18 1.9319291e-30 0.14113027 0.0 1.9152457e-18 0.0 0.0 2.9302271e-05 2.5719835e-09 0.045668773 0.28108475 0.0 0.0 5.5439655e-23 3.3046878e-28 1.4457095e-11 0.0 1.9986406e-20 2.9978865e-31 0.0 1.8048822e-32 0.0 3.5256085e-36 0.0 0.0 0.0 0.0 1.965251e-05 0.5763963 0.0 1.6427799e-17 0.0 0.0 0.00023728203 1.9962546e-22 0.0 0.0 3.8981226e-24 0.0 2.6918372e-21 0.0 1.2488241e-36 5.989796e-27 0.0 7.52303e-25 4.603697e-28 0.0 2.5949014e-14 5.3889615e-10 1.9713238e-28 0.0 0.0 0.0 0.0 2.4557784e-23 0.1427894 0.0 0.0 0.0 6.411044e-20 8.7580115e-16 0.0 6.714488e-08 0.0 1.6557947 0.0005427501 2.4247596e-10 0.0 1.6203725 0.0 0.0 2.1849577e-15 0.06736586 1.4233272e-10 0.00013909591 0.0 0.0 4.5894015e-32 2.607107e-29 2.755388e-16 0.0 7.064864e-16 0.0 0.0 1.05239054e-10 0.0 0.0 3.2240825e-26 0.0 0.0 0.009707594 0.0 0.0 0.0 7.609248e-08 4.4531087e-34 9.114576e-15 1.5479004e-15 0.0 0.0 2.4890312e-28 0.0 1.1429072e-11 0.0 0.0 1.6722897e-11
23 0.0 0.0 0.0 0.0 0.0 0.34100646 0.0 0.0 0.0 0.0 0.0 0.0 0.0 5.3522938e-14 0.0 0.0 0.0 0.0 0.0 0.0 0.0 0.0 0.0 0.0 0.0 0.0 0.0 0.0 0.0 0.04351069 0.0 0.0 0.21526399 0.0 0.0 0.0 8.8515804e-23 0.35995615 0.0 0.0 0.0 2.4667022 0.0 0.0 0.0 1.0067366e-20 0.0 0.0 0.0 0.25192744 0.4095851 0.0 0.0 0.0 0.0 0.0 1.0452619e-18 3.648991e-29 0.26487336 0.0 0.0 0.0 0.0 1.1320634 0.0 3.0807877 0.0 0.0 0.0033103277 0.020464106 0.0 0.0 0.0 0.0 0.0 0.0 0.0 0.0 0.0 0.0 0.0 1.3472488 0.0 0.0 0.0 0.0 0.0 0.0 0.0 0.0 0.0 0.0 0.0 0.091104865 0.0 4.300335e-06 0.13356723 0.0 0.0 4.887345e-16 0.0 0.0 0.039213814 0.0 0.0 0.0 1.970108e-21 0.0 0.0 0.0 0.0 2.3811227e-31 8.673438e-18 0.0 0.0 0.0 1.77609e-17 0.0 0.0 0.0 0.0 5.2549307e-28 0.019164005 0.0 0.0 0.0 1.8401433 0.0
391 0.0 0.0 0.0 0.0 1.5176003e-12 1.0002591e-35 2.685898e-06 0.0 0.0 4.1884796e-31 8.947399e-12 0.0 0.8866755 0.0 2.8855988e-32 0.0 2.751393e-06 1.7321458e-12 5.1236552e-34 0.0 0.0 6.7291886e-20 0.0 1.6448194e-19 2.2653419e-24 1.0984345e-07 6.37281e-07 0.0 0.0 4.9706637e-06 0.0 0.0 0.0 0.13712375 4.068837e-17 3.037487e-10 7.4339e-24 1.4108281e-06 0.0017488218 9.667165e-31 0.0 0.44849914 3.1210576e-33 0.0 1.9601038e-24 1.5095099e-11 0.0 0.0 1.4212782e-10 0.0 0.0 0.0 0.0 2.956019e-25 0.0 0.0 8.6913544e-35 28.36542 1.3926857 0.0 0.0 0.0 0.0 1.08695055e-07 0.0 1.822843e-07 3.0903006e-08 0.0 0.0 2.1716871 0.0 6.8930535e-17 0.0 7.493922e-27 0.0 1.9891292e-35 0.0 5.093178e-12 4.2297785e-31 4.2694303e-31 0.0 0.75165915 0.0 7.1199274e-08 8.099914e-18 0.0 0.5879378 0.0 0.0 0.0 0.0 0.0 0.0 0.0 0.0 0.0 9.456684e-05 0.0 0.0 9.854692e-06 4.7726403e-06 0.0 0.0 0.0 2.745232e-06 1.8406026 0.0 1.5278924e-14 4.8142614e-21 0.0 1.1527172e-27 9.699336e-14 1.5744472e-16 0.0 8.496511e-07 0.0 0.08627855 6.932692e-28 8.849997e-12 2.2304555e-18 0.0 2.5510724e-37 9.24289e-33 0.0 8.2613434e-14 3.3887357e-15 1.6708283 1.0941532e-28
25 0.0 0.0 0.0 0.0 1.6396907e-27 3.6642813e-32 0.0 0.0 0.0 0.0 0.0 0.0 0.0 0.0 0.0 0.0 0.0 0.0 0.0 0.0 0.0 0.0 0.0 8.8758906e-10 0.0 0.0 0.0 0.0 0.0 0.0 0.0 0.0 0.0 0.3058273 0.0 0.0 0.0 4.1939976e-21 0.0 0.032760277 0.0 0.0 0.0 0.0 0.0 0.0 0.0 0.0 0.0 0.0 0.0 0.0 0.0 0.0 0.0 0.0 0.0 0.0 0.0 0.0 0.0 0.0 0.0 0.29230866 0.0 0.0 0.0 0.0 0.0 2.3943938e-21 0.0 0.0 0.0 0.0 0.0 0.0 0.0 0.0 0.0 0.0 0.0062300703 0.0 0.0 0.0 0.0 0.0 2.3708289 0.0 0.0 0.0 0.0 0.0 0.0 0.0 0.0 0.0 1.333772e-35 0.0 0.0 0.0 1.7837726e-30 0.0 0.0 0.0 0.0 0.0 0.0 0.0 0.18710245 0.0 0.0 0.0 0.0 0.0 0.0 0.0 2.118999 4.1567876e-28 0.0 0.0 0.0 0.0 0.0 0.0 0.0 1.283084e-20 0.011330634 0.0
89 0.0 0.0 1.1108687e-15 0.0 0.0 1.8841923 0.0 0.0 0.0 0.06898033 2.7206187 0.0 0.0 0.0 0.0 0.0 0.0 0.0 0.0 0.0 0.0 0.12951009 0.0 0.0 0.0 0.0 1.4089055e-08 1.4418283 0.0 0.0 0.0 0.0 1.171912e-25 0.0 0.0 2.5755614e-34 0.0 0.35205656 0.0 1.6754535e-11 0.0 2.385178 0.0 0.0 0.0 0.0 0.0 0.0 0.0 0.0 0.0 2.534045e-24 0.0 0.0 0.0 0.0 0.0 0.23912515 0.0 0.0 1.6513001e-33 0.0 0.0 0.020835435 1.9253424e-07 2.9252284e-26 0.1815711 0.0 0.0 0.0 0.0 0.0 0.0 0.0 0.0 0.022758437 0.0 0.0 0.0 0.0 1.8379852e-21 0.0 0.0 0.0 7.464574e-27 0.0 7.603931e-13 0.0 0.0 0.0 0.0 0.0 0.0 0.0 0.0 6.607361 2.0622586e-33 0.0 0.0 0.0 0.0 1.3503765e-36 0.0 0.0 0.0 0.0 0.0 0.0 7.0702835e-37 0.0 0.0 0.0 3.76307e-10 0.0 0.0 0.0 0.10841658 0.0 0.0 0.0 0.0 0.0 4.3681397e-21 0.0 0.0 0.0 0.023935242 4.805476e-07
980 4.4605655e-17 0.0 0.0 0.0 2.704995e-09 1.603492 0.0 0.0 0.0 0.0 0.0 0.0 0.0 0.0 0.0 0.0 0.0 0.0 0.0 0.0 2.0100794 0.0 0.0 0.0 0.0 0.0 0.0 0.0 0.0 0.284831 0.0 0.0 0.0 0.0 0.0 0.0 0.0 2.4933204e-05 0.0 0.0 0.0 0.0 0.0 0.061413273 0.0 0.0 0.0 0.0 2.7443456e-10 2.8574837e-32 0.0 0.0014461396 0.0 0.0 0.0 0.0 0.0 0.0 0.0 0.0 0.0 0.0 0.0 0.7392453 0.0 0.00011421519 0.1639736 0.0 0.0 0.0 0.0 0.0 0.0 0.0 0.0 0.0 0.0 0.0 0.0 2.7586244e-25 0.0 0.0 0.0 0.0 0.0 0.033149187 0.15942715 3.691001e-33 0.0 0.123517394 0.0 0.0 0.0 0.0 0.0 0.0 0.0 0.0 0.0 4.501193e-06 0.0 1.4256577e-09 0.0 1.4823334 0.0 0.0 0.0062469556 0.0 0.0 0.0 0.0 0.0 4.6085643e-35 0.0 0.0 0.0 0.0 0.0 0.0 0.0 0.0 0.0 2.2524679 0.0 0.0 0.0 1.7081755 1.1186518e-29
1394 0.0 0.0 0.0 0.0 0.0 0.0 0.0 0.0 0.0 0.0 0.0 0.0 0.0 0.0 0.0 0.0 0.0 0.0 0.0 0.0 0.0 0.0 0.048717387 0.0 7.989298 0.0 0.0 1.423533e-12 0.0 0.0 5.8612173e-25 0.0 0.0 0.0 0.0 0.0 0.0 0.0 0.0 0.0 0.0 0.0 0.0 0.0 0.0 0.0 0.0 0.0 0.0 0.0 0.0 3.5837934e-30 0.0 0.0 0.0 0.0 0.0 0.0 0.0 0.0 0.0 0.0 0.0 0.0 0.0 0.0 0.0 0.0 0.0 0.0 0.0 0.0 0.0 0.0 0.0 0.0 0.0 0.0 0.0 0.0 0.0 0.0 0.0 0.0 0.0 0.0 0.0 0.0 0.0 0.0 7.265889e-20 0.0 0.0 0.0 0.0 0.0 6.950337e-27 0.0 0.0 0.0 0.0 0.41963425 0.0 0.0 0.0 0.0 0.0 0.0 0.0 0.0 0.0 0.0 0.0 0.0 0.0 0.0 0.0 0.0 0.0 0.0 0.0 0.0 0.0 0.0 0.0 0.0 0.0 0.0
1545 0.008806638 0.0 0.0 0.0 0.0 0.0 0.0 0.0 0.0 0.0 3.1389167e-32 0.0 0.0 0.0 0.0 0.0 0.0 0.0 0.0 0.0 0.0 0.0 1.25694285e-30 0.0 7.6322355 0.0 0.0 0.0 0.0 0.0 0.0 8.0952404e-08 0.0 0.0 0.0 0.0 0.0 0.0 0.0 0.0 0.0 0.0 0.0 0.0 0.0 0.0 0.0 0.0 0.0 0.0 0.0 1.1339725e-31 0.0 0.0 0.0 0.0 0.0 0.0 0.0 0.0 0.0 0.0 0.0 0.0 0.0 0.0 0.0 0.0 0.0 0.0 0.0 0.0 0.0 0.0 0.0 0.0 0.0 0.0 0.0 0.0 0.0 0.0 0.0 0.0 0.0 0.0 0.0 0.0 0.0 0.9345269 0.0 0.0 0.0 0.0 1.8912798e-29 0.0 6.473928e-22 0.0 0.0 0.0 0.0 0.0 0.0 0.0 0.0 0.0 0.0 0.0 0.0 0.0 0.0 0.0 0.0 0.0 0.0 0.0 0.0 0.0 0.0 0.0 0.0 0.0 0.0 0.0 0.0 0.0 0.0 0.0
